{"learner":{"attributes":{"scikit_learn":"{\"_estimator_type\": \"classifier\"}"},"feature_names":["Gender","Age at onset (year)","BMI","Recurrent thymoma","Invasive thymoma","Infection at admission","Thyroid disease","Autoimmune disease","Diabetes","Hypertension","ASCVD","Chronic lung disease","Good syndrome","Disease duration (month)","Prednisolone daily dose before admission","Immunosuppressant at admission","NLR","PLR","LMR","SII"],"feature_types":["int","int","float","int","int","int","int","int","int","int","int","int","int","int","float","int","float","float","float","float"],"gradient_booster":{"model":{"gbtree_model_param":{"num_parallel_tree":"1","num_trees":"100"},"iteration_indptr":[0,1,2,3,4,5,6,7,8,9,10,11,12,13,14,15,16,17,18,19,20,21,22,23,24,25,26,27,28,29,30,31,32,33,34,35,36,37,38,39,40,41,42,43,44,45,46,47,48,49,50,51,52,53,54,55,56,57,58,59,60,61,62,63,64,65,66,67,68,69,70,71,72,73,74,75,76,77,78,79,80,81,82,83,84,85,86,87,88,89,90,91,92,93,94,95,96,97,98,99,100],"tree_info":[0,0,0,0,0,0,0,0,0,0,0,0,0,0,0,0,0,0,0,0,0,0,0,0,0,0,0,0,0,0,0,0,0,0,0,0,0,0,0,0,0,0,0,0,0,0,0,0,0,0,0,0,0,0,0,0,0,0,0,0,0,0,0,0,0,0,0,0,0,0,0,0,0,0,0,0,0,0,0,0,0,0,0,0,0,0,0,0,0,0,0,0,0,0,0,0,0,0,0,0],"trees":[{"base_weights":[-5.258355E-1,-5.081751E-2,1.1720563E0,1.8347822E-1,1.3752727E-1,-3.4189742E-2,7.704364E-1,-6.838271E-3,6.5344505E-2],"categories":[],"categories_nodes":[],"categories_segments":[],"categories_sizes":[],"default_left":[0,0,0,0,0,0,0,0,0],"id":0,"left_children":[1,-1,3,5,-1,-1,7,-1,-1],"loss_changes":[2.020554E1,0E0,8.205427E0,2.819437E0,0E0,0E0,1.7147298E0,0E0,0E0],"parents":[2147483647,0,0,2,2,3,3,6,6],"right_children":[2,-1,4,6,-1,-1,8,-1,-1],"split_conditions":[1E0,-5.081751E-2,1.75E1,4.111111E0,1.3752727E-1,-3.4189742E-2,2E0,-6.838271E-3,6.5344505E-2],"split_indices":[5,0,14,16,0,0,0,0,0],"split_type":[0,0,0,0,0,0,0,0,0],"sum_hessian":[2.1830679E1,1.7248932E1,4.5817475E0,3.5036893E0,1.0780582E0,1.3475728E0,2.1561165E0,1.0780582E0,1.0780582E0],"tree_param":{"num_deleted":"0","num_feature":"20","num_nodes":"9","size_leaf_vector":"1"}},{"base_weights":[-5.062996E-1,-5.0078113E-2,1.1178772E0,1.7875127E-1,1.2750795E-1,-3.366619E-2,7.398112E-1,6.34642E-2,-7.324708E-3],"categories":[],"categories_nodes":[],"categories_segments":[],"categories_sizes":[],"default_left":[0,0,0,0,0,0,0,0,0],"id":1,"left_children":[1,-1,3,5,-1,-1,7,-1,-1],"loss_changes":[1.9101444E1,0E0,7.2061715E0,2.6569834E0,0E0,0E0,1.6873226E0,0E0,0E0],"parents":[2147483647,0,0,2,2,3,3,6,6],"right_children":[2,-1,4,6,-1,-1,8,-1,-1],"split_conditions":[1E0,-5.0078113E-2,1.75E1,4.111111E0,1.2750795E-1,-3.366619E-2,1.56E2,6.34642E-2,-7.324708E-3],"split_indices":[5,0,14,16,0,0,13,0,0],"split_type":[0,0,0,0,0,0,0,0,0],"sum_hessian":[2.135449E1,1.6658218E1,4.6962724E0,3.5158095E0,1.1804628E0,1.3164461E0,2.1993637E0,1.1063378E0,1.0930258E0],"tree_param":{"num_deleted":"0","num_feature":"20","num_nodes":"9","size_leaf_vector":"1"}},{"base_weights":[-4.8765072E-1,-4.935812E-2,1.0665029E0,1.7389649E-1,1.1862447E-1,-3.3154767E-2,7.105907E-1,6.878462E-2,-1.0480552E-2],"categories":[],"categories_nodes":[],"categories_segments":[],"categories_sizes":[],"default_left":[0,0,0,0,0,0,0,0,0],"id":2,"left_children":[1,-1,3,5,-1,-1,7,-1,-1],"loss_changes":[1.8046698E1,0E0,6.354582E0,2.5049193E0,0E0,0E0,2.2720952E0,0E0,0E0],"parents":[2147483647,0,0,2,2,3,3,6,6],"right_children":[2,-1,4,6,-1,-1,8,-1,-1],"split_conditions":[1E0,-4.935812E-2,1.75E1,4.111111E0,1.1862447E-1,-3.3154767E-2,1.44E2,6.878462E-2,-1.0480552E-2],"split_indices":[5,0,14,16,0,0,13,0,0],"split_type":[0,0,0,0,0,0,0,0,0],"sum_hessian":[2.0890377E1,1.6085312E1,4.8050647E0,3.5273619E0,1.2777028E0,1.2861116E0,2.2412503E0,1.0136304E0,1.2276198E0],"tree_param":{"num_deleted":"0","num_feature":"20","num_nodes":"9","size_leaf_vector":"1"}},{"base_weights":[-4.6971947E-1,-4.8655294E-2,1.0193467E0,-3.1280648E-2,1.5237557E0,4.7576614E-3,1.0630373E-1],"categories":[],"categories_nodes":[],"categories_segments":[],"categories_sizes":[],"default_left":[0,0,0,0,0,0,0],"id":3,"left_children":[1,-1,3,-1,5,-1,-1],"loss_changes":[1.70583E1,0E0,5.8517003E0,0E0,3.9359188E0,0E0,0E0],"parents":[2147483647,0,0,2,2,4,4],"right_children":[2,-1,4,-1,6,-1,-1],"split_conditions":[1E0,-4.8655294E-2,2.3333333E0,-3.1280648E-2,4.111111E0,4.7576614E-3,1.0630373E-1],"split_indices":[5,0,18,0,16,0,0],"split_type":[0,0,0,0,0,0,0],"sum_hessian":[2.0433952E1,1.5530341E1,4.9036117E0,1.0943781E0,3.8092334E0,1.4731468E0,2.3360865E0],"tree_param":{"num_deleted":"0","num_feature":"20","num_nodes":"7","size_leaf_vector":"1"}},{"base_weights":[-4.5434043E-1,-4.7967616E-2,9.5879793E-1,1.423045E-1,1.0557447E-1,-3.267318E-2,6.363199E-1,6.2372155E-2,-1.1004122E-2],"categories":[],"categories_nodes":[],"categories_segments":[],"categories_sizes":[],"default_left":[0,0,0,0,0,0,0,0,0],"id":4,"left_children":[1,-1,3,5,-1,-1,7,-1,-1],"loss_changes":[1.59281845E1,0E0,5.3813725E0,2.2265825E0,0E0,0E0,2.027051E0,0E0,0E0],"parents":[2147483647,0,0,2,2,3,3,6,6],"right_children":[2,-1,4,6,-1,-1,8,-1,-1],"split_conditions":[1E0,-4.7967616E-2,1.75E1,4.111111E0,1.0557447E-1,-3.267318E-2,1.44E2,6.2372155E-2,-1.1004122E-2],"split_indices":[5,0,14,16,0,0,13,0,0],"split_type":[0,0,0,0,0,0,0,0,0],"sum_hessian":[2.003037E1,1.4993337E1,5.037035E0,3.6061332E0,1.4309016E0,1.2576041E0,2.348529E0,1.1040659E0,1.2444631E0],"tree_param":{"num_deleted":"0","num_feature":"20","num_nodes":"9","size_leaf_vector":"1"}},{"base_weights":[-4.3794513E-1,-4.7293246E-2,9.1772735E-1,-3.0930463E-2,1.3678586E0,4.60461E-3,9.338513E-2],"categories":[],"categories_nodes":[],"categories_segments":[],"categories_sizes":[],"default_left":[0,0,0,0,0,0,0],"id":5,"left_children":[1,-1,3,-1,5,-1,-1],"loss_changes":[1.5049142E1,0E0,5.078936E0,0E0,3.045206E0,0E0,0E0],"parents":[2147483647,0,0,2,2,4,4],"right_children":[2,-1,4,-1,6,-1,-1],"split_conditions":[1E0,-4.7293246E-2,2.3333333E0,-3.0930463E-2,4.111111E0,4.60461E-3,9.338513E-2],"split_indices":[5,0,18,0,16,0,0],"split_type":[0,0,0,0,0,0,0],"sum_hessian":[1.9594906E1,1.447424E1,5.120666E0,1.0755239E0,4.0451417E0,1.4721E0,2.573042E0],"tree_param":{"num_deleted":"0","num_feature":"20","num_nodes":"7","size_leaf_vector":"1"}},{"base_weights":[-4.2396522E-1,-4.6630543E-2,8.6568135E-1,-8.760557E-2,8.12548E-2,-3.7388142E-2,4.2151075E-2],"categories":[],"categories_nodes":[],"categories_segments":[],"categories_sizes":[],"default_left":[0,0,0,0,0,0,0],"id":6,"left_children":[1,-1,3,5,-1,-1,-1],"loss_changes":[1.4062647E1,0E0,4.6555314E0,2.9115548E0,0E0,0E0,0E0],"parents":[2147483647,0,0,2,2,3,3],"right_children":[2,-1,4,6,-1,-1,-1],"split_conditions":[1E0,-4.6630543E-2,3.1648352E0,1.0625E1,8.12548E-2,-3.7388142E-2,4.2151075E-2],"split_indices":[5,0,18,16,0,0,0],"split_type":[0,0,0,0,0,0,0],"sum_hessian":[1.9207087E1,1.39729185E1,5.2341685E0,2.7130897E0,2.5210786E0,1.7021407E0,1.0109489E0],"tree_param":{"num_deleted":"0","num_feature":"20","num_nodes":"7","size_leaf_vector":"1"}},{"base_weights":[-4.0962386E-1,-4.597799E-2,8.2321787E-1,9.816353E-2,9.064575E-2,-3.2383356E-2,5.513359E-1,5.537954E-2,-1.1709142E-2],"categories":[],"categories_nodes":[],"categories_segments":[],"categories_sizes":[],"default_left":[0,0,0,0,0,0,0,0,0],"id":7,"left_children":[1,-1,3,5,-1,-1,7,-1,-1],"loss_changes":[1.321381E1,0E0,4.36102E0,1.9483502E0,0E0,0E0,1.7750522E0,0E0,0E0],"parents":[2147483647,0,0,2,2,3,3,6,6],"right_children":[2,-1,4,6,-1,-1,8,-1,-1],"split_conditions":[1E0,-4.597799E-2,1.75E1,4.111111E0,9.064575E-2,-3.2383356E-2,1.44E2,5.537954E-2,-1.1709142E-2],"split_indices":[5,0,14,16,0,0,13,0,0],"split_type":[0,0,0,0,0,0,0,0,0],"sum_hessian":[1.8814535E1,1.3489171E1,5.325365E0,3.7080352E0,1.6173296E0,1.2392665E0,2.4687686E0,1.2052644E0,1.2635043E0],"tree_param":{"num_deleted":"0","num_feature":"20","num_nodes":"9","size_leaf_vector":"1"}},{"base_weights":[-3.9517087E-1,-4.5334265E-2,7.8987867E-1,-3.015009E-2,1.1722983E0,3.465455E-3,7.911421E-2],"categories":[],"categories_nodes":[],"categories_segments":[],"categories_sizes":[],"default_left":[0,0,0,0,0,0,0],"id":8,"left_children":[1,-1,3,-1,5,-1,-1],"loss_changes":[1.2481316E1,0E0,4.108623E0,0E0,2.3097615E0,0E0,0E0],"parents":[2147483647,0,0,2,2,4,4],"right_children":[2,-1,4,-1,6,-1,-1],"split_conditions":[1E0,-4.5334265E-2,2.3333333E0,-3.015009E-2,4.111111E0,3.465455E-3,7.911421E-2],"split_indices":[5,0,18,0,16,0,0],"split_type":[0,0,0,0,0,0,0],"sum_hessian":[1.8408987E1,1.3022749E1,5.3862386E0,1.0360061E0,4.350232E0,1.4956152E0,2.854617E0],"tree_param":{"num_deleted":"0","num_feature":"20","num_nodes":"7","size_leaf_vector":"1"}},{"base_weights":[-3.8296887E-1,-4.469813E-2,7.477885E-1,7.338536E-2,8.263173E-2,-3.567447E-1,4.165033E-2,-3.7939902E-2,1.7988078E-2],"categories":[],"categories_nodes":[],"categories_segments":[],"categories_sizes":[],"default_left":[0,0,0,0,0,0,0,0,0],"id":9,"left_children":[1,-1,3,5,-1,7,-1,-1,-1],"loss_changes":[1.1673396E1,0E0,3.8284628E0,1.8507901E0,0E0,1.3492471E0,0E0,0E0,0E0],"parents":[2147483647,0,0,2,2,3,3,5,5],"right_children":[2,-1,4,6,-1,8,-1,-1,-1],"split_conditions":[1E0,-4.469813E-2,1.75E1,1.3461538E1,8.263173E-2,3.0689654E0,4.165033E-2,-3.7939902E-2,1.7988078E-2],"split_indices":[5,0,14,16,0,18,0,0,0],"split_type":[0,0,0,0,0,0,0,0,0],"sum_hessian":[1.8045885E1,1.257335E1,5.4725347E0,3.7549698E0,1.7175647E0,2.7360604E0,1.0189096E0,1.7148058E0,1.0212544E0],"tree_param":{"num_deleted":"0","num_feature":"20","num_nodes":"9","size_leaf_vector":"1"}},{"base_weights":[-3.689527E-1,-4.406851E-2,7.2128654E-1,1.3810015E-1,8.526604E-2,-4.0287742E-1,4.8723698E-2,-3.768886E-2,1.1043194E-2],"categories":[],"categories_nodes":[],"categories_segments":[],"categories_sizes":[],"default_left":[0,0,0,0,0,0,0,0,0],"id":10,"left_children":[1,-1,3,5,-1,7,-1,-1,-1],"loss_changes":[1.1057604E1,0E0,3.503051E0,2.7356658E0,0E0,1.0095873E0,0E0,0E0,0E0],"parents":[2147483647,0,0,2,2,3,3,5,5],"right_children":[2,-1,4,6,-1,8,-1,-1,-1],"split_conditions":[1E0,-4.406851E-2,3E1,6.1E1,8.526604E-2,3.1648352E0,4.8723698E-2,-3.768886E-2,1.1043194E-2],"split_indices":[5,0,14,1,0,18,0,0,0],"split_type":[0,0,0,0,0,0,0,0,0],"sum_hessian":[1.7655222E1,1.2140643E1,5.5145783E0,4.1785235E0,1.3360548E0,2.8520713E0,1.3264525E0,1.6918217E0,1.1602496E0],"tree_param":{"num_deleted":"0","num_feature":"20","num_nodes":"9","size_leaf_vector":"1"}},{"base_weights":[-3.5504737E-1,-4.344443E-2,6.9750607E-1,1.3515627E-1,8.155628E-2,-1.9676188E-2,4.661848E-2],"categories":[],"categories_nodes":[],"categories_segments":[],"categories_sizes":[],"default_left":[0,0,0,0,0,0,0],"id":11,"left_children":[1,-1,3,5,-1,-1,-1],"loss_changes":[1.0489124E1,0E0,3.2179654E0,2.5491104E0,0E0,0E0,0E0],"parents":[2147483647,0,0,2,2,3,3],"right_children":[2,-1,4,6,-1,-1,-1],"split_conditions":[1E0,-4.344443E-2,3E1,6.1E1,8.155628E-2,-1.9676188E-2,4.661848E-2],"split_indices":[5,0,14,1,0,0,0],"split_type":[0,0,0,0,0,0,0],"sum_hessian":[1.7273375E1,1.1724258E1,5.5491166E0,4.1775856E0,1.3715312E0,2.816302E0,1.3612833E0],"tree_param":{"num_deleted":"0","num_feature":"20","num_nodes":"7","size_leaf_vector":"1"}},{"base_weights":[-3.4127536E-1,-4.282501E-2,6.758148E-1,-1.0856761E-1,6.2415715E-2,-3.6480125E-2,3.5895344E-2],"categories":[],"categories_nodes":[],"categories_segments":[],"categories_sizes":[],"default_left":[0,0,0,0,0,0,0],"id":12,"left_children":[1,-1,3,5,-1,-1,-1],"loss_changes":[9.960121E0,0E0,3.0896049E0,2.4206028E0,0E0,0E0,0E0],"parents":[2147483647,0,0,2,2,3,3],"right_children":[2,-1,4,6,-1,-1,-1],"split_conditions":[1E0,-4.282501E-2,3.1648352E0,2.751607E6,6.2415715E-2,-3.6480125E-2,3.5895344E-2],"split_indices":[5,0,18,19,0,0,0],"split_type":[0,0,0,0,0,0,0],"sum_hessian":[1.690219E1,1.1323808E1,5.578381E0,2.6955566E0,2.8828244E0,1.6059866E0,1.08957E0],"tree_param":{"num_deleted":"0","num_feature":"20","num_nodes":"7","size_leaf_vector":"1"}},{"base_weights":[-3.2997137E-1,-4.220949E-2,6.460044E-1,1.1690076E-1,7.585086E-2,-1.9547913E-2,4.334651E-2],"categories":[],"categories_nodes":[],"categories_segments":[],"categories_sizes":[],"default_left":[0,0,0,0,0,0,0],"id":13,"left_children":[1,-1,3,5,-1,-1,-1],"loss_changes":[9.36175E0,0E0,2.8773992E0,2.3223374E0,0E0,0E0,0E0],"parents":[2147483647,0,0,2,2,3,3],"right_children":[2,-1,4,6,-1,-1,-1],"split_conditions":[1E0,-4.220949E-2,3E1,6.1E1,7.585086E-2,-1.9547913E-2,4.334651E-2],"split_indices":[5,0,14,1,0,0,0],"split_type":[0,0,0,0,0,0,0],"sum_hessian":[1.6567284E1,1.0938878E1,5.6284046E0,4.2070255E0,1.421379E0,2.7939396E0,1.4130862E0],"tree_param":{"num_deleted":"0","num_feature":"20","num_nodes":"7","size_leaf_vector":"1"}},{"base_weights":[-3.1709304E-1,-4.1597184E-2,6.2669206E-1,-1.106194E-1,5.7553E-2,3.4436002E-2,-3.5948448E-2],"categories":[],"categories_nodes":[],"categories_segments":[],"categories_sizes":[],"default_left":[0,0,0,0,0,0,0],"id":14,"left_children":[1,-1,3,5,-1,-1,-1],"loss_changes":[8.886838E0,0E0,2.6972435E0,2.282204E0,0E0,0E0,0E0],"parents":[2147483647,0,0,2,2,3,3],"right_children":[2,-1,4,6,-1,-1,-1],"split_conditions":[1E0,-4.1597184E-2,3.1648352E0,4E1,5.7553E-2,3.4436002E-2,-3.5948448E-2],"split_indices":[5,0,18,13,0,0,0],"split_type":[0,0,0,0,0,0,0],"sum_hessian":[1.6216135E1,1.0569046E1,5.6470895E0,2.6749277E0,2.972162E0,1.0989078E0,1.5760199E0],"tree_param":{"num_deleted":"0","num_feature":"20","num_nodes":"7","size_leaf_vector":"1"}},{"base_weights":[-3.0663493E-1,-4.0987503E-2,5.9990853E-1,1.0021863E-1,7.094832E-2,-1.9497642E-2,4.0694423E-2],"categories":[],"categories_nodes":[],"categories_segments":[],"categories_sizes":[],"default_left":[0,0,0,0,0,0,0],"id":15,"left_children":[1,-1,3,5,-1,-1,-1],"loss_changes":[8.352678E0,0E0,2.5939755E0,2.146324E0,0E0,0E0,0E0],"parents":[2147483647,0,0,2,2,3,3],"right_children":[2,-1,4,6,-1,-1,-1],"split_conditions":[1E0,-4.0987503E-2,3E1,6.1E1,7.094832E-2,-1.9497642E-2,4.0694423E-2],"split_indices":[5,0,14,1,0,0,0],"split_type":[0,0,0,0,0,0,0],"sum_hessian":[1.5899311E1,1.0213871E1,5.68544E0,4.228239E0,1.4572012E0,2.7755184E0,1.4527206E0],"tree_param":{"num_deleted":"0","num_feature":"20","num_nodes":"7","size_leaf_vector":"1"}},{"base_weights":[-2.9456034E-1,-4.0379938E-2,5.826878E-1,9.92048E-2,6.841638E-2,-1.8951856E-2,3.904299E-2],"categories":[],"categories_nodes":[],"categories_segments":[],"categories_sizes":[],"default_left":[0,0,0,0,0,0,0],"id":16,"left_children":[1,-1,3,5,-1,-1,-1],"loss_changes":[7.9269624E0,0E0,2.4071362E0,1.9984475E0,0E0,0E0,0E0],"parents":[2147483647,0,0,2,2,3,3],"right_children":[2,-1,4,6,-1,-1,-1],"split_conditions":[1E0,-4.0379938E-2,3E1,6.1E1,6.841638E-2,-1.8951856E-2,3.904299E-2],"split_indices":[5,0,14,1,0,0,0],"split_type":[0,0,0,0,0,0,0],"sum_hessian":[1.5567462E1,9.872911E0,5.69455E0,4.222373E0,1.4721773E0,2.7423294E0,1.4800434E0],"tree_param":{"num_deleted":"0","num_feature":"20","num_nodes":"7","size_leaf_vector":"1"}},{"base_weights":[-2.8290558E-1,-3.9774045E-2,5.661853E-1,-1.18632846E-1,1.0434854E0,3.1928163E-2,-3.5370495E-2,6.861546E-2,5.748335E-3],"categories":[],"categories_nodes":[],"categories_segments":[],"categories_sizes":[],"default_left":[0,0,0,0,0,0,0,0,0],"id":17,"left_children":[1,-1,3,5,7,-1,-1,-1,-1],"loss_changes":[7.520628E0,0E0,2.313575E0,2.0787249E0,1.0787482E0,0E0,0E0,0E0,0E0],"parents":[2147483647,0,0,2,2,3,3,4,4],"right_children":[2,-1,4,6,8,-1,-1,-1,-1],"split_conditions":[1E0,-3.9774045E-2,3.1648352E0,4E1,4.8627453E0,3.1928163E-2,-3.5370495E-2,6.861546E-2,5.748335E-3],"split_indices":[5,0,18,13,18,0,0,0,0],"split_type":[0,0,0,0,0,0,0,0,0],"sum_hessian":[1.5245092E1,9.545716E0,5.6993766E0,2.649455E0,3.0499213E0,1.1219779E0,1.5274773E0,1.8993382E0,1.150583E0],"tree_param":{"num_deleted":"0","num_feature":"20","num_nodes":"9","size_leaf_vector":"1"}},{"base_weights":[-2.7238E-1,-3.9169475E-2,5.469416E-1,8.658825E-2,6.47304E-2,-1.875079E-2,3.6790255E-2],"categories":[],"categories_nodes":[],"categories_segments":[],"categories_sizes":[],"default_left":[0,0,0,0,0,0,0],"id":18,"left_children":[1,-1,3,5,-1,-1,-1],"loss_changes":[7.104699E0,0E0,2.1988077E0,1.8424066E0,0E0,0E0,0E0],"parents":[2147483647,0,0,2,2,3,3],"right_children":[2,-1,4,6,-1,-1,-1],"split_conditions":[1E0,-3.9169475E-2,3E1,6.1E1,6.47304E-2,-1.875079E-2,3.6790255E-2],"split_indices":[5,0,14,1,0,0,0],"split_type":[0,0,0,0,0,0,0],"sum_hessian":[1.4945865E1,9.231838E0,5.714026E0,4.2271166E0,1.4869095E0,2.7173746E0,1.5097421E0],"tree_param":{"num_deleted":"0","num_feature":"20","num_nodes":"7","size_leaf_vector":"1"}},{"base_weights":[-2.614348E-1,-3.8565915E-2,5.3199923E-1,-1.20511465E-1,9.798914E-1,3.0281141E-2,-3.482949E-2,6.467306E-2,4.9209367E-3],"categories":[],"categories_nodes":[],"categories_segments":[],"categories_sizes":[],"default_left":[0,0,0,0,0,0,0,0,0],"id":19,"left_children":[1,-1,3,5,7,-1,-1,-1,-1],"loss_changes":[6.738517E0,0E0,2.0795052E0,1.9370607E0,1.0029566E0,0E0,0E0,0E0,0E0],"parents":[2147483647,0,0,2,2,3,3,4,4],"right_children":[2,-1,4,6,8,-1,-1,-1,-1],"split_conditions":[1E0,-3.8565915E-2,3.1648352E0,4E1,4.8627453E0,3.0281141E-2,-3.482949E-2,6.467306E-2,4.9209367E-3],"split_indices":[5,0,18,13,18,0,0,0,0],"split_type":[0,0,0,0,0,0,0,0,0],"sum_hessian":[1.464216E1,8.930827E0,5.711333E0,2.6221688E0,3.0891643E0,1.1373181E0,1.4848505E0,1.9338439E0,1.1553204E0],"tree_param":{"num_deleted":"0","num_feature":"20","num_nodes":"9","size_leaf_vector":"1"}},{"base_weights":[-2.5166857E-1,-3.796315E-2,5.14257E-1,7.470699E-2,6.1487354E-2,-1.8554358E-2,3.4729715E-2],"categories":[],"categories_nodes":[],"categories_segments":[],"categories_sizes":[],"default_left":[0,0,0,0,0,0,0],"id":20,"left_children":[1,-1,3,5,-1,-1,-1],"loss_changes":[6.3624687E0,0E0,2.021114E0,1.7020773E0,0E0,0E0,0E0],"parents":[2147483647,0,0,2,2,3,3],"right_children":[2,-1,4,6,-1,-1,-1],"split_conditions":[1E0,-3.796315E-2,3E1,6.1E1,6.1487354E-2,-1.8554358E-2,3.4729715E-2],"split_indices":[5,0,14,1,0,0,0],"split_type":[0,0,0,0,0,0,0],"sum_hessian":[1.4360924E1,8.642237E0,5.718687E0,4.2265725E0,1.4921144E0,2.6919854E0,1.5345871E0],"tree_param":{"num_deleted":"0","num_feature":"20","num_nodes":"7","size_leaf_vector":"1"}},{"base_weights":[-2.413802E-1,-5.4795206E-1,4.798365E-2,-7.113512E-1,2.42853E-2,-4.7265425E-2,-6.2249098E-2,-3.446157E-2,2.7139354E-2],"categories":[],"categories_nodes":[],"categories_segments":[],"categories_sizes":[],"default_left":[0,0,0,0,0,0,0,0,0],"id":21,"left_children":[1,3,-1,5,-1,-1,7,-1,-1],"loss_changes":[6.07663E0,2.4814239E0,0E0,1.6610966E0,0E0,0E0,1.9184693E0,0E0,0E0],"parents":[2147483647,0,0,1,1,3,3,6,6],"right_children":[2,4,-1,6,-1,-1,8,-1,-1],"split_conditions":[2.84375E6,6.233333E0,4.798365E-2,1E0,2.42853E-2,-4.7265425E-2,3.0833333E0,-3.446157E-2,2.7139354E-2],"split_indices":[19,18,0,5,0,0,18,0,0],"split_type":[0,0,0,0,0,0,0,0,0],"sum_hessian":[1.4075061E1,1.164613E1,2.4289308E0,1.0325674E1,1.3204557E0,7.2545643E0,3.0711102E0,1.4398627E0,1.6312475E0],"tree_param":{"num_deleted":"0","num_feature":"20","num_nodes":"9","size_leaf_vector":"1"}},{"base_weights":[-2.3257136E-1,-3.678761E-2,4.848347E-1,6.458267E-2,5.8574658E-2,-1.820424E-2,3.2560866E-2],"categories":[],"categories_nodes":[],"categories_segments":[],"categories_sizes":[],"default_left":[0,0,0,0,0,0,0],"id":22,"left_children":[1,-1,3,5,-1,-1,-1],"loss_changes":[5.7088337E0,0E0,1.862059E0,1.5507472E0,0E0,0E0,0E0],"parents":[2147483647,0,0,2,2,3,3],"right_children":[2,-1,4,6,-1,-1,-1],"split_conditions":[1E0,-3.678761E-2,3E1,6.1E1,5.8574658E-2,-1.820424E-2,3.2560866E-2],"split_indices":[5,0,14,1,0,0,0],"split_type":[0,0,0,0,0,0,0],"sum_hessian":[1.3826425E1,8.111521E0,5.714905E0,4.223854E0,1.4910504E0,2.6597097E0,1.5641445E0],"tree_param":{"num_deleted":"0","num_feature":"20","num_nodes":"7","size_leaf_vector":"1"}},{"base_weights":[-2.2289981E-1,-5.2757585E-1,4.5442015E-2,-6.9265985E-1,2.3288595E-2,-4.6572194E-2,-6.2412936E-2,-3.3850484E-2,2.5962455E-2],"categories":[],"categories_nodes":[],"categories_segments":[],"categories_sizes":[],"default_left":[0,0,0,0,0,0,0,0,0],"id":23,"left_children":[1,3,-1,5,-1,-1,7,-1,-1],"loss_changes":[5.4990616E0,2.3072312E0,0E0,1.5641398E0,0E0,0E0,1.7935601E0,0E0,0E0],"parents":[2147483647,0,0,1,1,3,3,6,6],"right_children":[2,4,-1,6,-1,-1,8,-1,-1],"split_conditions":[2.84375E6,6.233333E0,4.5442015E-2,1E0,2.3288595E-2,-4.6572194E-2,3.0833333E0,-3.3850484E-2,2.5962455E-2],"split_indices":[19,18,0,5,0,0,18,0,0],"split_type":[0,0,0,0,0,0,0,0,0],"sum_hessian":[1.355735E1,1.1102326E1,2.4550235E0,9.779738E0,1.3225882E0,6.7459655E0,3.0337725E0,1.3954194E0,1.6383531E0],"tree_param":{"num_deleted":"0","num_feature":"20","num_nodes":"9","size_leaf_vector":"1"}},{"base_weights":[-2.1477917E-1,-3.5616145E-2,4.574236E-1,5.482996E-2,5.5957794E-2,-2.8837532E-1,3.7121262E-2,1.377043E-2,-3.8414013E-2],"categories":[],"categories_nodes":[],"categories_segments":[],"categories_sizes":[],"default_left":[0,0,0,0,0,0,0,0,0],"id":24,"left_children":[1,-1,3,5,-1,7,-1,-1,-1],"loss_changes":[5.116475E0,0E0,1.7239884E0,1.445502E0,0E0,1.3482215E0,0E0,0E0,0E0],"parents":[2147483647,0,0,2,2,3,3,5,5],"right_children":[2,-1,4,6,-1,8,-1,-1,-1],"split_conditions":[1E0,-3.5616145E-2,3E1,1.72E1,5.5957794E-2,1.6794366E2,3.7121262E-2,1.377043E-2,-3.8414013E-2],"split_indices":[5,0,14,16,0,17,0,0,0],"split_type":[0,0,0,0,0,0,0,0,0],"sum_hessian":[1.3323926E1,7.622386E0,5.7015395E0,4.2181206E0,1.4834191E0,3.2009873E0,1.0171331E0,1.6678016E0,1.5331858E0],"tree_param":{"num_deleted":"0","num_feature":"20","num_nodes":"9","size_leaf_vector":"1"}},{"base_weights":[-2.0568654E-1,-5.073473E-1,4.2991772E-2,-4.5670472E-2,-2.7111629E-2,-2.6716743E-2,2.7555022E-2],"categories":[],"categories_nodes":[],"categories_segments":[],"categories_sizes":[],"default_left":[0,0,0,0,0,0,0],"id":25,"left_children":[1,3,-1,-1,5,-1,-1],"loss_changes":[4.959999E0,2.2368307E0,0E0,0E0,2.155083E0,0E0,0E0],"parents":[2147483647,0,0,1,1,4,4],"right_children":[2,4,-1,-1,6,-1,-1],"split_conditions":[2.84375E6,3.5555556E0,4.2991772E-2,-4.5670472E-2,1E0,-2.6716743E-2,2.7555022E-2],"split_indices":[19,18,0,0,5,0,0],"split_type":[0,0,0,0,0,0,0],"sum_hessian":[1.3074038E1,1.0597595E1,2.4764423E0,5.2535048E0,5.3440905E0,2.887224E0,2.4568665E0],"tree_param":{"num_deleted":"0","num_feature":"20","num_nodes":"7","size_leaf_vector":"1"}},{"base_weights":[-1.9898145E-1,-4.9699664E-1,4.1005686E-2,-4.522897E-2,-2.6006537E-2,-2.618712E-2,2.643953E-2],"categories":[],"categories_nodes":[],"categories_segments":[],"categories_sizes":[],"default_left":[0,0,0,0,0,0,0],"id":26,"left_children":[1,3,-1,-1,5,-1,-1],"loss_changes":[4.617833E0,2.1550877E0,0E0,0E0,2.01513E0,0E0,0E0],"parents":[2147483647,0,0,1,1,4,4],"right_children":[2,4,-1,-1,6,-1,-1],"split_conditions":[2.84375E6,3.5555556E0,4.1005686E-2,-4.522897E-2,1E0,-2.618712E-2,2.643953E-2],"split_indices":[19,18,0,0,5,0,0],"split_type":[0,0,0,0,0,0,0],"sum_hessian":[1.2862884E1,1.0348867E1,2.514016E0,5.0543623E0,5.2945056E0,2.8202736E0,2.4742317E0],"tree_param":{"num_deleted":"0","num_feature":"20","num_nodes":"7","size_leaf_vector":"1"}},{"base_weights":[-1.9259244E-1,-3.397827E-2,4.2139435E-1,4.0566463E-2,5.2676108E-2,-1.8017303E-2,2.9119715E-2],"categories":[],"categories_nodes":[],"categories_segments":[],"categories_sizes":[],"default_left":[0,0,0,0,0,0,0],"id":27,"left_children":[1,-1,3,5,-1,-1,-1],"loss_changes":[4.3703623E0,0E0,1.5602697E0,1.3384545E0,0E0,0E0,0E0],"parents":[2147483647,0,0,2,2,3,3],"right_children":[2,-1,4,6,-1,-1,-1],"split_conditions":[1E0,-3.397827E-2,3E1,6.1E1,5.2676108E-2,-1.8017303E-2,2.9119715E-2],"split_indices":[5,0,14,1,0,0,0],"split_type":[0,0,0,0,0,0,0],"sum_hessian":[1.2659085E1,7.0001945E0,5.6588902E0,4.195481E0,1.4634094E0,2.603803E0,1.5916778E0],"tree_param":{"num_deleted":"0","num_feature":"20","num_nodes":"7","size_leaf_vector":"1"}},{"base_weights":[-1.8418343E-1,-4.7554934E-1,3.989809E-2,-3.9129417E-2,1.3329852E-1,-1.3993459E-2,3.456381E-2],"categories":[],"categories_nodes":[],"categories_segments":[],"categories_sizes":[],"default_left":[0,0,0,0,0,0,0],"id":28,"left_children":[1,3,-1,-1,5,-1,-1],"loss_changes":[4.2217717E0,2.1572154E0,0E0,0E0,1.2391633E0,0E0,0E0],"parents":[2147483647,0,0,1,1,4,4],"right_children":[2,4,-1,-1,6,-1,-1],"split_conditions":[1.2142858E1,1E0,3.989809E-2,-3.9129417E-2,1.75E1,-1.3993459E-2,3.456381E-2],"split_indices":[16,5,0,0,14,0,0],"split_type":[0,0,0,0,0,0,0],"sum_hessian":[1.2426938E1,9.98158E0,2.4453578E0,6.44569E0,3.5358899E0,2.3179393E0,1.2179506E0],"tree_param":{"num_deleted":"0","num_feature":"20","num_nodes":"7","size_leaf_vector":"1"}},{"base_weights":[-1.7657588E-1,-4.6961734E-1,3.7963133E-2,-4.43027E-2,-6.0523017E-3,-3.3553785E-1,4.070541E-2,-3.978161E-2,1.8498946E-2],"categories":[],"categories_nodes":[],"categories_segments":[],"categories_sizes":[],"default_left":[0,0,0,0,0,0,0,0,0],"id":29,"left_children":[1,3,-1,-1,5,7,-1,-1,-1],"loss_changes":[3.9800022E0,2.0563257E0,0E0,0E0,1.9109809E0,1.9277534E0,0E0,0E0,0E0],"parents":[2147483647,0,0,1,1,4,4,5,5],"right_children":[2,4,-1,-1,6,8,-1,-1,-1],"split_conditions":[2.84375E6,3.5555556E0,3.7963133E-2,-4.43027E-2,2.792E1,2.5E1,4.070541E-2,-3.978161E-2,1.8498946E-2],"split_indices":[19,18,0,0,2,14,0,0,0],"split_type":[0,0,0,0,0,0,0,0,0],"sum_hessian":[1.2212683E1,9.679807E0,2.5328767E0,4.619004E0,5.0608025E0,4.0319304E0,1.028872E0,2.36312E0,1.6688105E0],"tree_param":{"num_deleted":"0","num_feature":"20","num_nodes":"9","size_leaf_vector":"1"}},{"base_weights":[-1.6959213E-1,-3.2344352E-2,3.9614502E-1,3.5640072E-2,4.978317E-2,-1.7393723E-2,2.7191464E-2],"categories":[],"categories_nodes":[],"categories_segments":[],"categories_sizes":[],"default_left":[0,0,0,0,0,0,0],"id":30,"left_children":[1,-1,3,5,-1,-1,-1],"loss_changes":[3.774642E0,0E0,1.3872352E0,1.1925046E0,0E0,0E0,0E0],"parents":[2147483647,0,0,2,2,3,3],"right_children":[2,-1,4,6,-1,-1,-1],"split_conditions":[1E0,-3.2344352E-2,3E1,6.1E1,4.978317E-2,-1.7393723E-2,2.7191464E-2],"split_indices":[5,0,14,1,0,0,0],"split_type":[0,0,0,0,0,0,0],"sum_hessian":[1.202991E1,6.4471817E0,5.582728E0,4.147927E0,1.4348012E0,2.543722E0,1.6042049E0],"tree_param":{"num_deleted":"0","num_feature":"20","num_nodes":"7","size_leaf_vector":"1"}},{"base_weights":[-1.6188857E-1,-6.8516386E-1,3.5055158E-1,6.7396252E-3,-4.414959E-2,-3.5281137E-2,4.0080767E-2],"categories":[],"categories_nodes":[],"categories_segments":[],"categories_sizes":[],"default_left":[0,0,0,0,0,0,0],"id":31,"left_children":[1,3,5,-1,-1,-1,-1],"loss_changes":[3.6772768E0,1.2026463E0,3.9659798E0,0E0,0E0,0E0,0E0],"parents":[2147483647,0,0,1,1,2,2],"right_children":[2,4,6,-1,-1,-1,-1],"split_conditions":[4.508982E0,8.372881E1,2.3333333E0,6.7396252E-3,-4.414959E-2,-3.5281137E-2,4.0080767E-2],"split_indices":[16,17,18,0,0,0,0],"split_type":[0,0,0,0,0,0,0],"sum_hessian":[1.18179245E1,5.680378E0,6.1375465E0,1.1660359E0,4.5143423E0,1.6678627E0,4.4696836E0],"tree_param":{"num_deleted":"0","num_feature":"20","num_nodes":"7","size_leaf_vector":"1"}},{"base_weights":[-1.5865271E-1,-3.8448933E-1,4.716521E-2,-3.753124E-2,1.441351E-1,3.0336512E-2,-2.0756776E-2],"categories":[],"categories_nodes":[],"categories_segments":[],"categories_sizes":[],"default_left":[0,0,0,0,0,0,0],"id":32,"left_children":[1,3,-1,-1,5,-1,-1],"loss_changes":[3.515077E0,2.2804089E0,0E0,0E0,1.6570687E0,0E0,0E0],"parents":[2147483647,0,0,1,1,4,4],"right_children":[2,4,-1,-1,6,-1,-1],"split_conditions":[4.3592855E6,1E0,4.716521E-2,-3.753124E-2,1.7572423E2,3.0336512E-2,-2.0756776E-2],"split_indices":[19,5,0,0,17,0,0],"split_type":[0,0,0,0,0,0,0],"sum_hessian":[1.1667195E1,1.0223137E1,1.4440591E0,5.7917204E0,4.431416E0,2.3788853E0,2.052531E0],"tree_param":{"num_deleted":"0","num_feature":"20","num_nodes":"7","size_leaf_vector":"1"}},{"base_weights":[-1.5158615E-1,-6.677781E-1,3.3397576E-1,6.839224E-3,-4.349632E-2,-3.4579676E-2,3.789594E-2],"categories":[],"categories_nodes":[],"categories_segments":[],"categories_sizes":[],"default_left":[0,0,0,0,0,0,0],"id":33,"left_children":[1,3,5,-1,-1,-1,-1],"loss_changes":[3.3555782E0,1.1584885E0,3.6140513E0,0E0,0E0,0E0,0E0],"parents":[2147483647,0,0,1,1,2,2],"right_children":[2,4,6,-1,-1,-1,-1],"split_conditions":[4.508982E0,8.372881E1,2.3333333E0,6.839224E-3,-4.349632E-2,-3.4579676E-2,3.789594E-2],"split_indices":[16,17,18,0,0,0,0],"split_type":[0,0,0,0,0,0,0],"sum_hessian":[1.1498074E1,5.391355E0,6.1067185E0,1.147516E0,4.243839E0,1.6014007E0,4.505318E0],"tree_param":{"num_deleted":"0","num_feature":"20","num_nodes":"7","size_leaf_vector":"1"}},{"base_weights":[-1.4878766E-1,-4.3217486E-1,3.4137707E-2,-6.376837E-1,1.932455E-2,-4.5500945E-2,-1.134219E-2,-2.9747685E-2,3.0287776E-2],"categories":[],"categories_nodes":[],"categories_segments":[],"categories_sizes":[],"default_left":[0,0,0,0,0,0,0,0,0],"id":34,"left_children":[1,3,-1,5,-1,-1,7,-1,-1],"loss_changes":[3.2066767E0,1.899883E0,0E0,1.3940163E0,0E0,0E0,1.623622E0,0E0,0E0],"parents":[2147483647,0,0,1,1,3,3,6,6],"right_children":[2,4,-1,6,-1,-1,8,-1,-1],"split_conditions":[2.84375E6,2.885E1,3.4137707E-2,2.5E1,1.932455E-2,-4.5500945E-2,1E0,-2.9747685E-2,3.0287776E-2],"split_indices":[19,2,0,14,0,0,5,0,0],"split_type":[0,0,0,0,0,0,0,0,0],"sum_hessian":[1.1355735E1,8.827589E0,2.5281458E0,7.232973E0,1.5946159E0,4.7254295E0,2.5075433E0,1.3071802E0,1.2003633E0],"tree_param":{"num_deleted":"0","num_feature":"20","num_nodes":"9","size_leaf_vector":"1"}},{"base_weights":[-1.4300315E-1,-6.485784E-1,3.1374037E-1,6.870995E-3,-4.2733815E-2,-3.4061454E-2,3.5801064E-2],"categories":[],"categories_nodes":[],"categories_segments":[],"categories_sizes":[],"default_left":[0,0,0,0,0,0,0],"id":35,"left_children":[1,3,5,-1,-1,-1,-1],"loss_changes":[3.018121E0,1.1074209E0,3.320664E0,0E0,0E0,0E0,0E0],"parents":[2147483647,0,0,1,1,2,2],"right_children":[2,4,6,-1,-1,-1,-1],"split_conditions":[4.508982E0,8.372881E1,2.3333333E0,6.870995E-3,-4.2733815E-2,-3.4061454E-2,3.5801064E-2],"split_indices":[16,17,18,0,0,0,0],"split_type":[0,0,0,0,0,0,0],"sum_hessian":[1.1188886E1,5.111213E0,6.0776725E0,1.1310278E0,3.9801853E0,1.5501755E0,4.5274973E0],"tree_param":{"num_deleted":"0","num_feature":"20","num_nodes":"7","size_leaf_vector":"1"}},{"base_weights":[-1.4059658E-1,-2.9680867E-2,3.5360253E-1,-1.6104147E-1,3.4539968E-2,2.086586E-2,-3.202815E-2],"categories":[],"categories_nodes":[],"categories_segments":[],"categories_sizes":[],"default_left":[0,0,0,0,0,0,0],"id":36,"left_children":[1,-1,3,5,-1,-1,-1],"loss_changes":[2.908614E0,0E0,1.2204478E0,1.1939204E0,0E0,0E0,0E0],"parents":[2147483647,0,0,2,2,3,3],"right_children":[2,-1,4,6,-1,-1,-1],"split_conditions":[1E0,-2.9680867E-2,3.1648352E0,4E1,3.4539968E-2,2.086586E-2,-3.202815E-2],"split_indices":[5,0,18,13,0,0,0],"split_type":[0,0,0,0,0,0,0],"sum_hessian":[1.1054134E1,5.6623864E0,5.3917475E0,2.3410892E0,3.0506582E0,1.1199824E0,1.2211069E0],"tree_param":{"num_deleted":"0","num_feature":"20","num_nodes":"7","size_leaf_vector":"1"}},{"base_weights":[-1.361806E-1,-3.555521E-1,4.2360555E-2,-3.5655774E-2,1.2553146E-1,2.8866446E-2,-2.1040196E-2],"categories":[],"categories_nodes":[],"categories_segments":[],"categories_sizes":[],"default_left":[0,0,0,0,0,0,0],"id":37,"left_children":[1,3,-1,-1,5,-1,-1],"loss_changes":[2.8663273E0,1.8829978E0,0E0,0E0,1.5500638E0,0E0,0E0],"parents":[2147483647,0,0,1,1,4,4],"right_children":[2,4,-1,-1,6,-1,-1],"split_conditions":[4.3592855E6,1E0,4.2360555E-2,-3.5655774E-2,1.7572423E2,2.8866446E-2,-2.1040196E-2],"split_indices":[19,5,0,0,17,0,0],"split_type":[0,0,0,0,0,0,0],"sum_hessian":[1.0890427E1,9.426124E0,1.4643033E0,5.130552E0,4.295572E0,2.3201613E0,1.9754105E0],"tree_param":{"num_deleted":"0","num_feature":"20","num_nodes":"7","size_leaf_vector":"1"}},{"base_weights":[-1.3007401E-1,-6.288E-1,3.0179155E-1,7.0121833E-3,-4.1951034E-2,-3.3046715E-2,3.3829782E-2],"categories":[],"categories_nodes":[],"categories_segments":[],"categories_sizes":[],"default_left":[0,0,0,0,0,0,0],"id":38,"left_children":[1,3,5,-1,-1,-1,-1],"loss_changes":[2.7188928E0,1.0510967E0,2.9617527E0,0E0,0E0,0E0,0E0],"parents":[2147483647,0,0,1,1,2,2],"right_children":[2,4,6,-1,-1,-1,-1],"split_conditions":[4.508982E0,8.372881E1,2.3333333E0,7.0121833E-3,-4.1951034E-2,-3.3046715E-2,3.3829782E-2],"split_indices":[16,17,18,0,0,0,0],"split_type":[0,0,0,0,0,0,0],"sum_hessian":[1.0742483E1,4.77371E0,5.968773E0,1.096241E0,3.677469E0,1.4586518E0,4.5101213E0],"tree_param":{"num_deleted":"0","num_feature":"20","num_nodes":"7","size_leaf_vector":"1"}},{"base_weights":[-1.282019E-1,-4.0226153E-1,3.095352E-2,-6.182324E-1,2.0565823E-2,-4.448013E-2,-1.0160155E-2,-2.8181454E-2,2.7223846E-2],"categories":[],"categories_nodes":[],"categories_segments":[],"categories_sizes":[],"default_left":[0,0,0,0,0,0,0,0,0],"id":39,"left_children":[1,3,-1,5,-1,-1,7,-1,-1],"loss_changes":[2.6282346E0,1.854325E0,0E0,1.2443075E0,0E0,0E0,1.3368704E0,0E0,0E0],"parents":[2147483647,0,0,1,1,3,3,6,6],"right_children":[2,4,-1,6,-1,-1,8,-1,-1],"split_conditions":[2.84375E6,2.885E1,3.095352E-2,2.5E1,2.0565823E-2,-4.448013E-2,1E0,-2.8181454E-2,2.7223846E-2],"split_indices":[19,2,0,14,0,0,5,0,0],"split_type":[0,0,0,0,0,0,0,0,0],"sum_hessian":[1.0617378E1,8.106163E0,2.511215E0,6.5954537E0,1.5107098E0,4.240166E0,2.3552876E0,1.1707705E0,1.184517E0],"tree_param":{"num_deleted":"0","num_feature":"20","num_nodes":"9","size_leaf_vector":"1"}},{"base_weights":[-1.2321812E-1,-3.3584893E-1,3.8951896E-2,-3.4507275E-2,1.21733874E-1,2.7951688E-2,-2.0622028E-2],"categories":[],"categories_nodes":[],"categories_segments":[],"categories_sizes":[],"default_left":[0,0,0,0,0,0,0],"id":40,"left_children":[1,3,-1,-1,5,-1,-1],"loss_changes":[2.4618692E0,1.7019897E0,0E0,0E0,1.4464937E0,0E0,0E0],"parents":[2147483647,0,0,1,1,4,4],"right_children":[2,4,-1,-1,6,-1,-1],"split_conditions":[4.3592855E6,1E0,3.8951896E-2,-3.4507275E-2,1.7572423E2,2.7951688E-2,-2.0622028E-2],"split_indices":[19,5,0,0,17,0,0],"split_type":[0,0,0,0,0,0,0],"sum_hessian":[1.0468644E1,8.980108E0,1.4885362E0,4.774823E0,4.205285E0,2.2867267E0,1.9185582E0],"tree_param":{"num_deleted":"0","num_feature":"20","num_nodes":"7","size_leaf_vector":"1"}},{"base_weights":[-1.1770074E-1,-3.0257596E-2,2.8447643E-1,-3.237057E-2,3.1966936E-2],"categories":[],"categories_nodes":[],"categories_segments":[],"categories_sizes":[],"default_left":[0,0,0,0,0],"id":41,"left_children":[1,-1,3,-1,-1],"loss_changes":[2.393853E0,0E0,2.692307E0,0E0,0E0],"parents":[2147483647,0,0,2,2],"right_children":[2,-1,4,-1,-1],"split_conditions":[4.508982E0,-3.0257596E-2,2.3333333E0,-3.237057E-2,3.1966936E-2],"split_indices":[16,0,18,0,0],"split_type":[0,0,0,0,0],"sum_hessian":[1.03328E1,4.4430256E0,5.889774E0,1.3969374E0,4.4928365E0],"tree_param":{"num_deleted":"0","num_feature":"20","num_nodes":"5","size_leaf_vector":"1"}},{"base_weights":[-1.1580733E-1,-3.799831E-1,2.8536886E-2,-2.880516E-2,2.486766E-2],"categories":[],"categories_nodes":[],"categories_segments":[],"categories_sizes":[],"default_left":[0,0,0,0,0],"id":42,"left_children":[1,3,-1,-1,-1],"loss_changes":[2.2537975E0,1.7852811E0,0E0,0E0,0E0],"parents":[2147483647,0,0,1,1],"right_children":[2,4,-1,-1,-1],"split_conditions":[2.84375E6,6.233333E0,2.8536886E-2,-2.880516E-2,2.486766E-2],"split_indices":[19,18,0,0,0],"split_type":[0,0,0,0,0],"sum_hessian":[1.023087E1,7.710481E0,2.5203884E0,6.5823984E0,1.1280829E0],"tree_param":{"num_deleted":"0","num_feature":"20","num_nodes":"5","size_leaf_vector":"1"}},{"base_weights":[-1.0906308E-1,-5.8448577E-1,2.7090535E-1,8.409081E-3,-4.045449E-2,-3.1916592E-2,3.0516563E-2],"categories":[],"categories_nodes":[],"categories_segments":[],"categories_sizes":[],"default_left":[0,0,0,0,0,0,0],"id":43,"left_children":[1,3,5,-1,-1,-1,-1],"loss_changes":[2.16795E0,1.0250002E0,2.5086617E0,0E0,0E0,0E0,0E0],"parents":[2147483647,0,0,1,1,2,2],"right_children":[2,4,6,-1,-1,-1,-1],"split_conditions":[4.508982E0,8.372881E1,2.3333333E0,8.409081E-3,-4.045449E-2,-3.1916592E-2,3.0516563E-2],"split_indices":[16,17,18,0,0,0,0],"split_type":[0,0,0,0,0,0,0],"sum_hessian":[1.01245985E1,4.2582984E0,5.8663E0,1.0364093E0,3.221889E0,1.355264E0,4.511036E0],"tree_param":{"num_deleted":"0","num_feature":"20","num_nodes":"7","size_leaf_vector":"1"}},{"base_weights":[-1.07987955E-1,-2.6278755E-2,3.036772E-1,-8.905785E-3,3.0901602E-2],"categories":[],"categories_nodes":[],"categories_segments":[],"categories_sizes":[],"default_left":[0,0,0,0,0],"id":44,"left_children":[1,-1,3,-1,-1],"loss_changes":[2.0531805E0,0E0,1.0461744E0,0E0,0E0],"parents":[2147483647,0,0,2,2],"right_children":[2,-1,4,-1,-1],"split_conditions":[1E0,-2.6278755E-2,3.1648352E0,-8.905785E-3,3.0901602E-2],"split_indices":[5,0,18,0,0],"split_type":[0,0,0,0,0],"sum_hessian":[1.0015173E1,4.834461E0,5.180712E0,2.2167006E0,2.9640117E0],"tree_param":{"num_deleted":"0","num_feature":"20","num_nodes":"5","size_leaf_vector":"1"}},{"base_weights":[-1.0424084E-1,-3.626975E-1,2.7212417E-2,-5.912946E-1,2.2218643E-2,-4.3343995E-2,6.431931E-3,-2.6335219E-2,2.512159E-2],"categories":[],"categories_nodes":[],"categories_segments":[],"categories_sizes":[],"default_left":[0,0,0,0,0,0,0,0,0],"id":45,"left_children":[1,3,-1,5,-1,-1,7,-1,-1],"loss_changes":[2.0238314E0,1.8109977E0,0E0,1.1534789E0,0E0,0E0,1.1086257E0,0E0,0E0],"parents":[2147483647,0,0,1,1,3,3,6,6],"right_children":[2,4,-1,6,-1,-1,8,-1,-1],"split_conditions":[2.84375E6,2.885E1,2.7212417E-2,2.5E1,2.2218643E-2,-4.3343995E-2,1E0,-2.6335219E-2,2.512159E-2],"split_indices":[19,2,0,14,0,0,5,0,0],"split_type":[0,0,0,0,0,0,0,0,0],"sum_hessian":[9.8971615E0,7.3918347E0,2.505327E0,5.968621E0,1.4232137E0,3.776944E0,2.1916769E0,1.0264598E0,1.165217E0],"tree_param":{"num_deleted":"0","num_feature":"20","num_nodes":"9","size_leaf_vector":"1"}},{"base_weights":[-1.0010602E-1,-3.7438076E-2,1.643348E-1,-2.2340955E-2,2.8997047E-2],"categories":[],"categories_nodes":[],"categories_segments":[],"categories_sizes":[],"default_left":[0,0,0,0,0],"id":46,"left_children":[1,-1,3,-1,-1],"loss_changes":[1.9700046E0,0E0,2.410286E0,0E0,0E0],"parents":[2147483647,0,0,2,2],"right_children":[2,-1,4,-1,-1],"split_conditions":[2.3333333E0,-3.7438076E-2,4.218391E0,-2.2340955E-2,2.8997047E-2],"split_indices":[18,0,16,0,0],"split_type":[0,0,0,0,0],"sum_hessian":[9.767482E0,2.298334E0,7.4691477E0,2.9929197E0,4.476228E0],"tree_param":{"num_deleted":"0","num_feature":"20","num_nodes":"5","size_leaf_vector":"1"}},{"base_weights":[-9.900707E-2,-3.698067E-2,1.5708783E-1,-2.177102E-2,2.7648373E-2],"categories":[],"categories_nodes":[],"categories_segments":[],"categories_sizes":[],"default_left":[0,0,0,0,0],"id":47,"left_children":[1,-1,3,-1,-1],"loss_changes":[1.8679053E0,0E0,2.2235045E0,0E0,0E0],"parents":[2147483647,0,0,2,2],"right_children":[2,-1,4,-1,-1],"split_conditions":[2.3333333E0,-3.698067E-2,4.218391E0,-2.177102E-2,2.7648373E-2],"split_indices":[18,0,16,0,0],"split_type":[0,0,0,0,0],"sum_hessian":[9.677579E0,2.2246654E0,7.4529138E0,2.9451149E0,4.507799E0],"tree_param":{"num_deleted":"0","num_feature":"20","num_nodes":"5","size_leaf_vector":"1"}},{"base_weights":[-9.7973384E-2,-2.9559723E-1,3.2975968E-2,-4.6483523E-1,2.4387008E-2,-4.0842928E-2,2.9446006E-2,2.5826836E-2,-2.7347526E-2],"categories":[],"categories_nodes":[],"categories_segments":[],"categories_sizes":[],"default_left":[0,0,0,0,0,0,0,0,0],"id":48,"left_children":[1,3,-1,5,-1,-1,7,-1,-1],"loss_changes":[1.7804034E0,1.4317956E0,0E0,1.4138018E0,0E0,0E0,1.486262E0,0E0,0E0],"parents":[2147483647,0,0,1,1,3,3,6,6],"right_children":[2,4,-1,6,-1,-1,8,-1,-1],"split_conditions":[4.3592855E6,6.233333E0,3.2975968E-2,1E0,2.4387008E-2,-4.0842928E-2,1.7572423E2,2.5826836E-2,-2.7347526E-2],"split_indices":[19,18,0,5,0,0,17,0,0],"split_type":[0,0,0,0,0,0,0,0,0],"sum_hessian":[9.590955E0,8.090085E0,1.5008699E0,6.98713E0,1.1029549E0,3.6996493E0,3.2874806E0,1.838059E0,1.4494218E0],"tree_param":{"num_deleted":"0","num_feature":"20","num_nodes":"9","size_leaf_vector":"1"}},{"base_weights":[-9.308784E-2,-3.6195945E-2,1.5174687E-1,-2.1053169E-2,2.624586E-2],"categories":[],"categories_nodes":[],"categories_segments":[],"categories_sizes":[],"default_left":[0,0,0,0,0],"id":49,"left_children":[1,-1,3,-1,-1],"loss_changes":[1.7261925E0,0E0,2.0092697E0,0E0,0E0],"parents":[2147483647,0,0,2,2],"right_children":[2,-1,4,-1,-1],"split_conditions":[2.3333333E0,-3.6195945E-2,4.218391E0,-2.1053169E-2,2.624586E-2],"split_indices":[18,0,16,0,0],"split_type":[0,0,0,0,0],"sum_hessian":[9.465179E0,2.0993404E0,7.3658395E0,2.8550477E0,4.510792E0],"tree_param":{"num_deleted":"0","num_feature":"20","num_nodes":"5","size_leaf_vector":"1"}},{"base_weights":[-9.23011E-2,-3.376947E-1,2.4667617E-2,-5.718324E-1,2.2521844E-2,-4.2495694E-2,8.021397E-4],"categories":[],"categories_nodes":[],"categories_segments":[],"categories_sizes":[],"default_left":[0,0,0,0,0,0,0],"id":50,"left_children":[1,3,-1,5,-1,-1,-1],"loss_changes":[1.6589919E0,1.7175249E0,0E0,1.0828128E0,0E0,0E0,0E0],"parents":[2147483647,0,0,1,1,3,3],"right_children":[2,4,-1,6,-1,-1,-1],"split_conditions":[2.84375E6,2.885E1,2.4667617E-2,2.5E1,2.2521844E-2,-4.2495694E-2,8.021397E-4],"split_indices":[19,2,0,14,0,0,0],"split_type":[0,0,0,0,0,0,0],"sum_hessian":[9.384324E0,6.911667E0,2.4726574E0,5.540225E0,1.3714417E0,3.4585133E0,2.0817118E0],"tree_param":{"num_deleted":"0","num_feature":"20","num_nodes":"7","size_leaf_vector":"1"}},{"base_weights":[-8.821285E-2,-3.569113E-2,1.507659E-1,-1.6523825E-1,3.9384544E-2,-4.617554E-1,3.4829564E-2,-3.9529454E-2,5.2409605E-3],"categories":[],"categories_nodes":[],"categories_segments":[],"categories_sizes":[],"default_left":[0,0,0,0,0,0,0,0,0],"id":51,"left_children":[1,-1,3,5,-1,7,-1,-1,-1],"loss_changes":[1.64656E0,0E0,1.7954417E0,1.9460993E0,0E0,1.0760587E0,0E0,0E0,0E0],"parents":[2147483647,0,0,2,2,3,3,5,5],"right_children":[2,-1,4,6,-1,8,-1,-1,-1],"split_conditions":[2.3333333E0,-3.569113E-2,2.84375E6,2.876E1,3.9384544E-2,2.5E1,3.4829564E-2,-3.9529454E-2,5.2409605E-3],"split_indices":[18,0,19,2,0,14,0,0,0],"split_type":[0,0,0,0,0,0,0,0,0],"sum_hessian":[9.293401E0,2.019552E0,7.2738485E0,5.3567286E0,1.9171201E0,4.33088E0,1.0258482E0,2.4902074E0,1.8406729E0],"tree_param":{"num_deleted":"0","num_feature":"20","num_nodes":"9","size_leaf_vector":"1"}},{"base_weights":[-8.468803E-2,-3.5246395E-2,1.4889096E-1,-1.963636E-2,2.4429698E-2],"categories":[],"categories_nodes":[],"categories_segments":[],"categories_sizes":[],"default_left":[0,0,0,0,0],"id":52,"left_children":[1,-1,3,-1,-1],"loss_changes":[1.5785507E0,0E0,1.7032624E0,0E0,0E0],"parents":[2147483647,0,0,2,2],"right_children":[2,-1,4,-1,-1],"split_conditions":[2.3333333E0,-3.5246395E-2,4.218391E0,-1.963636E-2,2.4429698E-2],"split_indices":[18,0,16,0,0],"split_type":[0,0,0,0,0],"sum_hessian":[9.171482E0,1.9569919E0,7.21449E0,2.7206423E0,4.4938474E0],"tree_param":{"num_deleted":"0","num_feature":"20","num_nodes":"5","size_leaf_vector":"1"}},{"base_weights":[-8.422847E-2,-3.3345285E-1,4.6271685E-1,-2.7557423E-2,2.485538E-2,-9.940649E-3,4.0890314E-2],"categories":[],"categories_nodes":[],"categories_segments":[],"categories_sizes":[],"default_left":[0,0,0,0,0,0,0],"id":53,"left_children":[1,3,5,-1,-1,-1,-1],"loss_changes":[1.5307441E0,1.6333154E0,1.0034752E0,0E0,0E0,0E0,0E0],"parents":[2147483647,0,0,1,1,2,2],"right_children":[2,4,6,-1,-1,-1,-1],"split_conditions":[6.1E1,3.2895E6,2E0,-2.7557423E-2,2.485538E-2,-9.940649E-3,4.0890314E-2],"split_indices":[1,19,0,0,0,0,0],"split_type":[0,0,0,0,0,0,0],"sum_hessian":[9.09778E0,6.5180583E0,2.5797217E0,5.430976E0,1.0870824E0,1.0547786E0,1.5249431E0],"tree_param":{"num_deleted":"0","num_feature":"20","num_nodes":"7","size_leaf_vector":"1"}},{"base_weights":[-7.808917E-2,-3.4589004E-2,1.4762609E-1,-1.8553484E-2,2.3211034E-2],"categories":[],"categories_nodes":[],"categories_segments":[],"categories_sizes":[],"default_left":[0,0,0,0,0],"id":54,"left_children":[1,-1,3,-1,-1],"loss_changes":[1.488004E0,0E0,1.5087748E0,0E0,0E0],"parents":[2147483647,0,0,2,2],"right_children":[2,-1,4,-1,-1],"split_conditions":[2.3333333E0,-3.4589004E-2,4.218391E0,-1.8553484E-2,2.3211034E-2],"split_indices":[18,0,16,0,0],"split_type":[0,0,0,0,0],"sum_hessian":[9.004946E0,1.8661869E0,7.1387587E0,2.64054E0,4.498219E0],"tree_param":{"num_deleted":"0","num_feature":"20","num_nodes":"5","size_leaf_vector":"1"}},{"base_weights":[-7.786674E-2,-2.2758141E-2,1.3417839E-2],"categories":[],"categories_nodes":[],"categories_segments":[],"categories_sizes":[],"default_left":[0,0,0],"id":55,"left_children":[1,-1,-1],"loss_changes":[1.4201273E0,0E0,0E0],"parents":[2147483647,0,0],"right_children":[2,-1,-1],"split_conditions":[1E0,-2.2758141E-2,1.3417839E-2],"split_indices":[5,0,0],"split_type":[0,0,0],"sum_hessian":[8.936412E0,4.125744E0,4.810668E0],"tree_param":{"num_deleted":"0","num_feature":"20","num_nodes":"3","size_leaf_vector":"1"}},{"base_weights":[-7.558569E-2,-3.1937113E-1,2.248649E-2,-2.673376E-2,2.3853848E-2],"categories":[],"categories_nodes":[],"categories_segments":[],"categories_sizes":[],"default_left":[0,0,0,0,0],"id":56,"left_children":[1,3,-1,-1,-1],"loss_changes":[1.4065514E0,1.5103865E0,0E0,0E0,0E0],"parents":[2147483647,0,0,1,1],"right_children":[2,4,-1,-1,-1],"split_conditions":[6.1E1,3.2895E6,2.248649E-2,-2.673376E-2,2.3853848E-2],"split_indices":[1,19,0,0,0],"split_type":[0,0,0,0,0],"sum_hessian":[8.861617E0,6.3204823E0,2.5411346E0,5.234196E0,1.0862864E0],"tree_param":{"num_deleted":"0","num_feature":"20","num_nodes":"5","size_leaf_vector":"1"}},{"base_weights":[-7.044578E-2,-3.393632E-2,1.4848581E-1,-1.3593365E-1,3.4920655E-2,-4.3001127E-1,3.380048E-2,-3.8559075E-2,6.361026E-3],"categories":[],"categories_nodes":[],"categories_segments":[],"categories_sizes":[],"default_left":[0,0,0,0,0,0,0,0,0],"id":57,"left_children":[1,-1,3,5,-1,7,-1,-1,-1],"loss_changes":[1.4051416E0,0E0,1.3497865E0,1.753186E0,0E0,1.0691301E0,0E0,0E0,0E0],"parents":[2147483647,0,0,2,2,3,3,5,5],"right_children":[2,-1,4,6,-1,8,-1,-1,-1],"split_conditions":[2.3333333E0,-3.393632E-2,2.84375E6,2.876E1,3.4920655E-2,2.5E1,3.380048E-2,-3.8559075E-2,6.361026E-3],"split_indices":[18,0,19,2,0,14,0,0,0],"split_type":[0,0,0,0,0,0,0,0,0],"sum_hessian":[8.794566E0,1.7717503E0,7.022816E0,5.1250057E0,1.8978103E0,4.1076493E0,1.0173565E0,2.3096151E0,1.7980341E0],"tree_param":{"num_deleted":"0","num_feature":"20","num_nodes":"9","size_leaf_vector":"1"}},{"base_weights":[-6.7666784E-2,-3.3505447E-2,1.464153E-1,-1.1642495E-1,3.6771085E-2,-1.6498761E-2,2.5527954E-2],"categories":[],"categories_nodes":[],"categories_segments":[],"categories_sizes":[],"default_left":[0,0,0,0,0,0,0],"id":58,"left_children":[1,-1,3,5,-1,-1,-1],"loss_changes":[1.3474116E0,0E0,1.3191167E0,1.0216986E0,0E0,0E0,0E0],"parents":[2147483647,0,0,2,2,3,3],"right_children":[2,-1,4,6,-1,-1,-1],"split_conditions":[2.3333333E0,-3.3505447E-2,6.4E1,2.84375E6,3.6771085E-2,-1.6498761E-2,2.5527954E-2],"split_indices":[18,0,1,19,0,0,0],"split_type":[0,0,0,0,0,0,0],"sum_hessian":[8.686573E0,1.7190095E0,6.967564E0,5.372471E0,1.595093E0,4.360872E0,1.0115992E0],"tree_param":{"num_deleted":"0","num_feature":"20","num_nodes":"7","size_leaf_vector":"1"}},{"base_weights":[-6.3668534E-2,-3.3078775E-2,1.4529082E-1,-1.7117731E-2,2.1574749E-2],"categories":[],"categories_nodes":[],"categories_segments":[],"categories_sizes":[],"default_left":[0,0,0,0,0],"id":59,"left_children":[1,-1,3,-1,-1],"loss_changes":[1.2965266E0,0E0,1.2558348E0,0E0,0E0],"parents":[2147483647,0,0,2,2],"right_children":[2,-1,4,-1,-1],"split_conditions":[2.3333333E0,-3.3078775E-2,4.218391E0,-1.7117731E-2,2.1574749E-2],"split_indices":[18,0,16,0,0],"split_type":[0,0,0,0,0],"sum_hessian":[8.607991E0,1.6683114E0,6.93968E0,2.4940436E0,4.4456363E0],"tree_param":{"num_deleted":"0","num_feature":"20","num_nodes":"5","size_leaf_vector":"1"}},{"base_weights":[-6.398996E-2,-3.265637E-2,1.3870694E-1,-5.799129E-3,3.533115E-2],"categories":[],"categories_nodes":[],"categories_segments":[],"categories_sizes":[],"default_left":[0,0,0,0,0],"id":60,"left_children":[1,-1,3,-1,-1],"loss_changes":[1.2309037E0,0E0,1.2288911E0,0E0,0E0],"parents":[2147483647,0,0,2,2],"right_children":[2,-1,4,-1,-1],"split_conditions":[2.3333333E0,-3.265637E-2,6.4E1,-5.799129E-3,3.533115E-2],"split_indices":[18,0,1,0,0],"split_type":[0,0,0,0,0],"sum_hessian":[8.549033E0,1.619571E0,6.929462E0,5.3334017E0,1.5960602E0],"tree_param":{"num_deleted":"0","num_feature":"20","num_nodes":"5","size_leaf_vector":"1"}},{"base_weights":[-6.1575778E-2,-2.1078425E-2,1.2868633E-2],"categories":[],"categories_nodes":[],"categories_segments":[],"categories_sizes":[],"default_left":[0,0,0],"id":61,"left_children":[1,-1,-1],"loss_changes":[1.1984301E0,0E0,0E0],"parents":[2147483647,0,0],"right_children":[2,-1,-1],"split_conditions":[1E0,-2.1078425E-2,1.2868633E-2],"split_indices":[5,0,0],"split_type":[0,0,0],"sum_hessian":[8.492582E0,3.8384411E0,4.654141E0],"tree_param":{"num_deleted":"0","num_feature":"20","num_nodes":"3","size_leaf_vector":"1"}},{"base_weights":[-5.9856877E-2,-3.213369E-2,1.3711168E-1,-1.6663598E-2,2.0501213E-2],"categories":[],"categories_nodes":[],"categories_segments":[],"categories_sizes":[],"default_left":[0,0,0,0,0],"id":62,"left_children":[1,-1,3,-1,-1],"loss_changes":[1.1703877E0,0E0,1.1470147E0,0E0,0E0],"parents":[2147483647,0,0,2,2],"right_children":[2,-1,4,-1,-1],"split_conditions":[2.3333333E0,-3.213369E-2,4.218391E0,-1.6663598E-2,2.0501213E-2],"split_indices":[18,0,16,0,0],"split_type":[0,0,0,0,0],"sum_hessian":[8.427714E0,1.5572097E0,6.870505E0,2.4414062E0,4.4290986E0],"tree_param":{"num_deleted":"0","num_feature":"20","num_nodes":"5","size_leaf_vector":"1"}},{"base_weights":[-6.0335137E-2,-2.8799275E-1,2.0577138E-2,-2.8835753E-2,1.5067867E-2],"categories":[],"categories_nodes":[],"categories_segments":[],"categories_sizes":[],"default_left":[0,0,0,0,0],"id":63,"left_children":[1,3,-1,-1,-1],"loss_changes":[1.1254553E0,1.3497802E0,0E0,0E0,0E0],"parents":[2147483647,0,0,1,1],"right_children":[2,4,-1,-1,-1],"split_conditions":[6.1E1,2.75E1,2.0577138E-2,-2.8835753E-2,1.5067867E-2],"split_indices":[1,14,0,0,0],"split_type":[0,0,0,0,0],"sum_hessian":[8.373226E0,5.911102E0,2.4621246E0,3.9818394E0,1.9292624E0],"tree_param":{"num_deleted":"0","num_feature":"20","num_nodes":"5","size_leaf_vector":"1"}},{"base_weights":[-5.7115752E-2,-3.1587627E-2,1.3372977E-1,-5.4765213E-3,3.3368748E-2],"categories":[],"categories_nodes":[],"categories_segments":[],"categories_sizes":[],"default_left":[0,0,0,0,0],"id":64,"left_children":[1,-1,3,-1,-1],"loss_changes":[1.1056186E0,0E0,1.0876142E0,0E0,0E0],"parents":[2147483647,0,0,2,2],"right_children":[2,-1,4,-1,-1],"split_conditions":[2.3333333E0,-3.1587627E-2,6.4E1,-5.4765213E-3,3.3368748E-2],"split_indices":[18,0,1,0,0],"split_type":[0,0,0,0,0],"sum_hessian":[8.31124E0,1.4961233E0,6.815117E0,5.2271085E0,1.5880082E0],"tree_param":{"num_deleted":"0","num_feature":"20","num_nodes":"5","size_leaf_vector":"1"}},{"base_weights":[-5.5040438E-2,-2.0077726E-2,1.2300238E-2],"categories":[],"categories_nodes":[],"categories_segments":[],"categories_sizes":[],"default_left":[0,0,0],"id":65,"left_children":[1,-1,-1],"loss_changes":[1.0648099E0,0E0,0E0],"parents":[2147483647,0,0],"right_children":[2,-1,-1],"split_conditions":[1E0,-2.0077726E-2,1.2300238E-2],"split_indices":[5,0,0],"split_type":[0,0,0],"sum_hessian":[8.260534E0,3.685045E0,4.5754895E0],"tree_param":{"num_deleted":"0","num_feature":"20","num_nodes":"3","size_leaf_vector":"1"}},{"base_weights":[-5.354937E-2,-3.1083314E-2,1.3204503E-1,-1.6120685E-2,1.9581273E-2],"categories":[],"categories_nodes":[],"categories_segments":[],"categories_sizes":[],"default_left":[0,0,0,0,0],"id":66,"left_children":[1,-1,3,-1,-1],"loss_changes":[1.0522285E0,0E0,1.0417134E0,0E0,0E0],"parents":[2147483647,0,0,2,2],"right_children":[2,-1,4,-1,-1],"split_conditions":[2.3333333E0,-3.1083314E-2,4.218391E0,-1.6120685E-2,1.9581273E-2],"split_indices":[18,0,16,0,0],"split_type":[0,0,0,0,0],"sum_hessian":[8.200936E0,1.4408383E0,6.7600985E0,2.3695564E0,4.390542E0],"tree_param":{"num_deleted":"0","num_feature":"20","num_nodes":"5","size_leaf_vector":"1"}},{"base_weights":[-5.4273166E-2,-3.0680869E-2,1.2598953E-1,-5.5182194E-3,3.216419E-2],"categories":[],"categories_nodes":[],"categories_segments":[],"categories_sizes":[],"default_left":[0,0,0,0,0],"id":67,"left_children":[1,-1,3,-1,-1],"loss_changes":[1.0000715E0,0E0,1.0186529E0,0E0,0E0],"parents":[2147483647,0,0,2,2],"right_children":[2,-1,4,-1,-1],"split_conditions":[2.3333333E0,-3.0680869E-2,6.4E1,-5.5182194E-3,3.216419E-2],"split_indices":[18,0,1,0,0],"split_type":[0,0,0,0,0],"sum_hessian":[8.151762E0,1.4008845E0,6.7508774E0,5.1736608E0,1.5772165E0],"tree_param":{"num_deleted":"0","num_feature":"20","num_nodes":"5","size_leaf_vector":"1"}},{"base_weights":[-5.2345928E-2],"categories":[],"categories_nodes":[],"categories_segments":[],"categories_sizes":[],"default_left":[0],"id":68,"left_children":[-1],"loss_changes":[0E0],"parents":[2147483647],"right_children":[-1],"split_conditions":[-2.6172965E-3],"split_indices":[0],"split_type":[0],"sum_hessian":[8.104703E0],"tree_param":{"num_deleted":"0","num_feature":"20","num_nodes":"1","size_leaf_vector":"1"}},{"base_weights":[-5.007113E-2],"categories":[],"categories_nodes":[],"categories_segments":[],"categories_sizes":[],"default_left":[0],"id":69,"left_children":[-1],"loss_changes":[0E0],"parents":[2147483647],"right_children":[-1],"split_conditions":[-2.5035567E-3],"split_indices":[0],"split_type":[0],"sum_hessian":[8.094947E0],"tree_param":{"num_deleted":"0","num_feature":"20","num_nodes":"1","size_leaf_vector":"1"}},{"base_weights":[-4.789318E-2],"categories":[],"categories_nodes":[],"categories_segments":[],"categories_sizes":[],"default_left":[0],"id":70,"left_children":[-1],"loss_changes":[0E0],"parents":[2147483647],"right_children":[-1],"split_conditions":[-2.3946592E-3],"split_indices":[0],"split_type":[0],"sum_hessian":[8.0856285E0],"tree_param":{"num_deleted":"0","num_feature":"20","num_nodes":"1","size_leaf_vector":"1"}},{"base_weights":[-4.580812E-2],"categories":[],"categories_nodes":[],"categories_segments":[],"categories_sizes":[],"default_left":[0],"id":71,"left_children":[-1],"loss_changes":[0E0],"parents":[2147483647],"right_children":[-1],"split_conditions":[-2.290406E-3],"split_indices":[0],"split_type":[0],"sum_hessian":[8.076729E0],"tree_param":{"num_deleted":"0","num_feature":"20","num_nodes":"1","size_leaf_vector":"1"}},{"base_weights":[-4.3812156E-2],"categories":[],"categories_nodes":[],"categories_segments":[],"categories_sizes":[],"default_left":[0],"id":72,"left_children":[-1],"loss_changes":[0E0],"parents":[2147483647],"right_children":[-1],"split_conditions":[-2.1906078E-3],"split_indices":[0],"split_type":[0],"sum_hessian":[8.068229E0],"tree_param":{"num_deleted":"0","num_feature":"20","num_nodes":"1","size_leaf_vector":"1"}},{"base_weights":[-4.190163E-2],"categories":[],"categories_nodes":[],"categories_segments":[],"categories_sizes":[],"default_left":[0],"id":73,"left_children":[-1],"loss_changes":[0E0],"parents":[2147483647],"right_children":[-1],"split_conditions":[-2.0950816E-3],"split_indices":[0],"split_type":[0],"sum_hessian":[8.06011E0],"tree_param":{"num_deleted":"0","num_feature":"20","num_nodes":"1","size_leaf_vector":"1"}},{"base_weights":[-4.0073E-2],"categories":[],"categories_nodes":[],"categories_segments":[],"categories_sizes":[],"default_left":[0],"id":74,"left_children":[-1],"loss_changes":[0E0],"parents":[2147483647],"right_children":[-1],"split_conditions":[-2.00365E-3],"split_indices":[0],"split_type":[0],"sum_hessian":[8.052356E0],"tree_param":{"num_deleted":"0","num_feature":"20","num_nodes":"1","size_leaf_vector":"1"}},{"base_weights":[-3.8322844E-2],"categories":[],"categories_nodes":[],"categories_segments":[],"categories_sizes":[],"default_left":[0],"id":75,"left_children":[-1],"loss_changes":[0E0],"parents":[2147483647],"right_children":[-1],"split_conditions":[-1.9161422E-3],"split_indices":[0],"split_type":[0],"sum_hessian":[8.044949E0],"tree_param":{"num_deleted":"0","num_feature":"20","num_nodes":"1","size_leaf_vector":"1"}},{"base_weights":[-3.6647957E-2],"categories":[],"categories_nodes":[],"categories_segments":[],"categories_sizes":[],"default_left":[0],"id":76,"left_children":[-1],"loss_changes":[0E0],"parents":[2147483647],"right_children":[-1],"split_conditions":[-1.8323979E-3],"split_indices":[0],"split_type":[0],"sum_hessian":[8.037873E0],"tree_param":{"num_deleted":"0","num_feature":"20","num_nodes":"1","size_leaf_vector":"1"}},{"base_weights":[-3.5045188E-2],"categories":[],"categories_nodes":[],"categories_segments":[],"categories_sizes":[],"default_left":[0],"id":77,"left_children":[-1],"loss_changes":[0E0],"parents":[2147483647],"right_children":[-1],"split_conditions":[-1.7522594E-3],"split_indices":[0],"split_type":[0],"sum_hessian":[8.031115E0],"tree_param":{"num_deleted":"0","num_feature":"20","num_nodes":"1","size_leaf_vector":"1"}},{"base_weights":[-3.3511482E-2],"categories":[],"categories_nodes":[],"categories_segments":[],"categories_sizes":[],"default_left":[0],"id":78,"left_children":[-1],"loss_changes":[0E0],"parents":[2147483647],"right_children":[-1],"split_conditions":[-1.6755741E-3],"split_indices":[0],"split_type":[0],"sum_hessian":[8.024658E0],"tree_param":{"num_deleted":"0","num_feature":"20","num_nodes":"1","size_leaf_vector":"1"}},{"base_weights":[-3.204402E-2],"categories":[],"categories_nodes":[],"categories_segments":[],"categories_sizes":[],"default_left":[0],"id":79,"left_children":[-1],"loss_changes":[0E0],"parents":[2147483647],"right_children":[-1],"split_conditions":[-1.602201E-3],"split_indices":[0],"split_type":[0],"sum_hessian":[8.018491E0],"tree_param":{"num_deleted":"0","num_feature":"20","num_nodes":"1","size_leaf_vector":"1"}},{"base_weights":[-3.0640043E-2],"categories":[],"categories_nodes":[],"categories_segments":[],"categories_sizes":[],"default_left":[0],"id":80,"left_children":[-1],"loss_changes":[0E0],"parents":[2147483647],"right_children":[-1],"split_conditions":[-1.5320022E-3],"split_indices":[0],"split_type":[0],"sum_hessian":[8.0126E0],"tree_param":{"num_deleted":"0","num_feature":"20","num_nodes":"1","size_leaf_vector":"1"}},{"base_weights":[-2.9296758E-2],"categories":[],"categories_nodes":[],"categories_segments":[],"categories_sizes":[],"default_left":[0],"id":81,"left_children":[-1],"loss_changes":[0E0],"parents":[2147483647],"right_children":[-1],"split_conditions":[-1.4648379E-3],"split_indices":[0],"split_type":[0],"sum_hessian":[8.006971E0],"tree_param":{"num_deleted":"0","num_feature":"20","num_nodes":"1","size_leaf_vector":"1"}},{"base_weights":[-2.8011708E-2],"categories":[],"categories_nodes":[],"categories_segments":[],"categories_sizes":[],"default_left":[0],"id":82,"left_children":[-1],"loss_changes":[0E0],"parents":[2147483647],"right_children":[-1],"split_conditions":[-1.4005854E-3],"split_indices":[0],"split_type":[0],"sum_hessian":[8.0015955E0],"tree_param":{"num_deleted":"0","num_feature":"20","num_nodes":"1","size_leaf_vector":"1"}},{"base_weights":[-2.678242E-2],"categories":[],"categories_nodes":[],"categories_segments":[],"categories_sizes":[],"default_left":[0],"id":83,"left_children":[-1],"loss_changes":[0E0],"parents":[2147483647],"right_children":[-1],"split_conditions":[-1.339121E-3],"split_indices":[0],"split_type":[0],"sum_hessian":[7.9964595E0],"tree_param":{"num_deleted":"0","num_feature":"20","num_nodes":"1","size_leaf_vector":"1"}},{"base_weights":[-2.560651E-2,-2.9885828E-2,7.5618625E-3],"categories":[],"categories_nodes":[],"categories_segments":[],"categories_sizes":[],"default_left":[0,0,0],"id":84,"left_children":[1,-1,-1],"loss_changes":[1.0001092E0,0E0,0E0],"parents":[2147483647,0,0],"right_children":[2,-1,-1],"split_conditions":[2.3333333E0,-2.9885828E-2,7.5618625E-3],"split_indices":[18,0,0],"split_type":[0,0,0],"sum_hessian":[7.991553E0,1.3250263E0,6.6665263E0],"tree_param":{"num_deleted":"0","num_feature":"20","num_nodes":"3","size_leaf_vector":"1"}},{"base_weights":[-2.6927156E-2],"categories":[],"categories_nodes":[],"categories_segments":[],"categories_sizes":[],"default_left":[0],"id":85,"left_children":[-1],"loss_changes":[0E0],"parents":[2147483647],"right_children":[-1],"split_conditions":[-1.3463579E-3],"split_indices":[0],"split_type":[0],"sum_hessian":[7.9745407E0],"tree_param":{"num_deleted":"0","num_feature":"20","num_nodes":"1","size_leaf_vector":"1"}},{"base_weights":[-2.574525E-2],"categories":[],"categories_nodes":[],"categories_segments":[],"categories_sizes":[],"default_left":[0],"id":86,"left_children":[-1],"loss_changes":[0E0],"parents":[2147483647],"right_children":[-1],"split_conditions":[-1.2872625E-3],"split_indices":[0],"split_type":[0],"sum_hessian":[7.969639E0],"tree_param":{"num_deleted":"0","num_feature":"20","num_nodes":"1","size_leaf_vector":"1"}},{"base_weights":[-2.4614671E-2],"categories":[],"categories_nodes":[],"categories_segments":[],"categories_sizes":[],"default_left":[0],"id":87,"left_children":[-1],"loss_changes":[0E0],"parents":[2147483647],"right_children":[-1],"split_conditions":[-1.2307336E-3],"split_indices":[0],"split_type":[0],"sum_hessian":[7.9649563E0],"tree_param":{"num_deleted":"0","num_feature":"20","num_nodes":"1","size_leaf_vector":"1"}},{"base_weights":[-2.3533292E-2],"categories":[],"categories_nodes":[],"categories_segments":[],"categories_sizes":[],"default_left":[0],"id":88,"left_children":[-1],"loss_changes":[0E0],"parents":[2147483647],"right_children":[-1],"split_conditions":[-1.1766646E-3],"split_indices":[0],"split_type":[0],"sum_hessian":[7.9604826E0],"tree_param":{"num_deleted":"0","num_feature":"20","num_nodes":"1","size_leaf_vector":"1"}},{"base_weights":[-2.249894E-2],"categories":[],"categories_nodes":[],"categories_segments":[],"categories_sizes":[],"default_left":[0],"id":89,"left_children":[-1],"loss_changes":[0E0],"parents":[2147483647],"right_children":[-1],"split_conditions":[-1.124947E-3],"split_indices":[0],"split_type":[0],"sum_hessian":[7.9562087E0],"tree_param":{"num_deleted":"0","num_feature":"20","num_nodes":"1","size_leaf_vector":"1"}},{"base_weights":[-2.1509731E-2],"categories":[],"categories_nodes":[],"categories_segments":[],"categories_sizes":[],"default_left":[0],"id":90,"left_children":[-1],"loss_changes":[0E0],"parents":[2147483647],"right_children":[-1],"split_conditions":[-1.0754865E-3],"split_indices":[0],"split_type":[0],"sum_hessian":[7.9521255E0],"tree_param":{"num_deleted":"0","num_feature":"20","num_nodes":"1","size_leaf_vector":"1"}},{"base_weights":[-2.0563558E-2],"categories":[],"categories_nodes":[],"categories_segments":[],"categories_sizes":[],"default_left":[0],"id":91,"left_children":[-1],"loss_changes":[0E0],"parents":[2147483647],"right_children":[-1],"split_conditions":[-1.0281779E-3],"split_indices":[0],"split_type":[0],"sum_hessian":[7.948224E0],"tree_param":{"num_deleted":"0","num_feature":"20","num_nodes":"1","size_leaf_vector":"1"}},{"base_weights":[-1.9658746E-2],"categories":[],"categories_nodes":[],"categories_segments":[],"categories_sizes":[],"default_left":[0],"id":92,"left_children":[-1],"loss_changes":[0E0],"parents":[2147483647],"right_children":[-1],"split_conditions":[-9.829373E-4],"split_indices":[0],"split_type":[0],"sum_hessian":[7.944497E0],"tree_param":{"num_deleted":"0","num_feature":"20","num_nodes":"1","size_leaf_vector":"1"}},{"base_weights":[-1.8793365E-2],"categories":[],"categories_nodes":[],"categories_segments":[],"categories_sizes":[],"default_left":[0],"id":93,"left_children":[-1],"loss_changes":[0E0],"parents":[2147483647],"right_children":[-1],"split_conditions":[-9.396683E-4],"split_indices":[0],"split_type":[0],"sum_hessian":[7.940936E0],"tree_param":{"num_deleted":"0","num_feature":"20","num_nodes":"1","size_leaf_vector":"1"}},{"base_weights":[-1.7965833E-2],"categories":[],"categories_nodes":[],"categories_segments":[],"categories_sizes":[],"default_left":[0],"id":94,"left_children":[-1],"loss_changes":[0E0],"parents":[2147483647],"right_children":[-1],"split_conditions":[-8.9829165E-4],"split_indices":[0],"split_type":[0],"sum_hessian":[7.9375334E0],"tree_param":{"num_deleted":"0","num_feature":"20","num_nodes":"1","size_leaf_vector":"1"}},{"base_weights":[-1.7174428E-2],"categories":[],"categories_nodes":[],"categories_segments":[],"categories_sizes":[],"default_left":[0],"id":95,"left_children":[-1],"loss_changes":[0E0],"parents":[2147483647],"right_children":[-1],"split_conditions":[-8.5872144E-4],"split_indices":[0],"split_type":[0],"sum_hessian":[7.9342823E0],"tree_param":{"num_deleted":"0","num_feature":"20","num_nodes":"1","size_leaf_vector":"1"}},{"base_weights":[-1.6417665E-2],"categories":[],"categories_nodes":[],"categories_segments":[],"categories_sizes":[],"default_left":[0],"id":96,"left_children":[-1],"loss_changes":[0E0],"parents":[2147483647],"right_children":[-1],"split_conditions":[-8.2088326E-4],"split_indices":[0],"split_type":[0],"sum_hessian":[7.9311757E0],"tree_param":{"num_deleted":"0","num_feature":"20","num_nodes":"1","size_leaf_vector":"1"}},{"base_weights":[-1.5694028E-2],"categories":[],"categories_nodes":[],"categories_segments":[],"categories_sizes":[],"default_left":[0],"id":97,"left_children":[-1],"loss_changes":[0E0],"parents":[2147483647],"right_children":[-1],"split_conditions":[-7.847014E-4],"split_indices":[0],"split_type":[0],"sum_hessian":[7.928208E0],"tree_param":{"num_deleted":"0","num_feature":"20","num_nodes":"1","size_leaf_vector":"1"}},{"base_weights":[-1.5002092E-2],"categories":[],"categories_nodes":[],"categories_segments":[],"categories_sizes":[],"default_left":[0],"id":98,"left_children":[-1],"loss_changes":[0E0],"parents":[2147483647],"right_children":[-1],"split_conditions":[-7.501046E-4],"split_indices":[0],"split_type":[0],"sum_hessian":[7.9253726E0],"tree_param":{"num_deleted":"0","num_feature":"20","num_nodes":"1","size_leaf_vector":"1"}},{"base_weights":[-1.43405255E-2],"categories":[],"categories_nodes":[],"categories_segments":[],"categories_sizes":[],"default_left":[0],"id":99,"left_children":[-1],"loss_changes":[0E0],"parents":[2147483647],"right_children":[-1],"split_conditions":[-7.170263E-4],"split_indices":[0],"split_type":[0],"sum_hessian":[7.922663E0],"tree_param":{"num_deleted":"0","num_feature":"20","num_nodes":"1","size_leaf_vector":"1"}}]},"name":"gbtree"},"learner_model_param":{"base_score":"1.6052581E-1","boost_from_average":"1","num_class":"0","num_feature":"20","num_target":"1"},"objective":{"name":"binary:logistic","reg_loss_param":{"scale_pos_weight":"1"}}},"version":[2,1,4]}