{"learner":{"attributes":{"scikit_learn":"{\"_estimator_type\": \"classifier\"}"},"feature_names":["Gender","BMI","Infection at admission","Thyroid disease","Autoimmune disease","Diabetes","Hypertension","ASCVD","Chronic lung disease","Good syndrome","Disease duration (month)","Prednisolone daily dose before admission","Immunosuppressant at admission","Anti-MuSK","Anti-AChR","dSN","Thymoma","Thymic hyperplasia","Thymectomy","NLR","PLR","LMR","SII"],"feature_types":["int","float","int","int","int","int","int","int","int","int","int","float","int","int","int","int","int","int","int","float","float","float","float"],"gradient_booster":{"model":{"gbtree_model_param":{"num_parallel_tree":"1","num_trees":"100"},"iteration_indptr":[0,1,2,3,4,5,6,7,8,9,10,11,12,13,14,15,16,17,18,19,20,21,22,23,24,25,26,27,28,29,30,31,32,33,34,35,36,37,38,39,40,41,42,43,44,45,46,47,48,49,50,51,52,53,54,55,56,57,58,59,60,61,62,63,64,65,66,67,68,69,70,71,72,73,74,75,76,77,78,79,80,81,82,83,84,85,86,87,88,89,90,91,92,93,94,95,96,97,98,99,100],"tree_info":[0,0,0,0,0,0,0,0,0,0,0,0,0,0,0,0,0,0,0,0,0,0,0,0,0,0,0,0,0,0,0,0,0,0,0,0,0,0,0,0,0,0,0,0,0,0,0,0,0,0,0,0,0,0,0,0,0,0,0,0,0,0,0,0,0,0,0,0,0,0,0,0,0,0,0,0,0,0,0,0,0,0,0,0,0,0,0,0,0,0,0,0,0,0,0,0,0,0,0,0],"trees":[{"base_weights":[-3.5165753E-2,-5.670269E-1,6.387676E-1,-7.639156E-1,1.6928788E-1,8.6517525E-1,-1.3867875E-2,-4.2834472E-2,6.51061E-3,-7.0363344E-3,2.988104E-1,-1.2669519E-1,1.1051326E0,1.659981E-2,8.181397E-4,-1.2829839E-2,6.51061E-3,5.7718743E-2,3.5582024E-3],"categories":[],"categories_nodes":[],"categories_segments":[],"categories_sizes":[],"default_left":[0,0,0,0,0,0,0,0,0,0,0,0,0,0,0,0,0,0,0],"id":0,"left_children":[1,3,5,7,9,11,-1,-1,-1,-1,13,15,17,-1,-1,-1,-1,-1,-1],"loss_changes":[1.9432331E1,5.6351995E0,7.410512E0,3.226263E0,1.0029356E0,6.588377E0,0E0,0E0,0E0,0E0,7.158077E-2,7.7523434E-1,1.2454224E-1,0E0,0E0,0E0,0E0,0E0,0E0],"parents":[2147483647,0,0,1,1,2,2,3,3,4,4,5,5,10,10,11,11,12,12],"right_children":[2,4,6,8,10,12,-1,-1,-1,-1,14,16,18,-1,-1,-1,-1,-1,-1],"split_conditions":[1E0,2E0,1.44E2,6.803571E0,4E1,2.03E1,-1.3867875E-2,-4.2834472E-2,6.51061E-3,-7.0363344E-3,2.5E0,1.3E2,4.243902E0,1.659981E-2,8.181397E-4,-1.2829839E-2,6.51061E-3,5.7718743E-2,3.5582024E-3],"split_indices":[2,18,10,21,10,1,0,0,0,0,11,10,21,0,0,0,0,0,0],"split_type":[0,0,0,0,0,0,0,0,0,0,0,0,0,0,0,0,0,0,0],"sum_hessian":[3.4108894E1,1.9950485E1,1.4158409E1,1.5445538E1,4.504948E0,1.1798675E1,2.3597348E0,1.4372931E1,1.0726068E0,1.0726068E0,3.4323416E0,3.2178202E0,8.580854E0,1.5016494E0,1.9306922E0,2.1452136E0,1.0726068E0,7.0792046E0,1.5016494E0],"tree_param":{"num_deleted":"0","num_feature":"23","num_nodes":"19","size_leaf_vector":"1"}},{"base_weights":[-3.0256417E-2,-5.51669E-1,6.2025493E-1,-7.470323E-1,1.6789286E-1,8.4134185E-1,-1.3749624E-2,-4.198765E-2,6.4775036E-3,-7.0402296E-3,2.9731062E-1,-1.2522076E-1,1.0738106E0,1.8187996E-2,-9.315662E-3,6.5167644E-3,-1.275858E-2,5.6016434E-2,3.534343E-3,6.5224017E-3,-7.032892E-3],"categories":[],"categories_nodes":[],"categories_segments":[],"categories_sizes":[],"default_left":[0,0,0,0,0,0,0,0,0,0,0,0,0,0,0,0,0,0,0,0,0],"id":1,"left_children":[1,3,5,7,9,11,-1,-1,-1,-1,13,15,17,-1,19,-1,-1,-1,-1,-1,-1],"loss_changes":[1.8351048E1,5.4327765E0,7.121414E0,3.1371107E0,9.983958E-1,6.275194E0,0E0,0E0,0E0,0E0,3.0770946E-1,7.712799E-1,8.2229614E-2,0E0,4.0641057E-1,0E0,0E0,0E0,0E0,0E0,0E0],"parents":[2147483647,0,0,1,1,2,2,3,3,4,4,5,5,10,10,11,11,12,12,14,14],"right_children":[2,4,6,8,10,12,-1,-1,-1,-1,14,16,18,-1,20,-1,-1,-1,-1,-1,-1],"split_conditions":[1E0,2E0,1.44E2,6.803571E0,6.36814E5,2.03E1,-1.3749624E-2,-4.198765E-2,6.4775036E-3,-7.0402296E-3,2.5E0,3.8421052E0,4.243902E0,1.8187996E-2,1E0,6.5167644E-3,-1.275858E-2,5.6016434E-2,3.534343E-3,6.5224017E-3,-7.032892E-3],"split_indices":[2,18,10,21,22,1,0,0,0,0,11,19,21,0,12,0,0,0,0,0,0],"split_type":[0,0,0,0,0,0,0,0,0,0,0,0,0,0,0,0,0,0,0,0,0],"sum_hessian":[3.4015224E1,1.9724583E1,1.429064E1,1.5212561E1,4.512023E0,1.1943297E1,2.3473427E0,1.4137329E1,1.0752311E0,1.0729316E0,3.4390914E0,3.2100263E0,8.733271E0,1.2951255E0,2.143966E0,1.0720977E0,2.1379285E0,7.2296114E0,1.5036595E0,1.0716648E0,1.072301E0],"tree_param":{"num_deleted":"0","num_feature":"23","num_nodes":"21","size_leaf_vector":"1"}},{"base_weights":[-2.5678795E-2,-5.367682E-1,6.0237116E-1,-7.3077506E-1,1.6675673E-1,8.184285E-1,-1.36329755E-2,-4.11737E-2,6.444511E-3,-7.0132012E-3,2.9550758E-1,-1.2376356E-1,1.0438576E0,1.8069549E-2,-9.171588E-3,6.4836345E-3,-1.2657367E-2,5.439184E-2,3.5106202E-3,6.5087797E-3,-7.013079E-3],"categories":[],"categories_nodes":[],"categories_segments":[],"categories_sizes":[],"default_left":[0,0,0,0,0,0,0,0,0,0,0,0,0,0,0,0,0,0,0,0,0],"id":2,"left_children":[1,3,5,7,9,11,-1,-1,-1,-1,13,15,17,-1,19,-1,-1,-1,-1,-1,-1],"loss_changes":[1.7326796E1,5.2443666E0,6.8466187E0,3.051835E0,9.883596E-1,5.98085E0,0E0,0E0,0E0,0E0,3.0307186E-1,7.61171E-1,4.4389725E-2,0E0,4.04408E-1,0E0,0E0,0E0,0E0,0E0,0E0],"parents":[2147483647,0,0,1,1,2,2,3,3,4,4,5,5,10,10,11,11,12,12,14,14],"right_children":[2,4,6,8,10,12,-1,-1,-1,-1,14,16,18,-1,20,-1,-1,-1,-1,-1,-1],"split_conditions":[1E0,2E0,1.44E2,6.803571E0,1.158623E2,2.03E1,-1.36329755E-2,-4.11737E-2,6.444511E-3,-7.0132012E-3,2.5E0,3.8421052E0,4.243902E0,1.8069549E-2,2.273E1,6.4836345E-3,-1.2657367E-2,5.439184E-2,3.5106202E-3,6.5087797E-3,-7.013079E-3],"split_indices":[2,18,10,21,20,1,0,0,0,0,11,19,21,0,1,0,0,0,0,0,0],"split_type":[0,0,0,0,0,0,0,0,0,0,0,0,0,0,0,0,0,0,0,0,0],"sum_hessian":[3.390627E1,1.949511E1,1.4411159E1,1.4977513E1,4.5175967E0,1.2076227E1,2.3349311E0,1.3899684E1,1.0778286E0,1.0705438E0,3.4470532E0,3.2022264E0,8.874001E0,1.3037671E0,2.143286E0,1.0747266E0,2.1274998E0,7.36835E0,1.5056508E0,1.0727351E0,1.070551E0],"tree_param":{"num_deleted":"0","num_feature":"23","num_nodes":"21","size_leaf_vector":"1"}},{"base_weights":[-2.148192E-2,-5.223866E-1,5.8509815E-1,-7.1510214E-1,1.6561882E-1,7.9639983E-1,-1.3517904E-2,-4.0390335E-2,6.411633E-3,2.938453E-1,-6.993392E-3,-1.22329935E-1,1.0152094E0,-8.894645E-3,1.7951576E-2,-1.2587853E-2,6.489251E-3,5.2841015E-2,3.4870375E-3,-6.975924E-3,6.483613E-3],"categories":[],"categories_nodes":[],"categories_segments":[],"categories_sizes":[],"default_left":[0,0,0,0,0,0,0,0,0,0,0,0,0,0,0,0,0,0,0,0,0],"id":3,"left_children":[1,3,5,7,9,11,-1,-1,-1,13,-1,15,17,19,-1,-1,-1,-1,-1,-1,-1],"loss_changes":[1.6359833E1,5.0644627E0,6.5853624E0,2.9701653E0,9.798814E-1,5.704215E0,0E0,0E0,0E0,2.9744542E-1,0E0,7.572827E-1,1.058197E-2,4.006878E-1,0E0,0E0,0E0,0E0,0E0,0E0,0E0],"parents":[2147483647,0,0,1,1,2,2,3,3,4,4,5,5,9,9,11,11,12,12,13,13],"right_children":[2,4,6,8,10,12,-1,-1,-1,14,-1,16,18,20,-1,-1,-1,-1,-1,-1,-1],"split_conditions":[1E0,2E0,1.44E2,6.803571E0,3.925E0,2.03E1,-1.3517904E-2,-4.0390335E-2,6.411633E-3,8.8E1,-6.993392E-3,1.3E2,4.243902E0,1.5E1,1.7951576E-2,-1.2587853E-2,6.489251E-3,5.2841015E-2,3.4870375E-3,-6.975924E-3,6.483613E-3],"split_indices":[2,18,10,21,21,1,0,0,0,10,0,10,21,11,0,0,0,0,0,0,0],"split_type":[0,0,0,0,0,0,0,0,0,0,0,0,0,0,0,0,0,0,0,0,0],"sum_hessian":[3.378426E1,1.9264187E1,1.4520072E1,1.4741217E1,4.522971E0,1.2197567E1,2.3225055E0,1.3660816E1,1.0804E0,3.454174E0,1.068797E0,3.1943882E0,9.003179E0,2.1419513E0,1.3122227E0,2.1201642E0,1.074224E0,7.4955554E0,1.5076232E0,1.0672275E0,1.0747238E0],"tree_param":{"num_deleted":"0","num_feature":"23","num_nodes":"21","size_leaf_vector":"1"}},{"base_weights":[-1.763432E-2,-5.084954E-1,5.6842077E-1,-6.9997543E-1,1.6447873E-1,7.7522373E-1,-1.340438E-2,-3.9635476E-2,6.378873E-3,-6.969904E-3,2.9211107E-1,-1.20913014E-1,4.9390104E-2,1.6316047E-2,7.2073156E-4,6.456221E-3,-1.248879E-2],"categories":[],"categories_nodes":[],"categories_segments":[],"categories_sizes":[],"default_left":[0,0,0,0,0,0,0,0,0,0,0,0,0,0,0,0,0],"id":4,"left_children":[1,3,5,7,9,11,-1,-1,-1,-1,13,15,-1,-1,-1,-1,-1],"loss_changes":[1.5447312E1,4.8924766E0,6.3369427E0,2.8918457E0,9.7066385E-1,5.4439573E0,0E0,0E0,0E0,0E0,8.0845356E-2,7.473991E-1,0E0,0E0,0E0,0E0,0E0],"parents":[2147483647,0,0,1,1,2,2,3,3,4,4,5,5,10,10,11,11],"right_children":[2,4,6,8,10,12,-1,-1,-1,-1,14,16,-1,-1,-1,-1,-1],"split_conditions":[1E0,2E0,1.44E2,6.803571E0,4E1,2.03E1,-1.340438E-2,-3.9635476E-2,6.378873E-3,-6.969904E-3,2.71875E0,3.8421052E0,4.9390104E-2,1.6316047E-2,7.2073156E-4,6.456221E-3,-1.248879E-2],"split_indices":[2,18,10,21,10,1,0,0,0,0,21,19,0,0,0,0,0],"split_type":[0,0,0,0,0,0,0,0,0,0,0,0,0,0,0,0,0],"sum_hessian":[3.3650177E1,1.9032545E1,1.4617634E1,1.4504411E1,4.5281343E0,1.2307563E1,2.310071E0,1.3421465E1,1.0829451E0,1.0666718E0,3.4614625E0,3.186549E0,9.121015E0,1.5228629E0,1.9385995E0,1.0768303E0,2.1097188E0],"tree_param":{"num_deleted":"0","num_feature":"23","num_nodes":"17","size_leaf_vector":"1"}},{"base_weights":[-1.5433612E-2,-4.951487E-1,5.4962593E-1,-6.853607E-1,1.6310488E-1,7.5170326E-1,-1.3292377E-2,-3.8907252E-2,6.346229E-3,2.9033265E-1,-6.9577447E-3,-1.1951906E-1,9.5766294E-1,-9.553446E-3,1.777821E-2,-1.2421177E-2,6.461577E-3,4.9999006E-2,3.1294103E-3,-6.9478243E-3,6.414592E-3],"categories":[],"categories_nodes":[],"categories_segments":[],"categories_sizes":[],"default_left":[0,0,0,0,0,0,0,0,0,0,0,0,0,0,0,0,0,0,0,0,0],"id":5,"left_children":[1,3,5,7,9,11,-1,-1,-1,13,-1,15,17,19,-1,-1,-1,-1,-1,-1,-1],"loss_changes":[1.4520435E1,4.7241435E0,6.072844E0,2.8166523E0,9.6295524E-1,5.1689434E0,0E0,0E0,0E0,2.9745114E-1,0E0,7.4361676E-1,1.03227615E-1,3.949024E-1,0E0,0E0,0E0,0E0,0E0,0E0,0E0],"parents":[2147483647,0,0,1,1,2,2,3,3,4,4,5,5,9,9,11,11,12,12,13,13],"right_children":[2,4,6,8,10,12,-1,-1,-1,14,-1,16,18,20,-1,-1,-1,-1,-1,-1,-1],"split_conditions":[1E0,2E0,1.44E2,6.803571E0,3.925E0,2.03E1,-1.3292377E-2,-3.8907252E-2,6.346229E-3,8.8E1,-6.9577447E-3,1.3E2,4.243902E0,1.5E1,1.777821E-2,-1.2421177E-2,6.461577E-3,4.9999006E-2,3.1294103E-3,-6.9478243E-3,6.414592E-3],"split_indices":[2,18,10,21,21,1,0,0,0,10,0,10,21,11,0,0,0,0,0,0,0],"split_type":[0,0,0,0,0,0,0,0,0,0,0,0,0,0,0,0,0,0,0,0,0],"sum_hessian":[3.352778E1,1.8802427E1,1.472535E1,1.4267749E1,4.534679E0,1.2427718E1,2.2976325E0,1.3182285E1,1.0854636E0,3.4690702E0,1.0656089E0,3.178678E0,9.24904E0,2.1447167E0,1.3243532E0,2.1023648E0,1.0763133E0,7.7123866E0,1.5366533E0,1.0646539E0,1.080063E0],"tree_param":{"num_deleted":"0","num_feature":"23","num_nodes":"21","size_leaf_vector":"1"}},{"base_weights":[-1.2207283E-2,-4.8215774E-1,5.341039E-1,-6.712268E-1,1.6196673E-1,7.3215705E-1,-1.3181872E-2,-3.820395E-2,6.313704E-3,-6.931039E-3,2.885417E-1,-1.1814133E-1,9.325968E-1,1.6125552E-2,7.0268434E-4,-1.2324201E-2,6.4286473E-3,4.864422E-2,3.1081045E-3],"categories":[],"categories_nodes":[],"categories_segments":[],"categories_sizes":[],"default_left":[0,0,0,0,0,0,0,0,0,0,0,0,0,0,0,0,0,0,0],"id":6,"left_children":[1,3,5,7,9,11,-1,-1,-1,-1,13,15,17,-1,-1,-1,-1,-1,-1],"loss_changes":[1.37106495E1,4.5666943E0,5.848712E0,2.744382E0,9.5316124E-1,4.939268E0,0E0,0E0,0E0,0E0,8.0331445E-2,7.339519E-1,7.362747E-2,0E0,0E0,0E0,0E0,0E0,0E0],"parents":[2147483647,0,0,1,1,2,2,3,3,4,4,5,5,10,10,11,11,12,12],"right_children":[2,4,6,8,10,12,-1,-1,-1,-1,14,16,18,-1,-1,-1,-1,-1,-1],"split_conditions":[1E0,2E0,1.44E2,6.803571E0,4E1,2.03E1,-1.3181872E-2,-3.820395E-2,6.313704E-3,-6.931039E-3,2.71875E0,1.3E2,4.243902E0,1.6125552E-2,7.0268434E-4,-1.2324201E-2,6.4286473E-3,4.864422E-2,3.1081045E-3],"split_indices":[2,18,10,21,10,1,0,0,0,0,21,10,21,0,0,0,0,0,0],"split_type":[0,0,0,0,0,0,0,0,0,0,0,0,0,0,0,0,0,0,0],"sum_hessian":[3.3372524E1,1.8571318E1,1.48012085E1,1.4031814E1,4.539504E0,1.2516014E1,2.2851946E0,1.2943857E1,1.0879562E0,1.063131E0,3.4763727E0,3.1708105E0,9.345203E0,1.5366548E0,1.939718E0,2.0919137E0,1.0788968E0,7.806874E0,1.5383298E0],"tree_param":{"num_deleted":"0","num_feature":"23","num_nodes":"19","size_leaf_vector":"1"}},{"base_weights":[-9.326948E-3,-4.6966434E-1,5.191142E-1,-6.575453E-1,1.6060136E-1,7.133537E-1,-1.3072835E-2,-3.752402E-2,6.281297E-3,2.8684503E-1,-6.922353E-3,-1.1678601E-1,9.085847E-1,-1.021063E-2,1.760604E-2,6.433503E-3,-1.2258237E-2,4.73485E-2,3.0869313E-3,-6.9199256E-3,6.3460073E-3],"categories":[],"categories_nodes":[],"categories_segments":[],"categories_sizes":[],"default_left":[0,0,0,0,0,0,0,0,0,0,0,0,0,0,0,0,0,0,0,0,0],"id":7,"left_children":[1,3,5,7,9,11,-1,-1,-1,13,-1,15,17,19,-1,-1,-1,-1,-1,-1,-1],"loss_changes":[1.2949284E1,4.4122443E0,5.6353307E0,2.6748476E0,9.462728E-1,4.722865E0,0E0,0E0,0E0,2.9740262E-1,0E0,7.302346E-1,4.698372E-2,3.8918665E-1,0E0,0E0,0E0,0E0,0E0,0E0,0E0],"parents":[2147483647,0,0,1,1,2,2,3,3,4,4,5,5,9,9,11,11,12,12,13,13],"right_children":[2,4,6,8,10,12,-1,-1,-1,14,-1,16,18,20,-1,-1,-1,-1,-1,-1,-1],"split_conditions":[1E0,2E0,1.44E2,6.803571E0,3.925E0,2.03E1,-1.3072835E-2,-3.752402E-2,6.281297E-3,8.8E1,-6.922353E-3,3.8421052E0,4.243902E0,1.5E1,1.760604E-2,6.433503E-3,-1.2258237E-2,4.73485E-2,3.0869313E-3,-6.9199256E-3,6.3460073E-3],"split_indices":[2,18,10,21,21,1,0,0,0,10,0,19,21,11,0,0,0,0,0,0,0],"split_type":[0,0,0,0,0,0,0,0,0,0,0,0,0,0,0,0,0,0,0,0,0],"sum_hessian":[3.3209473E1,1.8342854E1,1.4866618E1,1.3797128E1,4.5457263E0,1.2593856E1,2.272762E0,1.2706705E1,1.0904227E0,3.4833143E0,1.0624118E0,3.1629164E0,9.43094E0,2.147282E0,1.3360325E0,1.0783849E0,2.0845315E0,7.8909492E0,1.5399904E0,1.062048E0,1.0852339E0],"tree_param":{"num_deleted":"0","num_feature":"23","num_nodes":"21","size_leaf_vector":"1"}},{"base_weights":[-6.6284817E-3,-4.5748478E-1,5.046394E-1,-6.4429045E-1,1.5946588E-1,6.9526184E-1,-1.2965244E-2,-3.6866035E-2,6.249008E-3,-6.8925205E-3,2.8499967E-1,-1.1544646E-1,8.8557017E-1,1.5936516E-2,6.8470027E-4,6.4006755E-3,-1.2163292E-2,4.610851E-2,3.0658857E-3],"categories":[],"categories_nodes":[],"categories_segments":[],"categories_sizes":[],"default_left":[0,0,0,0,0,0,0,0,0,0,0,0,0,0,0,0,0,0,0],"id":8,"left_children":[1,3,5,7,9,11,-1,-1,-1,-1,13,15,17,-1,-1,-1,-1,-1,-1],"loss_changes":[1.2228887E1,4.267599E0,5.432112E0,2.6078825E0,9.359342E-1,4.5187025E0,0E0,0E0,0E0,0E0,7.981014E-2,7.207831E-1,2.3015976E-2,0E0,0E0,0E0,0E0,0E0,0E0],"parents":[2147483647,0,0,1,1,2,2,3,3,4,4,5,5,10,10,11,11,12,12],"right_children":[2,4,6,8,10,12,-1,-1,-1,-1,14,16,18,-1,-1,-1,-1,-1,-1],"split_conditions":[1E0,2E0,1.44E2,6.803571E0,4E1,2.03E1,-1.2965244E-2,-3.6866035E-2,6.249008E-3,-6.8925205E-3,2.71875E0,3.8421052E0,4.243902E0,1.5936516E-2,6.8470027E-4,6.4006755E-3,-1.2163292E-2,4.610851E-2,3.0658857E-3],"split_indices":[2,18,10,21,10,1,0,0,0,0,21,19,21,0,0,0,0,0,0],"split_type":[0,0,0,0,0,0,0,0,0,0,0,0,0,0,0,0,0,0,0],"sum_hessian":[3.303635E1,1.8114351E1,1.4922E1,1.356414E1,4.5502105E0,1.266166E1,2.260339E0,1.2471277E1,1.0928634E0,1.0595698E0,3.4906406E0,3.15503E0,9.506631E0,1.5499269E0,1.9407136E0,1.080945E0,2.074085E0,7.964996E0,1.5416349E0],"tree_param":{"num_deleted":"0","num_feature":"23","num_nodes":"19","size_leaf_vector":"1"}},{"base_weights":[-4.2342157E-3,-4.4576326E-1,4.9065685E-1,-6.3143843E-1,1.5810956E-1,6.77846E-1,-1.2859072E-2,-3.6228713E-2,6.216837E-3,-6.892191E-3,2.8347155E-1,-1.1412872E-1,8.6349916E-1,1.7435132E-2,-1.077303E-2,-1.209912E-2,6.40529E-3,4.4921074E-2,3.0449692E-3,-6.944486E-3,6.3411775E-3],"categories":[],"categories_nodes":[],"categories_segments":[],"categories_sizes":[],"default_left":[0,0,0,0,0,0,0,0,0,0,0,0,0,0,0,0,0,0,0,0,0],"id":9,"left_children":[1,3,5,7,9,11,-1,-1,-1,-1,13,15,17,-1,19,-1,-1,-1,-1,-1,-1],"loss_changes":[1.1551819E1,4.1254377E0,5.2384586E0,2.543332E0,9.3079877E-1,4.3260527E0,0E0,0E0,0E0,0E0,2.9661977E-1,7.171674E-1,1.4619827E-3,0E0,3.9032036E-1,0E0,0E0,0E0,0E0,0E0,0E0],"parents":[2147483647,0,0,1,1,2,2,3,3,4,4,5,5,10,10,11,11,12,12,14,14],"right_children":[2,4,6,8,10,12,-1,-1,-1,-1,14,16,18,-1,20,-1,-1,-1,-1,-1,-1],"split_conditions":[1E0,2E0,1.44E2,6.803571E0,6.36814E5,2.03E1,-1.2859072E-2,-3.6228713E-2,6.216837E-3,-6.892191E-3,2.5E0,1.3E2,4.243902E0,1.7435132E-2,1.75E1,-1.209912E-2,6.40529E-3,4.4921074E-2,3.0449692E-3,-6.944486E-3,6.3411775E-3],"split_indices":[2,18,10,21,22,1,0,0,0,0,11,10,21,0,11,0,0,0,0,0,0],"split_type":[0,0,0,0,0,0,0,0,0,0,0,0,0,0,0,0,0,0,0,0,0],"sum_hessian":[3.2857094E1,1.7889364E1,1.4967731E1,1.3333256E1,4.556109E0,1.2719802E1,2.2479289E0,1.2237977E1,1.095278E0,1.0594077E0,3.4967012E0,3.1471229E0,9.5726795E0,1.347255E0,2.1494462E0,2.0667045E0,1.0804182E0,8.029416E0,1.5432634E0,1.0643988E0,1.0850475E0],"tree_param":{"num_deleted":"0","num_feature":"23","num_nodes":"21","size_leaf_vector":"1"}},{"base_weights":[-1.9846607E-3,-4.3431774E-1,4.7714922E-1,-6.189679E-1,1.56981E-1,6.610768E-1,-1.2754298E-2,-3.561087E-2,6.184788E-3,2.8198618E-1,-6.8798335E-3,-1.1282631E-1,4.2116012E-2,-1.0369038E-2,1.7320018E-2,-1.2006148E-2,6.372567E-3,-6.860982E-3,6.272117E-3],"categories":[],"categories_nodes":[],"categories_segments":[],"categories_sizes":[],"default_left":[0,0,0,0,0,0,0,0,0,0,0,0,0,0,0,0,0,0,0],"id":10,"left_children":[1,3,5,7,9,11,-1,-1,-1,13,-1,15,-1,17,-1,-1,-1,-1,-1],"loss_changes":[1.0911114E1,3.9922338E0,5.0538454E0,2.481062E0,9.2416805E-1,4.1440125E0,0E0,0E0,0E0,2.9018092E-1,0E0,7.079233E-1,0E0,3.813985E-1,0E0,0E0,0E0,0E0,0E0],"parents":[2147483647,0,0,1,1,2,2,3,3,4,4,5,5,9,9,11,11,13,13],"right_children":[2,4,6,8,10,12,-1,-1,-1,14,-1,16,-1,18,-1,-1,-1,-1,-1],"split_conditions":[1E0,2E0,1.44E2,6.803571E0,3.925E0,2.03E1,-1.2754298E-2,-3.561087E-2,6.184788E-3,8.8E1,-6.8798335E-3,1.3E2,4.2116012E-2,1.5E1,1.7320018E-2,-1.2006148E-2,6.372567E-3,-6.860982E-3,6.272117E-3],"split_indices":[2,18,10,21,21,1,0,0,0,10,0,10,0,11,0,0,0,0,0],"split_type":[0,0,0,0,0,0,0,0,0,0,0,0,0,0,0,0,0,0,0],"sum_hessian":[3.266939E1,1.7665121E1,1.5004271E1,1.3104821E1,4.5603E0,1.2768734E1,2.2355363E0,1.2007154E1,1.097667E0,3.501758E0,1.0585419E0,3.1392264E0,9.629508E0,2.147085E0,1.3546731E0,2.056272E0,1.0829544E0,1.0565518E0,1.090533E0],"tree_param":{"num_deleted":"0","num_feature":"23","num_nodes":"19","size_leaf_vector":"1"}},{"base_weights":[-1.0507213E-3,-4.232198E-1,4.6186215E-1,-6.06859E-1,1.5584949E-1,6.4232355E-1,-1.2650895E-2,-3.501142E-2,6.1528566E-3,2.8013173E-1,-6.84872E-3,-1.11545116E-1,8.188075E-1,-1.033714E-2,1.7205475E-2,6.376713E-3,-1.1943529E-2,4.273324E-2,2.735221E-3,-6.8300082E-3,6.2398803E-3],"categories":[],"categories_nodes":[],"categories_segments":[],"categories_sizes":[],"default_left":[0,0,0,0,0,0,0,0,0,0,0,0,0,0,0,0,0,0,0,0,0],"id":11,"left_children":[1,3,5,7,9,11,-1,-1,-1,13,-1,15,17,19,-1,-1,-1,-1,-1,-1,-1],"loss_changes":[1.0259189E1,3.8641114E0,4.8569317E0,2.4209356E0,9.137423E-1,3.9504328E0,0E0,0E0,0E0,2.866081E-1,0E0,7.0437074E-1,7.2110176E-2,3.7772635E-1,0E0,0E0,0E0,0E0,0E0,0E0,0E0],"parents":[2147483647,0,0,1,1,2,2,3,3,4,4,5,5,9,9,11,11,12,12,13,13],"right_children":[2,4,6,8,10,12,-1,-1,-1,14,-1,16,18,20,-1,-1,-1,-1,-1,-1,-1],"split_conditions":[1E0,2E0,1.44E2,6.803571E0,3.925E0,2.03E1,-1.2650895E-2,-3.501142E-2,6.1528566E-3,8.8E1,-6.84872E-3,3.8421052E0,4.243902E0,1.5E1,1.7205475E-2,6.376713E-3,-1.1943529E-2,4.273324E-2,2.735221E-3,-6.8300082E-3,6.2398803E-3],"split_indices":[2,18,10,21,21,1,0,0,0,10,0,19,21,11,0,0,0,0,0,0,0],"split_type":[0,0,0,0,0,0,0,0,0,0,0,0,0,0,0,0,0,0,0,0,0],"sum_hessian":[3.2494E1,1.744338E1,1.5050619E1,1.2879139E1,4.5642414E0,1.2827455E1,2.2231643E0,1.1779109E1,1.1000302E0,3.5085566E0,1.0556852E0,3.1313148E0,9.696139E0,2.146659E0,1.3618977E0,1.0824322E0,2.0488827E0,8.129443E0,1.566697E0,1.0536968E0,1.092962E0],"tree_param":{"num_deleted":"0","num_feature":"23","num_nodes":"21","size_leaf_vector":"1"}},{"base_weights":[8.071927E-4,-4.1245326E-1,4.4925666E-1,-5.950937E-1,1.5471733E-1,6.267706E-1,-1.2548842E-2,-3.4429375E-2,6.121048E-3,-6.8282518E-3,2.7847487E-1,-1.102789E-1,7.992935E-1,1.561154E-2,6.3013117E-4,-1.18524805E-2,6.3440986E-3,4.168446E-2,2.7163625E-3],"categories":[],"categories_nodes":[],"categories_segments":[],"categories_sizes":[],"default_left":[0,0,0,0,0,0,0,0,0,0,0,0,0,0,0,0,0,0,0],"id":12,"left_children":[1,3,5,7,9,11,-1,-1,-1,-1,13,15,17,-1,-1,-1,-1,-1,-1],"loss_changes":[9.691283E0,3.7408447E0,4.689303E0,2.3628445E0,9.0545076E-1,3.7882013E0,0E0,0E0,0E0,0E0,8.1939936E-2,6.953295E-1,5.2785873E-2,0E0,0E0,0E0,0E0,0E0,0E0],"parents":[2147483647,0,0,1,1,2,2,3,3,4,4,5,5,10,10,11,11,12,12],"right_children":[2,4,6,8,10,12,-1,-1,-1,-1,14,16,18,-1,-1,-1,-1,-1,-1],"split_conditions":[1E0,2E0,1.44E2,6.803571E0,4E1,2.03E1,-1.2548842E-2,-3.4429375E-2,6.121048E-3,-6.8282518E-3,2.71875E0,1.3E2,4.243902E0,1.561154E-2,6.3013117E-4,-1.18524805E-2,6.3440986E-3,4.168446E-2,2.7163625E-3],"split_indices":[2,18,10,21,10,1,0,0,0,0,21,10,21,0,0,0,0,0,0],"split_type":[0,0,0,0,0,0,0,0,0,0,0,0,0,0,0,0,0,0,0],"sum_hessian":[3.2294613E1,1.7224432E1,1.5070181E1,1.2656468E1,4.5679626E0,1.2859364E1,2.2108166E0,1.15541E1,1.1023679E0,1.0535009E0,3.514462E0,3.1234174E0,9.735947E0,1.5713214E0,1.9431406E0,2.0384734E0,1.0849438E0,8.167865E0,1.5680819E0],"tree_param":{"num_deleted":"0","num_feature":"23","num_nodes":"19","size_leaf_vector":"1"}},{"base_weights":[2.428468E-3,-4.0207648E-1,4.3706635E-1,-5.836553E-1,1.5338248E-1,6.117723E-1,-1.2448117E-2,-3.3863824E-2,6.089359E-3,2.7672237E-1,-6.813982E-3,-1.0903332E-1,7.8053176E-1,-1.0990725E-2,1.703747E-2,6.3480213E-3,-1.1791556E-2,4.0677305E-2,2.6976236E-3,-6.8027847E-3,6.1725946E-3],"categories":[],"categories_nodes":[],"categories_segments":[],"categories_sizes":[],"default_left":[0,0,0,0,0,0,0,0,0,0,0,0,0,0,0,0,0,0,0,0,0],"id":13,"left_children":[1,3,5,7,9,11,-1,-1,-1,13,-1,15,17,19,-1,-1,-1,-1,-1,-1,-1],"loss_changes":[9.157694E0,3.6194725E0,4.5292225E0,2.3066764E0,8.9777404E-1,3.634633E0,0E0,0E0,0E0,2.865231E-1,0E0,6.91874E-1,3.525448E-2,3.722326E-1,0E0,0E0,0E0,0E0,0E0,0E0,0E0],"parents":[2147483647,0,0,1,1,2,2,3,3,4,4,5,5,9,9,11,11,12,12,13,13],"right_children":[2,4,6,8,10,12,-1,-1,-1,14,-1,16,18,20,-1,-1,-1,-1,-1,-1,-1],"split_conditions":[1E0,2E0,1.44E2,6.803571E0,3.925E0,2.03E1,-1.2448117E-2,-3.3863824E-2,6.089359E-3,8.8E1,-6.813982E-3,3.8421052E0,4.243902E0,1.5E1,1.703747E-2,6.3480213E-3,-1.1791556E-2,4.0677305E-2,2.6976236E-3,-6.8027847E-3,6.1725946E-3],"split_indices":[2,18,10,21,21,1,0,0,0,10,0,19,21,11,0,0,0,0,0,0,0],"split_type":[0,0,0,0,0,0,0,0,0,0,0,0,0,0,0,0,0,0,0,0,0],"sum_hessian":[3.2092136E1,1.70103E1,1.5081835E1,1.2437029E1,4.573271E0,1.2883338E1,2.1984968E0,1.1332349E1,1.1046803E0,3.5208077E0,1.052463E0,3.1155086E0,9.76783E0,2.148716E0,1.3720918E0,1.0844061E0,2.0311024E0,8.198377E0,1.5694532E0,1.0510219E0,1.0976942E0],"tree_param":{"num_deleted":"0","num_feature":"23","num_nodes":"21","size_leaf_vector":"1"}},{"base_weights":[3.9562574E-3,-3.9192957E-1,4.2527613E-1,-5.7252854E-1,1.522551E-1,5.973043E-1,-1.2348697E-2,-3.3313934E-2,6.057792E-3,-6.7907497E-3,2.7501893E-1,-1.0780223E-1,7.6248145E-1,1.5426993E-2,6.123353E-4,6.3155177E-3,-1.1702372E-2,3.970943E-2,2.6790043E-3],"categories":[],"categories_nodes":[],"categories_segments":[],"categories_sizes":[],"default_left":[0,0,0,0,0,0,0,0,0,0,0,0,0,0,0,0,0,0,0],"id":14,"left_children":[1,3,5,7,9,11,-1,-1,-1,-1,13,15,17,-1,-1,-1,-1,-1,-1],"loss_changes":[8.652759E0,3.5053568E0,4.3762856E0,2.2523346E0,8.890141E-1,3.4890575E0,0E0,0E0,0E0,0E0,8.1362605E-2,6.830294E-1,1.9348145E-2,0E0,0E0,0E0,0E0,0E0,0E0],"parents":[2147483647,0,0,1,1,2,2,3,3,4,4,5,5,10,10,11,11,12,12],"right_children":[2,4,6,8,10,12,-1,-1,-1,-1,14,16,18,-1,-1,-1,-1,-1,-1],"split_conditions":[1E0,2E0,1.44E2,6.803571E0,4E1,2.03E1,-1.2348697E-2,-3.3313934E-2,6.057792E-3,-6.7907497E-3,2.71875E0,3.8421052E0,4.243902E0,1.5426993E-2,6.123353E-4,6.3155177E-3,-1.1702372E-2,3.970943E-2,2.6790043E-3],"split_indices":[2,18,10,21,10,1,0,0,0,0,21,19,21,0,0,0,0,0,0],"split_type":[0,0,0,0,0,0,0,0,0,0,0,0,0,0,0,0,0,0,0],"sum_hessian":[3.1883713E1,1.679766E1,1.5086051E1,1.2221014E1,4.5766478E0,1.2899843E1,2.1862075E0,1.1114046E1,1.1069671E0,1.049902E0,3.526746E0,3.1076174E0,9.792226E0,1.5830765E0,1.9436696E0,1.0868932E0,2.0207243E0,8.221415E0,1.5708112E0],"tree_param":{"num_deleted":"0","num_feature":"23","num_nodes":"19","size_leaf_vector":"1"}},{"base_weights":[5.2727964E-3,-3.8214758E-1,4.1386667E-1,-5.616994E-1,1.5093096E-1,5.8333856E-1,-1.225056E-2,-3.277893E-2,6.0263467E-3,2.733428E-1,-6.7794914E-3,-1.06591254E-1,7.4510384E-1,-1.164118E-2,1.68709E-2,-1.1642912E-2,6.3190022E-3,3.8778614E-2,2.6605024E-3,-6.7757512E-3,6.1058123E-3],"categories":[],"categories_nodes":[],"categories_segments":[],"categories_sizes":[],"default_left":[0,0,0,0,0,0,0,0,0,0,0,0,0,0,0,0,0,0,0,0,0],"id":15,"left_children":[1,3,5,7,9,11,-1,-1,-1,13,-1,15,17,19,-1,-1,-1,-1,-1,-1,-1],"loss_changes":[8.178388E0,3.3928654E0,4.2300715E0,2.199729E0,8.820542E-1,3.3510466E0,0E0,0E0,0E0,2.863865E-1,0E0,6.796353E-1,4.9209595E-3,3.6680928E-1,0E0,0E0,0E0,0E0,0E0,0E0,0E0],"parents":[2147483647,0,0,1,1,2,2,3,3,4,4,5,5,9,9,11,11,12,12,13,13],"right_children":[2,4,6,8,10,12,-1,-1,-1,14,-1,16,18,20,-1,-1,-1,-1,-1,-1,-1],"split_conditions":[1E0,2E0,1.44E2,6.803571E0,3.925E0,2.03E1,-1.225056E-2,-3.277893E-2,6.0263467E-3,8.8E1,-6.7794914E-3,1.3E2,4.243902E0,1.5E1,1.68709E-2,-1.1642912E-2,6.3190022E-3,3.8778614E-2,2.6605024E-3,-6.7757512E-3,6.1058123E-3],"split_indices":[2,18,10,21,21,1,0,0,0,10,0,10,21,11,0,0,0,0,0,0,0],"split_type":[0,0,0,0,0,0,0,0,0,0,0,0,0,0,0,0,0,0,0,0,0],"sum_hessian":[3.1673447E1,1.6590204E1,1.5083242E1,1.2008574E1,4.581631E0,1.290929E1,2.173952E0,1.0899344E1,1.1092288E0,3.532397E0,1.0492342E0,3.0997195E0,9.809571E0,2.150578E0,1.381819E0,2.0133605E0,1.0863589E0,8.237415E0,1.5721557E0,1.0483196E0,1.1022586E0],"tree_param":{"num_deleted":"0","num_feature":"23","num_nodes":"21","size_leaf_vector":"1"}},{"base_weights":[6.5171816E-3,-3.7257367E-1,4.0282428E-1,-5.5115473E-1,1.4980885E-1,5.698535E-1,-1.2153683E-2,-3.2258105E-2,5.995024E-3,-6.753581E-3,2.7159473E-1,-1.05394416E-1,3.641815E-2,1.5244128E-2,5.94656E-4,6.286611E-3,-1.1555545E-2],"categories":[],"categories_nodes":[],"categories_segments":[],"categories_sizes":[],"default_left":[0,0,0,0,0,0,0,0,0,0,0,0,0,0,0,0,0],"id":16,"left_children":[1,3,5,7,9,11,-1,-1,-1,-1,13,15,-1,-1,-1,-1,-1],"loss_changes":[7.7293725E0,3.287025E0,4.0902286E0,2.148776E0,8.7285376E-1,3.2200127E0,0E0,0E0,0E0,0E0,8.0777824E-2,6.70983E-1,0E0,0E0,0E0,0E0,0E0],"parents":[2147483647,0,0,1,1,2,2,3,3,4,4,5,5,10,10,11,11],"right_children":[2,4,6,8,10,12,-1,-1,-1,-1,14,16,-1,-1,-1,-1,-1],"split_conditions":[1E0,2E0,1.44E2,6.803571E0,4E1,2.03E1,-1.2153683E-2,-3.2258105E-2,5.995024E-3,-6.753581E-3,2.71875E0,3.8421052E0,3.641815E-2,1.5244128E-2,5.94656E-4,6.286611E-3,-1.1555545E-2],"split_indices":[2,18,10,21,10,1,0,0,0,0,21,19,0,0,0,0,0],"split_type":[0,0,0,0,0,0,0,0,0,0,0,0,0,0,0,0,0],"sum_hessian":[3.1458364E1,1.6384499E1,1.5073865E1,1.1799834E1,4.584665E0,1.2912132E1,2.1617334E0,1.0688369E1,1.1114653E0,1.0462877E0,3.538377E0,3.0918417E0,9.820291E0,1.594299E0,1.9440782E0,1.0888207E0,2.003021E0],"tree_param":{"num_deleted":"0","num_feature":"23","num_nodes":"17","size_leaf_vector":"1"}},{"base_weights":[6.565894E-3,-3.633429E-1,3.902225E-1,-5.408826E-1,1.4849585E-1,5.546177E-1,-1.2058048E-2,-3.1750802E-2,5.9638233E-3,-6.7488695E-3,2.700406E-1,-1.0421715E-1,7.095467E-1,1.6705804E-2,-1.2226449E-2,-1.1497685E-2,6.2898914E-3,3.705315E-2,2.3894624E-3,-6.852198E-3,6.1574527E-3],"categories":[],"categories_nodes":[],"categories_segments":[],"categories_sizes":[],"default_left":[0,0,0,0,0,0,0,0,0,0,0,0,0,0,0,0,0,0,0,0,0],"id":17,"left_children":[1,3,5,7,9,11,-1,-1,-1,-1,13,15,17,-1,19,-1,-1,-1,-1,-1,-1],"loss_changes":[7.2732444E0,3.182593E0,3.9401968E0,2.0993977E0,8.6716425E-1,3.0795107E0,0E0,0E0,0E0,0E0,2.8580797E-1,6.676817E-1,5.9664726E-2,0E0,3.741146E-1,0E0,0E0,0E0,0E0,0E0,0E0],"parents":[2147483647,0,0,1,1,2,2,3,3,4,4,5,5,10,10,11,11,12,12,14,14],"right_children":[2,4,6,8,10,12,-1,-1,-1,-1,14,16,18,-1,20,-1,-1,-1,-1,-1,-1],"split_conditions":[1E0,2E0,1.44E2,6.803571E0,6.36814E5,2.03E1,-1.2058048E-2,-3.1750802E-2,5.9638233E-3,-6.7488695E-3,2.5E0,1.3E2,4.243902E0,1.6705804E-2,1.75E1,-1.1497685E-2,6.2898914E-3,3.705315E-2,2.3894624E-3,-6.852198E-3,6.1574527E-3],"split_indices":[2,18,10,21,22,1,0,0,0,0,11,10,21,0,11,0,0,0,0,0,0],"split_type":[0,0,0,0,0,0,0,0,0,0,0,0,0,0,0,0,0,0,0,0,0],"sum_hessian":[3.1259039E1,1.6184227E1,1.5074812E1,1.1594904E1,4.5893245E0,1.2925259E1,2.1495535E0,1.0481227E1,1.1136768E0,1.0455877E0,3.5437367E0,3.083961E0,9.841297E0,1.3910788E0,2.1526577E0,1.9956903E0,1.0882707E0,8.249982E0,1.5913156E0,1.0558803E0,1.0967776E0],"tree_param":{"num_deleted":"0","num_feature":"23","num_nodes":"21","size_leaf_vector":"1"}},{"base_weights":[7.564664E-3,-3.5429603E-1,3.798727E-1,-5.3087187E-1,1.4738627E-1,5.4203326E-1,-1.1963634E-2,-3.125642E-2,5.9327455E-3,2.6863396E-1,-6.7379302E-3,-1.0305357E-1,6.939929E-1,-1.1813229E-2,1.6594596E-2,-1.1412083E-2,6.2576155E-3,3.6220443E-2,2.3728209E-3,-6.7186453E-3,6.0337665E-3],"categories":[],"categories_nodes":[],"categories_segments":[],"categories_sizes":[],"default_left":[0,0,0,0,0,0,0,0,0,0,0,0,0,0,0,0,0,0,0,0,0],"id":18,"left_children":[1,3,5,7,9,11,-1,-1,-1,13,-1,15,17,19,-1,-1,-1,-1,-1,-1,-1],"loss_changes":[6.87487E0,3.0843973E0,3.8123407E0,2.0515227E0,8.611945E-1,2.9615917E0,0E0,0E0,0E0,2.7953416E-1,0E0,6.592164E-1,4.6377182E-2,3.594363E-1,0E0,0E0,0E0,0E0,0E0,0E0,0E0],"parents":[2147483647,0,0,1,1,2,2,3,3,4,4,5,5,9,9,11,11,12,12,13,13],"right_children":[2,4,6,8,10,12,-1,-1,-1,14,-1,16,18,20,-1,-1,-1,-1,-1,-1,-1],"split_conditions":[1E0,2E0,1.44E2,6.803571E0,3.925E0,2.03E1,-1.1963634E-2,-3.125642E-2,5.9327455E-3,8.8E1,-6.7379302E-3,1.3E2,4.243902E0,1.5E1,1.6594596E-2,-1.1412083E-2,6.2576155E-3,3.6220443E-2,2.3728209E-3,-6.7186453E-3,6.0337665E-3],"split_indices":[2,18,10,21,21,1,0,0,0,10,0,10,21,11,0,0,0,0,0,0,0],"split_type":[0,0,0,0,0,0,0,0,0,0,0,0,0,0,0,0,0,0,0,0,0],"sum_hessian":[3.1039537E1,1.5985956E1,1.5053581E1,1.1393856E1,4.5920997E0,1.2916165E1,2.1374156E0,1.0277993E1,1.1158636E0,3.5467854E0,1.0453143E0,3.0761032E0,9.840062E0,2.1495457E0,1.3972394E0,1.985396E0,1.0907071E0,8.247602E0,1.5924592E0,1.0427318E0,1.106814E0],"tree_param":{"num_deleted":"0","num_feature":"23","num_nodes":"21","size_leaf_vector":"1"}},{"base_weights":[8.450834E-3,-3.4550747E-1,3.698431E-1,-5.2111214E-1,1.4627226E-1,5.298616E-1,-1.1870419E-2,-3.0774388E-2,5.901792E-3,2.6683635E-1,-6.7078248E-3,-1.019091E-1,6.7897975E-1,-1.1788221E-2,1.648403E-2,6.2604817E-3,-1.1355604E-2,3.541737E-2,2.3562864E-3,-6.688693E-3,6.0024676E-3],"categories":[],"categories_nodes":[],"categories_segments":[],"categories_sizes":[],"default_left":[0,0,0,0,0,0,0,0,0,0,0,0,0,0,0,0,0,0,0,0,0],"id":19,"left_children":[1,3,5,7,9,11,-1,-1,-1,13,-1,15,17,19,-1,-1,-1,-1,-1,-1,-1],"loss_changes":[6.4992247E0,2.9895525E0,3.6898437E0,2.005084E0,8.514161E-1,2.849472E0,0E0,0E0,0E0,2.7616066E-1,0E0,6.5597403E-1,3.4215927E-2,3.5597724E-1,0E0,0E0,0E0,0E0,0E0,0E0,0E0],"parents":[2147483647,0,0,1,1,2,2,3,3,4,4,5,5,9,9,11,11,12,12,13,13],"right_children":[2,4,6,8,10,12,-1,-1,-1,14,-1,16,18,20,-1,-1,-1,-1,-1,-1,-1],"split_conditions":[1E0,2E0,1.44E2,6.803571E0,3.925E0,2.03E1,-1.1870419E-2,-3.0774388E-2,5.901792E-3,8.8E1,-6.7078248E-3,3.8421052E0,4.243902E0,1.5E1,1.648403E-2,6.2604817E-3,-1.1355604E-2,3.541737E-2,2.3562864E-3,-6.688693E-3,6.0024676E-3],"split_indices":[2,18,10,21,21,1,0,0,0,10,0,19,21,11,0,0,0,0,0,0,0],"split_type":[0,0,0,0,0,0,0,0,0,0,0,0,0,0,0,0,0,0,0,0,0],"sum_hessian":[3.0818314E1,1.5791345E1,1.5026969E1,1.1196754E1,4.5945907E0,1.2901648E1,2.1253216E0,1.0078729E1,1.1180255E0,3.552132E0,1.0424587E0,3.068246E0,9.833402E0,2.1489263E0,1.4032058E0,1.0901594E0,1.9780865E0,8.23981E0,1.5935913E0,1.0398823E0,1.1090438E0],"tree_param":{"num_deleted":"0","num_feature":"23","num_nodes":"21","size_leaf_vector":"1"}},{"base_weights":[9.235985E-3,-3.3696455E-1,3.6012262E-1,-5.115939E-1,1.451593E-1,5.1808596E-1,-1.17783835E-2,-3.0304193E-2,5.87096E-3,-6.691409E-3,2.652812E-1,-1.00777924E-1,6.6447896E-1,1.4929813E-2,5.403521E-4,-1.1271722E-2,6.228325E-3,3.464232E-2,2.3398604E-3],"categories":[],"categories_nodes":[],"categories_segments":[],"categories_sizes":[],"default_left":[0,0,0,0,0,0,0,0,0,0,0,0,0,0,0,0,0,0,0],"id":20,"left_children":[1,3,5,7,9,11,-1,-1,-1,-1,13,15,17,-1,-1,-1,-1,-1,-1],"loss_changes":[6.144958E0,2.898008E0,3.5724385E0,1.9600191E0,8.441986E-1,2.7427063E0,0E0,0E0,0E0,0E0,8.2662284E-2,6.476912E-1,2.3085594E-2,0E0,0E0,0E0,0E0,0E0,0E0],"parents":[2147483647,0,0,1,1,2,2,3,3,4,4,5,5,10,10,11,11,12,12],"right_children":[2,4,6,8,10,12,-1,-1,-1,-1,14,16,18,-1,-1,-1,-1,-1,-1],"split_conditions":[1E0,2E0,1.44E2,6.803571E0,4E1,2.03E1,-1.17783835E-2,-3.0304193E-2,5.87096E-3,-6.691409E-3,2.71875E0,1.3E2,4.243902E0,1.4929813E-2,5.403521E-4,-1.1271722E-2,6.228325E-3,3.464232E-2,2.3398604E-3],"split_indices":[2,18,10,21,10,1,0,0,0,0,21,10,21,0,0,0,0,0,0],"split_type":[0,0,0,0,0,0,0,0,0,0,0,0,0,0,0,0,0,0,0],"sum_hessian":[3.0595884E1,1.5600499E1,1.4995384E1,1.1003634E1,4.5968647E0,1.2882111E1,2.113274E0,9.883472E0,1.1201628E0,1.0401195E0,3.5567453E0,3.0604136E0,9.821697E0,1.6118697E0,1.9448756E0,1.9678438E0,1.0925698E0,8.226985E0,1.5947121E0],"tree_param":{"num_deleted":"0","num_feature":"23","num_nodes":"19","size_leaf_vector":"1"}},{"base_weights":[9.868595E-3,-3.28723E-1,3.506962E-1,-5.023081E-1,1.4387135E-1,5.0668544E-1,-1.1687512E-2,-2.9845351E-2,5.8402526E-3,2.6354775E-1,-6.673965E-3,-9.966531E-2,6.5046453E-1,-1.2431455E-2,1.6322272E-2,6.231005E-3,-1.1216751E-2,3.3893827E-2,2.3235425E-3,-6.6623003E-3,5.937128E-3],"categories":[],"categories_nodes":[],"categories_segments":[],"categories_sizes":[],"default_left":[0,0,0,0,0,0,0,0,0,0,0,0,0,0,0,0,0,0,0,0,0],"id":21,"left_children":[1,3,5,7,9,11,-1,-1,-1,13,-1,15,17,19,-1,-1,-1,-1,-1,-1,-1],"loss_changes":[5.812107E0,2.8076427E0,3.4598393E0,1.9162707E0,8.364208E-1,2.6410527E0,0E0,0E0,0E0,2.759924E-1,0E0,6.445377E-1,1.289463E-2,3.5077435E-1,0E0,0E0,0E0,0E0,0E0,0E0,0E0],"parents":[2147483647,0,0,1,1,2,2,3,3,4,4,5,5,9,9,11,11,12,12,13,13],"right_children":[2,4,6,8,10,12,-1,-1,-1,14,-1,16,18,20,-1,-1,-1,-1,-1,-1,-1],"split_conditions":[1E0,2E0,1.44E2,6.803571E0,3.925E0,2.03E1,-1.1687512E-2,-2.9845351E-2,5.8402526E-3,8.8E1,-6.673965E-3,3.8421052E0,4.243902E0,1.5E1,1.6322272E-2,6.231005E-3,-1.1216751E-2,3.3893827E-2,2.3235425E-3,-6.6623003E-3,5.937128E-3],"split_indices":[2,18,10,21,21,1,0,0,0,10,0,19,21,11,0,0,0,0,0,0,0],"split_type":[0,0,0,0,0,0,0,0,0,0,0,0,0,0,0,0,0,0,0,0,0],"sum_hessian":[3.0374634E1,1.5415461E1,1.4959172E1,1.0814525E1,4.6009364E0,1.2857898E1,2.1012752E0,9.692248E0,1.1222758E0,3.5617268E0,1.0392097E0,3.0525856E0,9.805312E0,2.1502988E0,1.4114279E0,1.0920062E0,1.9605793E0,8.20949E0,1.5958221E0,1.0371243E0,1.1131746E0],"tree_param":{"num_deleted":"0","num_feature":"23","num_nodes":"21","size_leaf_vector":"1"}},{"base_weights":[1.0472675E-2,-3.206448E-1,3.4155446E-1,-4.9324632E-1,1.4276537E-1,4.956456E-1,-1.159778E-2,-2.9397408E-2,5.80967E-3,-6.655216E-3,2.6195526E-1,-9.856564E-2,6.369121E-1,1.4752022E-2,5.230587E-4,6.198967E-3,-1.113454E-2,3.3170518E-2,2.3073298E-3],"categories":[],"categories_nodes":[],"categories_segments":[],"categories_sizes":[],"default_left":[0,0,0,0,0,0,0,0,0,0,0,0,0,0,0,0,0,0,0],"id":22,"left_children":[1,3,5,7,9,11,-1,-1,-1,-1,13,15,17,-1,-1,-1,-1,-1,-1],"loss_changes":[5.49681E0,2.7223985E0,3.3518145E0,1.873786E0,8.2882905E-1,2.5441241E0,0E0,0E0,0E0,0E0,8.20176E-2,6.3643223E-1,3.569603E-3,0E0,0E0,0E0,0E0,0E0,0E0],"parents":[2147483647,0,0,1,1,2,2,3,3,4,4,5,5,10,10,11,11,12,12],"right_children":[2,4,6,8,10,12,-1,-1,-1,-1,14,16,18,-1,-1,-1,-1,-1,-1],"split_conditions":[1E0,2E0,1.44E2,6.803571E0,4E1,2.03E1,-1.159778E-2,-2.9397408E-2,5.80967E-3,-6.655216E-3,2.71875E0,3.8421052E0,4.243902E0,1.4752022E-2,5.230587E-4,6.198967E-3,-1.113454E-2,3.3170518E-2,2.3073298E-3],"split_indices":[2,18,10,21,10,1,0,0,0,0,21,19,21,0,0,0,0,0,0],"split_type":[0,0,0,0,0,0,0,0,0,0,0,0,0,0,0,0,0,0,0],"sum_hessian":[3.0151012E1,1.5232305E1,1.4918708E1,1.0629433E1,4.602872E0,1.2829382E1,2.0893266E0,9.505069E0,1.1243641E0,1.0364802E0,3.5663917E0,3.044784E0,9.784597E0,1.6215625E0,1.9448293E0,1.0943906E0,1.9503937E0,8.187676E0,1.596921E0],"tree_param":{"num_deleted":"0","num_feature":"23","num_nodes":"19","size_leaf_vector":"1"}},{"base_weights":[1.0938214E-2,-3.1285244E-1,3.3268332E-1,-4.844008E-1,1.4148976E-1,4.8494762E-1,-1.1509172E-2,-2.8959945E-2,5.77921E-3,2.6029217E-1,-6.640345E-3,-9.748405E-2,3.1189932E-2,-1.3070364E-2,1.6162112E-2,-1.1080874E-2,6.2012626E-3,-6.6360864E-3,5.8723404E-3],"categories":[],"categories_nodes":[],"categories_segments":[],"categories_sizes":[],"default_left":[0,0,0,0,0,0,0,0,0,0,0,0,0,0,0,0,0,0,0],"id":23,"left_children":[1,3,5,7,9,11,-1,-1,-1,13,-1,15,-1,17,-1,-1,-1,-1,-1],"loss_changes":[5.200564E0,2.6382046E0,3.2481096E0,1.8325129E0,8.216736E-1,2.451716E0,0E0,0E0,0E0,2.7577573E-1,0E0,6.333359E-1,0E0,3.4564176E-1,0E0,0E0,0E0,0E0,0E0],"parents":[2147483647,0,0,1,1,2,2,3,3,4,4,5,5,9,9,11,11,13,13],"right_children":[2,4,6,8,10,12,-1,-1,-1,14,-1,16,-1,18,-1,-1,-1,-1,-1],"split_conditions":[1E0,2E0,1.44E2,6.803571E0,3.925E0,2.03E1,-1.1509172E-2,-2.8959945E-2,5.77921E-3,8.8E1,-6.640345E-3,1.3E2,3.1189932E-2,1.5E1,1.6162112E-2,-1.1080874E-2,6.2012626E-3,-6.6360864E-3,5.8723404E-3],"split_indices":[2,18,10,21,21,1,0,0,0,10,0,10,0,11,0,0,0,0,0],"split_type":[0,0,0,0,0,0,0,0,0,0,0,0,0,0,0,0,0,0,0],"sum_hessian":[2.9929293E1,1.5054983E1,1.487431E1,1.0448357E1,4.6066265E0,1.2796879E1,2.0774302E0,9.321928E0,1.1264284E0,3.5706704E0,1.0359559E0,3.0369906E0,9.759889E0,2.1514845E0,1.4191859E0,1.9431622E0,1.0938284E0,1.0343434E0,1.1171411E0],"tree_param":{"num_deleted":"0","num_feature":"23","num_nodes":"19","size_leaf_vector":"1"}},{"base_weights":[1.0475831E-2,-3.0521038E-1,3.2243583E-1,-4.7576421E-1,1.4039123E-1,4.7269526E-1,-1.1421668E-2,-2.853257E-2,5.748875E-3,-6.619343E-3,2.5866416E-1,-9.641506E-2,6.0882944E-1,1.4576072E-2,5.059245E-4,6.1693466E-3,-1.100029E-2,3.1820886E-2,2.0728023E-3],"categories":[],"categories_nodes":[],"categories_segments":[],"categories_sizes":[],"default_left":[0,0,0,0,0,0,0,0,0,0,0,0,0,0,0,0,0,0,0],"id":24,"left_children":[1,3,5,7,9,11,-1,-1,-1,-1,13,15,17,-1,-1,-1,-1,-1,-1],"loss_changes":[4.895829E0,2.5587506E0,3.1359553E0,1.7924037E0,8.13732E-1,2.3515267E0,0E0,0E0,0E0,0E0,8.136636E-2,6.254037E-1,4.5248985E-2,0E0,0E0,0E0,0E0,0E0,0E0],"parents":[2147483647,0,0,1,1,2,2,3,3,4,4,5,5,10,10,11,11,12,12],"right_children":[2,4,6,8,10,12,-1,-1,-1,-1,14,16,18,-1,-1,-1,-1,-1,-1],"split_conditions":[1E0,2E0,1.44E2,6.803571E0,4E1,2.03E1,-1.1421668E-2,-2.853257E-2,5.748875E-3,-6.619343E-3,2.71875E0,3.8421052E0,4.243902E0,1.4576072E-2,5.059245E-4,6.1693466E-3,-1.100029E-2,3.1820886E-2,2.0728023E-3],"split_indices":[2,18,10,21,10,1,0,0,0,0,21,19,21,0,0,0,0,0,0],"split_type":[0,0,0,0,0,0,0,0,0,0,0,0,0,0,0,0,0,0,0],"sum_hessian":[2.9720385E1,1.4879509E1,1.4840877E1,1.0271283E1,4.608226E0,1.2775289E1,2.065588E0,9.142815E0,1.1284686E0,1.0328298E0,3.575396E0,3.0292253E0,9.746063E0,1.630728E0,1.944668E0,1.096186E0,1.9330392E0,8.1336565E0,1.6124065E0],"tree_param":{"num_deleted":"0","num_feature":"23","num_nodes":"19","size_leaf_vector":"1"}},{"base_weights":[1.0793064E-2,-2.978399E-1,3.140796E-1,-4.673296E-1,1.3912834E-1,4.626435E-1,-1.1335253E-2,-2.8114919E-2,5.718666E-3,-6.6100582E-3,2.5708744E-1,-9.5363624E-2,5.9653807E-1,1.600359E-2,-1.3659731E-2,-1.094805E-2,6.17147E-3,2.985212E-3,6.372961E-1,-6.7612873E-3,5.9778593E-3,1.6540034E-3,3.311428E-2],"categories":[],"categories_nodes":[],"categories_segments":[],"categories_sizes":[],"default_left":[0,0,0,0,0,0,0,0,0,0,0,0,0,0,0,0,0,0,0,0,0,0,0],"id":25,"left_children":[1,3,5,7,9,11,-1,-1,-1,-1,13,15,17,-1,19,-1,-1,-1,21,-1,-1,-1,-1],"loss_changes":[4.6327677E0,2.480239E0,3.040457E0,1.7534161E0,8.075304E-1,2.2675638E0,0E0,0E0,0E0,0E0,2.7530056E-1,6.2239206E-1,5.0861835E-2,0E0,3.5849604E-1,0E0,0E0,0E0,4.1970253E-2,0E0,0E0,0E0,0E0],"parents":[2147483647,0,0,1,1,2,2,3,3,4,4,5,5,10,10,11,11,12,12,14,14,18,18],"right_children":[2,4,6,8,10,12,-1,-1,-1,-1,14,16,18,-1,20,-1,-1,-1,22,-1,-1,-1,-1],"split_conditions":[1E0,2E0,1.44E2,6.803571E0,6.36814E5,2.03E1,-1.1335253E-2,-2.8114919E-2,5.718666E-3,-6.6100582E-3,2.5E0,1.3E2,2.9606986E0,1.600359E-2,1.75E1,-1.094805E-2,6.17147E-3,2.985212E-3,3E0,-6.7612873E-3,5.9778593E-3,1.6540034E-3,3.311428E-2],"split_indices":[2,18,10,21,22,1,0,0,0,0,11,10,19,0,11,0,0,0,10,0,0,0,0],"split_type":[0,0,0,0,0,0,0,0,0,0,0,0,0,0,0,0,0,0,0,0,0,0,0],"sum_hessian":[2.9499426E1,1.4709852E1,1.4789574E1,1.0098186E1,4.611666E0,1.2735772E1,2.0538015E0,8.967701E0,1.1304848E0,1.0315416E0,3.5801249E0,3.02147E0,9.714302E0,1.426483E0,2.1536417E0,1.9258623E0,1.0956078E0,2.424824E0,7.2894783E0,1.047218E0,1.1064237E0,1.212412E0,6.0770664E0],"tree_param":{"num_deleted":"0","num_feature":"23","num_nodes":"23","size_leaf_vector":"1"}},{"base_weights":[1.22457445E-2,-2.906006E-1,3.0755645E-1,-4.5909053E-1,1.380471E-1,4.5450768E-1,-1.1249906E-2,-2.7706644E-2,5.6885807E-3,2.5575703E-1,-6.5997154E-3,-9.432443E-2,5.86364E-1,-1.3249598E-2,1.589669E-2,-1.0869048E-2,6.139678E-3,3.0716611E-2,1.9171815E-3,-6.5807463E-3,5.802384E-3],"categories":[],"categories_nodes":[],"categories_segments":[],"categories_sizes":[],"default_left":[0,0,0,0,0,0,0,0,0,0,0,0,0,0,0,0,0,0,0,0,0],"id":26,"left_children":[1,3,5,7,9,11,-1,-1,-1,13,-1,15,17,19,-1,-1,-1,-1,-1,-1,-1],"loss_changes":[4.4081264E0,2.4062588E0,2.9598444E0,1.7155061E0,8.02083E-1,2.1966534E0,0E0,0E0,0E0,2.692809E-1,0E0,6.1462826E-1,6.6354275E-2,3.3867818E-1,0E0,0E0,0E0,0E0,0E0,0E0,0E0],"parents":[2147483647,0,0,1,1,2,2,3,3,4,4,5,5,9,9,11,11,12,12,13,13],"right_children":[2,4,6,8,10,12,-1,-1,-1,14,-1,16,18,20,-1,-1,-1,-1,-1,-1,-1],"split_conditions":[1E0,2E0,1.44E2,6.803571E0,3.925E0,2.03E1,-1.1249906E-2,-2.7706644E-2,5.6885807E-3,8.8E1,-6.5997154E-3,1.3E2,4.243902E0,1.5E1,1.589669E-2,-1.0869048E-2,6.139678E-3,3.0716611E-2,1.9171815E-3,-6.5807463E-3,5.802384E-3],"split_indices":[2,18,10,21,21,1,0,0,0,10,0,10,21,11,0,0,0,0,0,0,0],"split_type":[0,0,0,0,0,0,0,0,0,0,0,0,0,0,0,0,0,0,0,0,0],"sum_hessian":[2.9295736E1,1.4542076E1,1.475366E1,9.929033E0,4.6130433E0,1.2711588E1,2.0420723E0,8.796556E0,1.1324773E0,3.5810487E0,1.0319946E0,3.0137453E0,9.697843E0,2.149653E0,1.4313958E0,1.9158065E0,1.0979388E0,8.075676E0,1.6221672E0,1.028689E0,1.1209638E0],"tree_param":{"num_deleted":"0","num_feature":"23","num_nodes":"21","size_leaf_vector":"1"}},{"base_weights":[1.2456782E-2,-2.835653E-1,2.996064E-1,-4.5104086E-1,1.3695987E-1,4.4496605E-1,-1.1165611E-2,-2.730743E-2,5.658621E-3,2.5402385E-1,-6.570586E-3,5.432702E-1,-7.3776776E-3,-1.3229901E-2,1.5790474E-2,-5.297779E-2,3.2663547E-2,-6.551783E-3,5.7720575E-3,-8.992545E-3,6.3469964E-3],"categories":[],"categories_nodes":[],"categories_segments":[],"categories_sizes":[],"default_left":[0,0,0,0,0,0,0,0,0,0,0,0,0,0,0,0,0,0,0,0,0],"id":27,"left_children":[1,3,5,7,9,11,-1,-1,-1,13,-1,15,-1,17,-1,19,-1,-1,-1,-1,-1],"loss_changes":[4.1710777E0,2.3346243E0,2.8709397E0,1.6786351E0,7.929436E-1,2.1218982E0,0E0,0E0,0E0,2.661022E-1,0E0,1.7612967E0,0E0,3.3542362E-1,0E0,5.161616E-1,0E0,0E0,0E0,0E0,0E0],"parents":[2147483647,0,0,1,1,2,2,3,3,4,4,5,5,9,9,11,11,13,13,15,15],"right_children":[2,4,6,8,10,12,-1,-1,-1,14,-1,16,-1,18,-1,20,-1,-1,-1,-1,-1],"split_conditions":[1E0,2E0,1.44E2,6.803571E0,3.925E0,4.8627453E0,-1.1165611E-2,-2.730743E-2,5.658621E-3,8.8E1,-6.570586E-3,2.03E1,-7.3776776E-3,1.5E1,1.5790474E-2,1.29E2,3.2663547E-2,-6.551783E-3,5.7720575E-3,-8.992545E-3,6.3469964E-3],"split_indices":[2,18,10,21,21,21,0,0,0,10,0,1,0,11,0,10,0,0,0,0,0],"split_type":[0,0,0,0,0,0,0,0,0,0,0,0,0,0,0,0,0,0,0,0,0],"sum_hessian":[2.9075235E1,1.4377902E1,1.4697334E1,9.763785E0,4.614116E0,1.2666932E1,2.030402E0,8.62934E0,1.1344459E0,3.5849702E0,1.029146E0,1.1577338E1,1.0895941E0,2.148851E0,1.4361193E0,2.610617E0,8.966721E0,1.0258524E0,1.1229986E0,1.5331756E0,1.0774412E0],"tree_param":{"num_deleted":"0","num_feature":"23","num_nodes":"21","size_leaf_vector":"1"}},{"base_weights":[1.1406077E-2,-2.7672184E-1,2.8993255E-1,-4.431748E-1,1.3587506E-1,4.3355253E-1,-1.1082355E-2,-2.6916964E-2,5.628785E-3,-6.5591866E-3,2.525922E-1,5.310356E-1,-7.343282E-3,1.4273788E-2,4.525339E-4,-5.244716E-2,3.1953823E-2,-8.938032E-3,6.3147093E-3],"categories":[],"categories_nodes":[],"categories_segments":[],"categories_sizes":[],"default_left":[0,0,0,0,0,0,0,0,0,0,0,0,0,0,0,0,0,0,0],"id":28,"left_children":[1,3,5,7,9,11,-1,-1,-1,-1,13,15,-1,-1,-1,17,-1,-1,-1],"loss_changes":[3.9208753E0,2.2653646E0,2.7715304E0,1.6427646E0,7.8691375E-1,2.0599904E0,0E0,0E0,0E0,0E0,8.298546E-2,1.6928697E0,0E0,0E0,0E0,5.103852E-1,0E0,0E0,0E0],"parents":[2147483647,0,0,1,1,2,2,3,3,4,4,5,5,10,10,11,11,15,15],"right_children":[2,4,6,8,10,12,-1,-1,-1,-1,14,16,-1,-1,-1,18,-1,-1,-1],"split_conditions":[1E0,2E0,1.44E2,6.803571E0,4E1,4.8627453E0,-1.1082355E-2,-2.6916964E-2,5.628785E-3,-6.5591866E-3,2.71875E0,2.03E1,-7.343282E-3,1.4273788E-2,4.525339E-4,1.29E2,3.1953823E-2,-8.938032E-3,6.3147093E-3],"split_indices":[2,18,10,21,10,21,0,0,0,0,21,1,0,0,0,10,0,0,0],"split_type":[0,0,0,0,0,0,0,0,0,0,0,0,0,0,0,0,0,0,0],"sum_hessian":[2.8860067E1,1.4217378E1,1.464269E1,9.602396E0,4.6149817E0,1.2623898E1,2.0187917E0,8.466005E0,1.136391E0,1.0265924E0,3.5883892E0,1.1537027E1,1.0868704E0,1.6444933E0,1.9438958E0,2.606427E0,8.9306E0,1.5265554E0,1.0798717E0],"tree_param":{"num_deleted":"0","num_feature":"23","num_nodes":"19","size_leaf_vector":"1"}},{"base_weights":[1.0278122E-2,-2.701204E-1,2.8054142E-1,-4.3548688E-1,1.3463975E-1,4.2248517E-1,-1.1000116E-2,-2.6534965E-2,5.5990764E-3,2.508682E-1,-6.5375776E-3,5.1918215E-1,-7.3091327E-3,-1.3858634E-2,1.5635574E-2,-5.1925935E-2,3.126693E-2,-6.5261805E-3,5.7088207E-3,-8.884059E-3,6.2825396E-3],"categories":[],"categories_nodes":[],"categories_segments":[],"categories_sizes":[],"default_left":[0,0,0,0,0,0,0,0,0,0,0,0,0,0,0,0,0,0,0,0,0],"id":29,"left_children":[1,3,5,7,9,11,-1,-1,-1,13,-1,15,-1,17,-1,19,-1,-1,-1,-1,-1],"loss_changes":[3.6865559E0,2.1969433E0,2.6762006E0,1.6078608E0,7.789166E-1,2.0004563E0,0E0,0E0,0E0,2.6585972E-1,0E0,1.6277871E0,0E0,3.3050784E-1,0E0,5.046809E-1,0E0,0E0,0E0,0E0,0E0],"parents":[2147483647,0,0,1,1,2,2,3,3,4,4,5,5,9,9,11,11,13,13,15,15],"right_children":[2,4,6,8,10,12,-1,-1,-1,14,-1,16,-1,18,-1,20,-1,-1,-1,-1,-1],"split_conditions":[1E0,2E0,1.44E2,6.803571E0,3.925E0,4.8627453E0,-1.1000116E-2,-2.6534965E-2,5.5990764E-3,8.8E1,-6.5375776E-3,2.03E1,-7.3091327E-3,1.5E1,1.5635574E-2,1.29E2,3.126693E-2,-6.5261805E-3,5.7088207E-3,-8.884059E-3,6.2825396E-3],"split_indices":[2,18,10,21,21,21,0,0,0,10,0,1,0,11,0,10,0,0,0,0,0],"split_type":[0,0,0,0,0,0,0,0,0,0,0,0,0,0,0,0,0,0,0,0,0],"sum_hessian":[2.8647413E1,1.4062666E1,1.4584747E1,9.444813E0,4.617853E0,1.2577504E1,2.007243E0,8.3064995E0,1.138313E0,3.5919764E0,1.025877E0,1.1493363E1,1.084141E0,2.1495721E0,1.4424043E0,2.602234E0,8.8911295E0,1.0230281E0,1.126544E0,1.5199573E0,1.0822765E0],"tree_param":{"num_deleted":"0","num_feature":"23","num_nodes":"21","size_leaf_vector":"1"}},{"base_weights":[9.1791265E-3,-2.6364186E-1,2.7142155E-1,-4.2797193E-1,1.3356364E-1,4.1174853E-1,-1.091888E-2,-2.6161164E-2,5.569493E-3,-6.524251E-3,2.494076E-1,5.076918E-1,-7.2752275E-3,1.4103307E-2,4.3594014E-4,-5.1414E-2,3.0601729E-2,-8.830617E-3,6.2504867E-3],"categories":[],"categories_nodes":[],"categories_segments":[],"categories_sizes":[],"default_left":[0,0,0,0,0,0,0,0,0,0,0,0,0,0,0,0,0,0,0],"id":30,"left_children":[1,3,5,7,9,11,-1,-1,-1,-1,13,15,-1,-1,-1,17,-1,-1,-1],"loss_changes":[3.4652934E0,2.132247E0,2.5847394E0,1.5738904E0,7.7259356E-1,1.9431703E0,0E0,0E0,0E0,0E0,8.2274914E-2,1.5658412E0,0E0,0E0,0E0,4.9904752E-1,0E0,0E0,0E0],"parents":[2147483647,0,0,1,1,2,2,3,3,4,4,5,5,10,10,11,11,15,15],"right_children":[2,4,6,8,10,12,-1,-1,-1,-1,14,16,-1,-1,-1,18,-1,-1,-1],"split_conditions":[1E0,2E0,1.44E2,6.803571E0,4E1,4.8627453E0,-1.091888E-2,-2.6161164E-2,5.569493E-3,-6.524251E-3,2.71875E0,2.03E1,-7.2752275E-3,1.4103307E-2,4.3594014E-4,1.29E2,3.0601729E-2,-8.830617E-3,6.2504867E-3],"split_indices":[2,18,10,21,10,21,0,0,0,0,21,1,0,0,0,10,0,0,0],"split_type":[0,0,0,0,0,0,0,0,0,0,0,0,0,0,0,0,0,0,0],"sum_hessian":[2.8433199E1,1.3909373E1,1.4523826E1,9.290978E0,4.6183944E0,1.25280695E1,1.9957565E0,8.150766E0,1.1402116E0,1.0229284E0,3.5954661E0,1.1446663E1,1.0814064E0,1.6521658E0,1.9433004E0,2.598038E0,8.848625E0,1.513382E0,1.084656E0],"tree_param":{"num_deleted":"0","num_feature":"23","num_nodes":"19","size_leaf_vector":"1"}},{"base_weights":[8.010621E-3,-2.5739408E-1,2.6256213E-1,-4.2062497E-1,1.3234188E-1,4.01328E-1,-1.0838631E-2,-2.5795309E-2,5.5400343E-3,2.4774778E-1,-6.5048034E-3,4.965477E-1,-7.2415643E-3,-1.4482098E-2,1.54823875E-2,-5.0911188E-2,2.9957134E-2,-6.5007485E-3,5.646171E-3,-8.777701E-3,6.218551E-3],"categories":[],"categories_nodes":[],"categories_segments":[],"categories_sizes":[],"default_left":[0,0,0,0,0,0,0,0,0,0,0,0,0,0,0,0,0,0,0,0,0],"id":31,"left_children":[1,3,5,7,9,11,-1,-1,-1,13,-1,15,-1,17,-1,19,-1,-1,-1,-1,-1],"loss_changes":[3.258067E0,2.068316E0,2.4969487E0,1.5408211E0,7.651336E-1,1.8880174E0,0E0,0E0,0E0,2.655722E-1,0E0,1.5068383E0,0E0,3.256613E-1,0E0,4.9348438E-1,0E0,0E0,0E0,0E0,0E0],"parents":[2147483647,0,0,1,1,2,2,3,3,4,4,5,5,9,9,11,11,13,13,15,15],"right_children":[2,4,6,8,10,12,-1,-1,-1,14,-1,16,-1,18,-1,20,-1,-1,-1,-1,-1],"split_conditions":[1E0,2E0,1.44E2,6.803571E0,3.925E0,4.8627453E0,-1.0838631E-2,-2.5795309E-2,5.5400343E-3,8.8E1,-6.5048034E-3,2.03E1,-7.2415643E-3,1.5E1,1.54823875E-2,1.29E2,2.9957134E-2,-6.5007485E-3,5.646171E-3,-8.777701E-3,6.218551E-3],"split_indices":[2,18,10,21,21,21,0,0,0,10,0,1,0,11,0,10,0,0,0,0,0],"split_type":[0,0,0,0,0,0,0,0,0,0,0,0,0,0,0,0,0,0,0,0,0],"sum_hessian":[2.8222017E1,1.3761796E1,1.4460221E1,9.140831E0,4.6209645E0,1.2475887E1,1.984334E0,7.998744E0,1.1420871E0,3.5983596E0,1.0226052E0,1.1397221E1,1.0786667E0,2.1501162E0,1.4482433E0,2.59384E0,8.803381E0,1.0201852E0,1.1299311E0,1.5068297E0,1.0870101E0],"tree_param":{"num_deleted":"0","num_feature":"23","num_nodes":"21","size_leaf_vector":"1"}},{"base_weights":[6.8759294E-3,-2.5126037E-1,2.5395322E-1,-4.1344124E-1,1.3127476E-1,3.9121026E-1,-1.0759352E-2,-2.5437146E-2,5.510702E-3,-6.489621E-3,2.4625984E-1,4.857344E-1,-7.208141E-3,1.3934769E-2,4.1953544E-4,-5.0417352E-2,2.9332165E-2,-8.725303E-3,6.1867344E-3],"categories":[],"categories_nodes":[],"categories_segments":[],"categories_sizes":[],"default_left":[0,0,0,0,0,0,0,0,0,0,0,0,0,0,0,0,0,0,0],"id":32,"left_children":[1,3,5,7,9,11,-1,-1,-1,-1,13,15,-1,-1,-1,17,-1,-1,-1],"loss_changes":[3.0623283E0,2.0078466E0,2.4126458E0,1.5086217E0,7.5853753E-1,1.8348904E0,0E0,0E0,0E0,0E0,8.1559956E-2,1.450604E0,0E0,0E0,0E0,4.8799044E-1,0E0,0E0,0E0],"parents":[2147483647,0,0,1,1,2,2,3,3,4,4,5,5,10,10,11,11,15,15],"right_children":[2,4,6,8,10,12,-1,-1,-1,-1,14,16,-1,-1,-1,18,-1,-1,-1],"split_conditions":[1E0,2E0,1.44E2,6.803571E0,4E1,4.8627453E0,-1.0759352E-2,-2.5437146E-2,5.510702E-3,-6.489621E-3,2.71875E0,2.03E1,-7.208141E-3,1.3934769E-2,4.1953544E-4,1.29E2,2.9332165E-2,-8.725303E-3,6.1867344E-3],"split_indices":[2,18,10,21,10,21,0,0,0,0,21,1,0,0,0,10,0,0,0],"split_type":[0,0,0,0,0,0,0,0,0,0,0,0,0,0,0,0,0,0,0],"sum_hessian":[2.8009706E1,1.3615493E1,1.4394215E1,8.994307E0,4.621186E0,1.2421239E1,1.9729757E0,7.850367E0,1.1439397E0,1.0192572E0,3.6019287E0,1.1345316E1,1.0759224E0,1.6593318E0,1.9425969E0,2.5896406E0,8.755675E0,1.5003015E0,1.0893393E0],"tree_param":{"num_deleted":"0","num_feature":"23","num_nodes":"19","size_leaf_vector":"1"}},{"base_weights":[5.678519E-3,-2.453468E-1,2.455851E-1,-4.0641642E-1,1.3006683E-1,3.8138238E-1,-1.068103E-2,-2.5086466E-2,5.481494E-3,-6.4755804E-3,2.4466184E-1,4.752371E-1,-7.174956E-3,1.5330927E-2,-1.5058616E-2,-4.993237E-2,5.745176E-1,-6.6717244E-3,5.8030467E-3,-8.673417E-3,6.1550355E-3,2.6142688E-3,3.0496776E-2],"categories":[],"categories_nodes":[],"categories_segments":[],"categories_sizes":[],"default_left":[0,0,0,0,0,0,0,0,0,0,0,0,0,0,0,0,0,0,0,0,0,0,0],"id":33,"left_children":[1,3,5,7,9,11,-1,-1,-1,-1,13,15,-1,-1,17,19,21,-1,-1,-1,-1,-1,-1],"loss_changes":[2.8790026E0,1.9480807E0,2.331658E0,1.4772644E0,7.518607E-1,1.7836888E0,0E0,0E0,0E0,0E0,2.651145E-1,1.3969746E0,0E0,0E0,3.4348872E-1,4.8256478E-1,2.708292E-2,0E0,0E0,0E0,0E0,0E0,0E0],"parents":[2147483647,0,0,1,1,2,2,3,3,4,4,5,5,10,10,11,11,14,14,15,15,16,16],"right_children":[2,4,6,8,10,12,-1,-1,-1,-1,14,16,-1,-1,18,20,22,-1,-1,-1,-1,-1,-1],"split_conditions":[1E0,2E0,1.44E2,6.803571E0,6.36814E5,4.8627453E0,-1.068103E-2,-2.5086466E-2,5.481494E-3,-6.4755804E-3,2.5E0,2.03E1,-7.174956E-3,1.5330927E-2,1.75E1,1.29E2,1.8284789E0,-6.6717244E-3,5.8030467E-3,-8.673417E-3,6.1550355E-3,2.6142688E-3,3.0496776E-2],"split_indices":[2,18,10,21,22,21,0,0,0,0,11,1,0,0,11,10,19,0,0,0,0,0,0],"split_type":[0,0,0,0,0,0,0,0,0,0,0,0,0,0,0,0,0,0,0,0,0,0,0],"sum_hessian":[2.7800865E1,1.3474798E1,1.4326066E1,8.851339E0,4.6234593E0,1.2364383E1,1.9616835E0,7.7055697E0,1.1457694E0,1.0173341E0,3.6061254E0,1.1291208E1,1.073174E0,1.4536421E0,2.152483E0,2.5854406E0,8.705769E0,1.038429E0,1.1140541E0,1.4937973E0,1.0916432E0,2.1256568E0,6.580111E0],"tree_param":{"num_deleted":"0","num_feature":"23","num_nodes":"23","size_leaf_vector":"1"}},{"base_weights":[5.686372E-3,-1.9940758E-1,2.895127E-1,-4.2211705E-1,3.2376662E-1,-1.3987176E-2,5.534901E-1,-5.828889E-1,1.3255625E-2,-2.0341435E-4,1.8625641E-2,2.9111028E-2,1.3476721E-3,1.1214145E-3,-3.389598E-2,-8.001014E-3,7.859769E-3],"categories":[],"categories_nodes":[],"categories_segments":[],"categories_sizes":[],"default_left":[0,0,0,0,0,0,0,0,0,0,0,0,0,0,0,0,0],"id":34,"left_children":[1,3,5,7,9,-1,11,13,-1,-1,-1,-1,-1,15,-1,-1,-1],"loss_changes":[2.7660365E0,4.5998487E0,4.5313826E0,4.175364E0,2.3800051E-1,0E0,9.9021435E-2,1.2517452E0,0E0,0E0,0E0,0E0,0E0,5.8153206E-1,0E0,0E0,0E0],"parents":[2147483647,0,0,1,1,2,2,3,3,4,4,6,6,7,7,13,13],"right_children":[2,4,6,8,10,-1,12,14,-1,-1,-1,-1,-1,16,-1,-1,-1],"split_conditions":[1E0,2.5E1,3.7857144E0,1E0,4E1,-1.3987176E-2,3.3E0,1.0051737E2,1.3255625E-2,-2.0341435E-4,1.8625641E-2,2.9111028E-2,1.3476721E-3,9.206349E1,-3.389598E-2,-8.001014E-3,7.859769E-3],"split_indices":[6,11,19,9,10,0,11,20,0,0,0,0,0,20,0,0,0],"split_type":[0,0,0,0,0,0,0,0,0,0,0,0,0,0,0,0,0],"sum_hessian":[2.7599833E1,1.7748798E1,9.851036E0,1.3804142E1,3.9446552E0,2.931698E0,6.9193377E0,1.2417457E1,1.3866856E0,1.6970217E0,2.2476335E0,5.558489E0,1.3608491E0,3.1207716E0,9.296685E0,1.4110532E0,1.7097185E0],"tree_param":{"num_deleted":"0","num_feature":"23","num_nodes":"17","size_leaf_vector":"1"}},{"base_weights":[9.122853E-3,-2.3602554E-1,2.4101953E-1,-3.957041E-1,1.2919003E-1,3.7349924E-1,-1.04189655E-2,-2.4548164E-2,5.4310607E-3,2.4205247E-1,-6.378094E-3,4.655164E-1,-7.026344E-3,-1.2796308E-2,1.5034335E-2,-4.564312E-2,5.6006664E-1,-6.3539147E-3,5.5846977E-3,-8.444073E-3,6.145147E-3,2.6428946E-3,2.966903E-2],"categories":[],"categories_nodes":[],"categories_segments":[],"categories_sizes":[],"default_left":[0,0,0,0,0,0,0,0,0,0,0,0,0,0,0,0,0,0,0,0,0,0,0],"id":35,"left_children":[1,3,5,7,9,11,-1,-1,-1,13,-1,15,-1,17,-1,19,21,-1,-1,-1,-1,-1,-1],"loss_changes":[2.6960583E0,1.8666002E0,2.2176712E0,1.4284298E0,7.3210484E-1,1.7067356E0,0E0,0E0,0E0,2.41691E-1,0E0,1.2799053E0,0E0,3.1458977E-1,0E0,4.6833766E-1,1.288414E-3,0E0,0E0,0E0,0E0,0E0,0E0],"parents":[2147483647,0,0,1,1,2,2,3,3,4,4,5,5,9,9,11,11,13,13,15,15,16,16],"right_children":[2,4,6,8,10,12,-1,-1,-1,14,-1,16,-1,18,-1,20,22,-1,-1,-1,-1,-1,-1],"split_conditions":[1E0,2E0,1.44E2,6.803571E0,3.925E0,4.8627453E0,-1.04189655E-2,-2.4548164E-2,5.4310607E-3,8.8E1,-6.378094E-3,2.03E1,-7.026344E-3,1.5E1,1.5034335E-2,1.29E2,1.8284789E0,-6.3539147E-3,5.5846977E-3,-8.444073E-3,6.145147E-3,2.6428946E-3,2.966903E-2],"split_indices":[2,18,10,21,21,21,0,0,0,10,0,1,0,11,0,10,19,0,0,0,0,0,0],"split_type":[0,0,0,0,0,0,0,0,0,0,0,0,0,0,0,0,0,0,0,0,0,0,0],"sum_hessian":[2.7418194E1,1.3241725E1,1.417647E1,8.632595E0,4.6091294E0,1.2253219E1,1.9232513E0,7.4839444E0,1.1486509E0,3.5994198E0,1.0097095E0,1.1193213E1,1.0600054E0,2.1354535E0,1.4639664E0,2.5546763E0,8.638536E0,1.004986E0,1.1304673E0,1.4641864E0,1.09049E0,2.1266491E0,6.5118876E0],"tree_param":{"num_deleted":"0","num_feature":"23","num_nodes":"23","size_leaf_vector":"1"}},{"base_weights":[9.041095E-3,-1.9085029E-1,2.8265825E-1,-4.1159883E-1,3.1937516E-1,-1.3673839E-2,5.390137E-1,-5.715053E-1,1.3071443E-2,-1.2245536E-4,1.8278193E-2,2.8335217E-2,1.304166E-3,1.2356831E-3,-3.32431E-2,-7.870666E-3,7.730707E-3],"categories":[],"categories_nodes":[],"categories_segments":[],"categories_sizes":[],"default_left":[0,0,0,0,0,0,0,0,0,0,0,0,0,0,0,0,0],"id":36,"left_children":[1,3,5,7,9,-1,11,13,-1,-1,-1,-1,-1,15,-1,-1,-1],"loss_changes":[2.5751374E0,4.4093056E0,4.2887783E0,4.0283756E0,2.1599722E-1,0E0,9.193039E-2,1.1934195E0,0E0,0E0,0E0,0E0,0E0,5.618611E-1,0E0,0E0,0E0],"parents":[2147483647,0,0,1,1,2,2,3,3,4,4,6,6,7,7,13,13],"right_children":[2,4,6,8,10,-1,12,14,-1,-1,-1,-1,-1,16,-1,-1,-1],"split_conditions":[1E0,2.5E1,3.7857144E0,1E0,4E1,-1.3673839E-2,3.3E0,1.0051737E2,1.3071443E-2,-1.2245536E-4,1.8278193E-2,2.8335217E-2,1.304166E-3,9.206349E1,-3.32431E-2,-7.870666E-3,7.730707E-3],"split_indices":[6,11,19,9,10,0,11,20,0,0,0,0,0,20,0,0,0],"split_type":[0,0,0,0,0,0,0,0,0,0,0,0,0,0,0,0,0],"sum_hessian":[2.7219698E1,1.7476866E1,9.742833E0,1.3548235E1,3.9286308E0,2.8633137E0,6.879519E0,1.2166101E1,1.3821335E0,1.6816096E0,2.2470214E0,5.53248E0,1.3470393E0,3.0881307E0,9.0779705E0,1.3886734E0,1.6994572E0],"tree_param":{"num_deleted":"0","num_feature":"23","num_nodes":"17","size_leaf_vector":"1"}},{"base_weights":[1.2286348E-2,-2.272095E-1,2.366216E-1,-3.8544238E-1,1.2824392E-1,3.659552E-1,-1.0167933E-2,-2.4030467E-2,5.3807693E-3,-7.4693486E-2,1.1877595E-2,4.56218E-1,-6.8827146E-3,4.3778303E-3,-8.511823E-3,-4.1548368E-2,2.7313514E-2,-8.223684E-3,6.133834E-3],"categories":[],"categories_nodes":[],"categories_segments":[],"categories_sizes":[],"default_left":[0,0,0,0,0,0,0,0,0,0,0,0,0,0,0,0,0,0,0],"id":37,"left_children":[1,3,5,7,9,11,-1,-1,-1,13,-1,15,-1,-1,-1,17,-1,-1,-1],"loss_changes":[2.5276134E0,1.7887973E0,2.1112208E0,1.3816428E0,5.011476E-1,1.6343215E0,0E0,0E0,0E0,3.4618166E-1,0E0,1.1723657E0,0E0,0E0,0E0,4.54603E-1,0E0,0E0,0E0],"parents":[2147483647,0,0,1,1,2,2,3,3,4,4,5,5,9,9,11,11,15,15],"right_children":[2,4,6,8,10,12,-1,-1,-1,14,-1,16,-1,-1,-1,18,-1,-1,-1],"split_conditions":[1E0,2E0,1.44E2,6.803571E0,8.8E1,4.8627453E0,-1.0167933E-2,-2.4030467E-2,5.3807693E-3,2.273E1,1.1877595E-2,2.03E1,-6.8827146E-3,4.3778303E-3,-8.511823E-3,1.29E2,2.7313514E-2,-8.223684E-3,6.133834E-3],"split_indices":[2,18,10,21,10,21,0,0,0,1,0,1,0,0,0,10,0,0,0],"split_type":[0,0,0,0,0,0,0,0,0,0,0,0,0,0,0,0,0,0,0],"sum_hessian":[2.7038609E1,1.30154505E1,1.4023157E1,8.422449E0,4.593002E0,1.2137705E1,1.8854526E0,7.2714357E0,1.1510133E0,2.7164423E0,1.8765597E0,1.1090899E1,1.046805E0,1.3165623E0,1.39988E0,2.5242474E0,8.566652E0,1.4349918E0,1.0892556E0],"tree_param":{"num_deleted":"0","num_feature":"23","num_nodes":"19","size_leaf_vector":"1"}},{"base_weights":[1.0967498E-2,-2.4418016E-1,2.1409579E-1,-4.6076548E-1,2.1037637E-1,-1.7447874E-1,5.2539307E-1,2.2019206E-3,-2.6336795E-2,1.2223804E-2,4.3599294E-3,-3.5465184E-1,1.2896684E-2,2.7618183E-2,1.2500518E-3,5.9081274E-3,-5.669955E-3,-4.1676095E-1,3.0626585E-3,7.5669907E-4,-2.2891704E-2],"categories":[],"categories_nodes":[],"categories_segments":[],"categories_sizes":[],"default_left":[0,0,0,0,0,0,0,0,0,0,0,0,0,0,0,0,0,0,0,0,0],"id":38,"left_children":[1,3,5,7,9,11,13,-1,-1,-1,15,17,-1,-1,-1,-1,-1,19,-1,-1,-1],"loss_changes":[2.4319742E0,3.0367694E0,4.0420747E0,8.100059E-1,8.517927E-2,2.3949888E0,8.915043E-2,0E0,0E0,0E0,2.964049E-1,7.1047807E-1,0E0,0E0,0E0,0E0,0E0,3.6400223E-1,0E0,0E0,0E0],"parents":[2147483647,0,0,1,1,2,2,3,3,4,4,5,5,6,6,10,10,11,11,17,17],"right_children":[2,4,6,8,10,12,14,-1,-1,-1,16,18,-1,-1,-1,-1,-1,20,-1,-1,-1],"split_conditions":[3.7857144E0,2.5E1,1E0,1.1813602E0,2.273E1,1E0,3.3E0,2.2019206E-3,-2.6336795E-2,1.2223804E-2,8.9522545E1,2.832E1,1.2896684E-2,2.7618183E-2,1.2500518E-3,5.9081274E-3,-5.669955E-3,1E0,3.0626585E-3,7.5669907E-4,-2.2891704E-2],"split_indices":[19,11,6,19,1,9,11,0,0,0,20,1,0,0,0,0,0,14,0,0,0],"split_type":[0,0,0,0,0,0,0,0,0,0,0,0,0,0,0,0,0,0,0,0,0],"sum_hessian":[2.683734E1,1.0999714E1,1.58376255E1,7.357464E0,3.6422498E0,8.999354E0,6.8382707E0,1.234629E0,6.1228347E0,1.5232912E0,2.1189585E0,7.6218557E0,1.3774985E0,5.5030446E0,1.3352263E0,1.0601553E0,1.0588033E0,6.61363E0,1.0082259E0,1.1227686E0,5.4908614E0],"tree_param":{"num_deleted":"0","num_feature":"23","num_nodes":"21","size_leaf_vector":"1"}},{"base_weights":[1.341671E-2,-2.1934076E-1,2.3018862E-1,-3.7622702E-1,1.2732673E-1,3.5688606E-1,-9.965481E-3,-2.355356E-2,5.313996E-3,-7.139608E-2,1.1622903E-2,4.453974E-1,-6.7431675E-3,4.378345E-3,-8.33471E-3,-3.851717E-2,5.317057E-1,6.1139837E-3,-8.051785E-3,2.4704363E-3,2.8192028E-2],"categories":[],"categories_nodes":[],"categories_segments":[],"categories_sizes":[],"default_left":[0,0,0,0,0,0,0,0,0,0,0,0,0,0,0,0,0,0,0,0,0],"id":39,"left_children":[1,3,5,7,9,11,-1,-1,-1,13,-1,15,-1,-1,-1,17,19,-1,-1,-1,-1],"loss_changes":[2.3555942E0,1.7195293E0,2.0103076E0,1.3349519E0,4.7052097E-1,1.558984E0,0E0,0E0,0E0,3.3826965E-1,0E0,1.0811672E0,0E0,0E0,0E0,4.431807E-1,7.864952E-3,0E0,0E0,0E0,0E0],"parents":[2147483647,0,0,1,1,2,2,3,3,4,4,5,5,9,9,11,11,15,15,16,16],"right_children":[2,4,6,8,10,12,-1,-1,-1,14,-1,16,-1,-1,-1,18,20,-1,-1,-1,-1],"split_conditions":[1E0,2E0,1.44E2,6.803571E0,8.8E1,4.8627453E0,-9.965481E-3,-2.355356E-2,5.313996E-3,2.273E1,1.1622903E-2,2.03E1,-6.7431675E-3,4.378345E-3,-8.33471E-3,3.8421052E0,1.8284789E0,6.1139837E-3,-8.051785E-3,2.4704363E-3,2.8192028E-2],"split_indices":[2,18,10,21,10,21,0,0,0,1,0,1,0,0,0,19,19,0,0,0,0],"split_type":[0,0,0,0,0,0,0,0,0,0,0,0,0,0,0,0,0,0,0,0,0],"sum_hessian":[2.6679945E1,1.280845E1,1.3871496E1,8.230854E0,4.577595E0,1.2017182E1,1.8543139E0,7.076806E0,1.1540482E0,2.6940598E0,1.8835356E0,1.0982928E1,1.0342536E0,1.3138106E0,1.3802491E0,2.5004768E0,8.482451E0,1.0897509E0,1.410726E0,2.1149898E0,6.3674617E0],"tree_param":{"num_deleted":"0","num_feature":"23","num_nodes":"21","size_leaf_vector":"1"}},{"base_weights":[1.3181868E-2,-2.3532085E-1,2.0981446E-1,-4.5078444E-1,2.097708E-1,-1.7042339E-1,5.1205176E-1,2.2398594E-3,-2.5839096E-2,1.2133896E-2,5.024519E-3,-3.492053E-1,1.27222715E-2,2.6919574E-2,1.1927295E-3,5.831926E-3,-5.565195E-3,2.7151462E-3,-4.0691707E-1,-2.3512324E-2,2.3770449E-3],"categories":[],"categories_nodes":[],"categories_segments":[],"categories_sizes":[],"default_left":[0,0,0,0,0,0,0,0,0,0,0,0,0,0,0,0,0,0,0,0,0],"id":40,"left_children":[1,3,5,7,9,11,13,-1,-1,-1,15,17,-1,-1,-1,-1,-1,-1,19,-1,-1],"loss_changes":[2.2767463E0,2.9434447E0,3.8212342E0,7.9448247E-1,7.95694E-2,2.3215218E0,8.749676E-2,0E0,0E0,0E0,2.868927E-1,6.2833285E-1,0E0,0E0,0E0,0E0,0E0,0E0,6.979089E-1,0E0,0E0],"parents":[2147483647,0,0,1,1,2,2,3,3,4,4,5,5,6,6,10,10,11,11,18,18],"right_children":[2,4,6,8,10,12,14,-1,-1,-1,16,18,-1,-1,-1,-1,-1,-1,20,-1,-1],"split_conditions":[3.7857144E0,2.5E1,1E0,1.1813602E0,2.273E1,1E0,3.3E0,2.2398594E-3,-2.5839096E-2,1.2133896E-2,3.887172E5,7.470707E5,1.27222715E-2,2.6919574E-2,1.1927295E-3,5.831926E-3,-5.565195E-3,2.7151462E-3,3E1,-2.3512324E-2,2.3770449E-3],"split_indices":[19,11,6,19,1,9,11,0,0,0,22,22,0,0,0,0,0,0,11,0,0],"split_type":[0,0,0,0,0,0,0,0,0,0,0,0,0,0,0,0,0,0,0,0,0],"sum_hessian":[2.6489412E1,1.0832211E1,1.5657203E1,7.2127175E0,3.6194923E0,8.865274E0,6.791928E0,1.2251606E0,5.987557E0,1.5222218E0,2.0972705E0,7.4930987E0,1.3721757E0,5.468717E0,1.323211E0,1.0567193E0,1.0405513E0,1.0115099E0,6.481589E0,5.3839173E0,1.0976717E0],"tree_param":{"num_deleted":"0","num_feature":"23","num_nodes":"21","size_leaf_vector":"1"}},{"base_weights":[1.5613602E-2,-2.1168958E-1,2.2555317E-1,-3.672228E-1,1.2643233E-1,3.5021606E-1,-9.79887E-3,-2.3086546E-2,5.2491263E-3,-6.8183556E-2,1.1375594E-2,4.3707666E-1,-6.6052745E-3,4.3792464E-3,-8.162599E-3,-3.5500564E-2,2.599746E-2,-7.882799E-3,6.0998537E-3],"categories":[],"categories_nodes":[],"categories_segments":[],"categories_sizes":[],"default_left":[0,0,0,0,0,0,0,0,0,0,0,0,0,0,0,0,0,0,0],"id":41,"left_children":[1,3,5,7,9,11,-1,-1,-1,13,-1,15,-1,-1,-1,17,-1,-1,-1],"loss_changes":[2.2113452E0,1.6530281E0,1.9333423E0,1.2899728E0,4.415583E-1,1.4949808E0,0E0,0E0,0E0,3.3063203E-1,0E0,1.0023453E0,0E0,0E0,0E0,4.3236825E-1,0E0,0E0,0E0],"parents":[2147483647,0,0,1,1,2,2,3,3,4,4,5,5,9,9,11,11,15,15],"right_children":[2,4,6,8,10,12,-1,-1,-1,14,-1,16,-1,-1,-1,18,-1,-1,-1],"split_conditions":[1E0,2E0,1.44E2,6.803571E0,8.8E1,4.8627453E0,-9.79887E-3,-2.3086546E-2,5.2491263E-3,2.273E1,1.1375594E-2,2.03E1,-6.6052745E-3,4.3792464E-3,-8.162599E-3,1.29E2,2.599746E-2,-7.882799E-3,6.0998537E-3],"split_indices":[2,18,10,21,10,21,0,0,0,1,0,1,0,0,0,10,0,0,0],"split_type":[0,0,0,0,0,0,0,0,0,0,0,0,0,0,0,0,0,0,0],"sum_hessian":[2.633435E1,1.2604261E1,1.3730089E1,8.043608E0,4.5606537E0,1.1902005E1,1.828084E0,6.8870406E0,1.1565669E0,2.6714945E0,1.8891593E0,1.0880598E1,1.0214072E0,1.3108506E0,1.3606437E0,2.4762309E0,8.4043665E0,1.388925E0,1.087306E0],"tree_param":{"num_deleted":"0","num_feature":"23","num_nodes":"19","size_leaf_vector":"1"}},{"base_weights":[1.4217247E-2,-2.290493E-1,2.058329E-1,-4.4299537E-1,2.0806096E-1,-1.6640493E-1,4.994772E-1,2.2037805E-3,-2.5401065E-2,1.1978253E-2,5.7198494E-3,-3.4382048E-1,1.2556492E-2,2.6259689E-2,1.1415181E-3,5.753718E-3,-5.457364E-3,2.640149E-3,-4.0040785E-1,-2.3134133E-2,2.3338776E-3],"categories":[],"categories_nodes":[],"categories_segments":[],"categories_sizes":[],"default_left":[0,0,0,0,0,0,0,0,0,0,0,0,0,0,0,0,0,0,0,0,0],"id":42,"left_children":[1,3,5,7,9,11,13,-1,-1,-1,15,17,-1,-1,-1,-1,-1,-1,19,-1,-1],"loss_changes":[2.1560643E0,2.8534813E0,3.6165807E0,7.6438236E-1,7.2942734E-2,2.2515378E0,8.534384E-2,0E0,0E0,0E0,2.772874E-1,6.01316E-1,0E0,0E0,0E0,0E0,0E0,0E0,6.716838E-1,0E0,0E0],"parents":[2147483647,0,0,1,1,2,2,3,3,4,4,5,5,6,6,10,10,11,11,18,18],"right_children":[2,4,6,8,10,12,14,-1,-1,-1,16,18,-1,-1,-1,-1,-1,-1,20,-1,-1],"split_conditions":[3.7857144E0,2.5E1,1E0,1.1813602E0,2.273E1,1E0,3.3E0,2.2037805E-3,-2.5401065E-2,1.1978253E-2,3E1,7.470707E5,1.2556492E-2,2.6259689E-2,1.1415181E-3,5.753718E-3,-5.457364E-3,2.640149E-3,3E1,-2.3134133E-2,2.3338776E-3],"split_indices":[19,11,6,19,1,9,11,0,0,0,11,22,0,0,0,0,0,0,11,0,0],"split_type":[0,0,0,0,0,0,0,0,0,0,0,0,0,0,0,0,0,0,0,0,0],"sum_hessian":[2.6139723E1,1.0656779E1,1.5482944E1,7.0644217E0,3.5923574E0,8.738591E0,6.744352E0,1.2115159E0,5.8529058E0,1.5165681E0,2.0757892E0,7.371722E0,1.3668692E0,5.4327316E0,1.3116204E0,1.0541701E0,1.0216191E0,1.0039259E0,6.3677964E0,5.2830515E0,1.0847447E0],"tree_param":{"num_deleted":"0","num_feature":"23","num_nodes":"21","size_leaf_vector":"1"}},{"base_weights":[1.6539032E-2,-2.2380115E-1,2.0465982E-1,-4.364969E-1,2.0671636E-1,-1.6169356E-1,4.9106878E-1,2.1917836E-3,-2.505955E-2,1.1899053E-2,5.679016E-3,-3.3841786E-1,1.24818E-2,2.5809301E-2,1.134877E-3,5.738745E-3,-5.445369E-3,2.628123E-3,-3.9473805E-1,-2.2835989E-2,2.32241E-3],"categories":[],"categories_nodes":[],"categories_segments":[],"categories_sizes":[],"default_left":[0,0,0,0,0,0,0,0,0,0,0,0,0,0,0,0,0,0,0,0,0],"id":43,"left_children":[1,3,5,7,9,11,13,-1,-1,-1,15,17,-1,-1,-1,-1,-1,-1,19,-1,-1],"loss_changes":[2.0850673E0,2.7865052E0,3.460147E0,7.4754286E-1,7.190597E-2,2.2020905E0,7.974386E-2,0E0,0E0,0E0,2.7592868E-1,5.8855224E-1,0E0,0E0,0E0,0E0,0E0,0E0,6.579139E-1,0E0,0E0],"parents":[2147483647,0,0,1,1,2,2,3,3,4,4,5,5,6,6,10,10,11,11,18,18],"right_children":[2,4,6,8,10,12,14,-1,-1,-1,16,18,-1,-1,-1,-1,-1,-1,20,-1,-1],"split_conditions":[3.7857144E0,2.5E1,1E0,1.1813602E0,2.273E1,1E0,3.3E0,2.1917836E-3,-2.505955E-2,1.1899053E-2,8.9522545E1,7.470707E5,1.24818E-2,2.5809301E-2,1.134877E-3,5.738745E-3,-5.445369E-3,2.628123E-3,3E1,-2.2835989E-2,2.32241E-3],"split_indices":[19,11,6,19,1,9,11,0,0,0,20,22,0,0,0,0,0,0,11,0,0],"split_type":[0,0,0,0,0,0,0,0,0,0,0,0,0,0,0,0,0,0,0,0,0],"sum_hessian":[2.5986034E1,1.0576715E1,1.540932E1,6.986279E0,3.5904367E0,8.671641E0,6.737678E0,1.2119668E0,5.774312E0,1.516882E0,2.0735548E0,7.305486E0,1.3661554E0,5.425834E0,1.3118438E0,1.0537988E0,1.0197558E0,1.0038522E0,6.301634E0,5.216666E0,1.0849679E0],"tree_param":{"num_deleted":"0","num_feature":"23","num_nodes":"21","size_leaf_vector":"1"}},{"base_weights":[1.8765638E-2,-2.021579E-1,2.2064658E-1,-3.5604188E-1,1.2567027E-1,3.4243348E-1,-9.54715E-3,-2.2493368E-2,5.149226E-3,1.0989046E-2,-6.5879636E-2,-6.500416E-2,4.3666437E-1,-7.922876E-3,4.3675895E-3,6.092891E-3,-9.323533E-3,2.023219E-2,4.8246917E-1,-4.848245E-4,1.6044237E-3,4.568013E-4,2.555432E-2],"categories":[],"categories_nodes":[],"categories_segments":[],"categories_sizes":[],"default_left":[0,0,0,0,0,0,0,0,0,0,0,0,0,0,0,0,0,0,0,0,0,0,0],"id":44,"left_children":[1,3,5,7,9,11,-1,-1,-1,-1,13,15,17,-1,-1,-1,-1,19,21,-1,-1,-1,-1],"loss_changes":[2.0442312E0,1.5738497E0,1.8320687E0,1.2300982E0,4.066137E-1,1.117671E0,0E0,0E0,0E0,0E0,3.154364E-1,5.17385E-1,2.6355052E-1,0E0,0E0,0E0,0E0,7.480982E-3,1.7843676E-1,0E0,0E0,0E0,0E0],"parents":[2147483647,0,0,1,1,2,2,3,3,4,4,5,5,10,10,11,11,12,12,17,17,18,18],"right_children":[2,4,6,8,10,12,-1,-1,-1,-1,14,16,18,-1,-1,-1,-1,20,22,-1,-1,-1,-1],"split_conditions":[1E0,2E0,1.44E2,6.803571E0,2.273E1,2.03E1,-9.54715E-3,-2.2493368E-2,5.149226E-3,1.0989046E-2,2.064619E2,3.8421052E0,2.9606986E0,-7.922876E-3,4.3675895E-3,6.092891E-3,-9.323533E-3,4.219512E0,3E0,-4.848245E-4,1.6044237E-3,4.568013E-4,2.555432E-2],"split_indices":[2,18,10,21,1,1,0,0,0,0,20,19,19,0,0,0,0,21,10,0,0,0,0],"split_type":[0,0,0,0,0,0,0,0,0,0,0,0,0,0,0,0,0,0,0,0,0,0,0],"sum_hessian":[2.5833357E1,1.2328377E1,1.350498E1,7.804354E0,4.5240226E0,1.1717933E1,1.7870475E0,6.645532E0,1.158822E0,2.0453157E0,2.4787066E0,2.7836277E0,8.934305E0,1.3325567E0,1.1461499E0,1.0839217E0,1.6997061E0,2.3139725E0,6.6203327E0,1.1734614E0,1.140511E0,1.1295704E0,5.490762E0],"tree_param":{"num_deleted":"0","num_feature":"23","num_nodes":"23","size_leaf_vector":"1"}},{"base_weights":[1.9131223E-2,-2.1598753E-1,2.0181632E-1,-4.2735073E-1,2.0574854E-1,-1.5769064E-1,4.8043892E-1,2.2349325E-3,-2.4610415E-2,1.1792112E-2,6.283226E-3,-3.3303043E-1,1.2320611E-2,2.5203539E-2,1.1652227E-3,5.663227E-3,-5.344132E-3,-3.8937527E-1,2.55285E-3,-2.254197E-2,2.3108793E-3],"categories":[],"categories_nodes":[],"categories_segments":[],"categories_sizes":[],"default_left":[0,0,0,0,0,0,0,0,0,0,0,0,0,0,0,0,0,0,0,0,0],"id":45,"left_children":[1,3,5,7,9,11,13,-1,-1,-1,15,17,-1,-1,-1,-1,-1,19,-1,-1,-1],"loss_changes":[1.9677644E0,2.6999009E0,3.2857661E0,7.360604E-1,6.663126E-2,2.134925E0,6.283498E-2,0E0,0E0,0E0,2.6697546E-1,5.7078874E-1,0E0,0E0,0E0,0E0,0E0,6.4072824E-1,0E0,0E0,0E0],"parents":[2147483647,0,0,1,1,2,2,3,3,4,4,5,5,6,6,10,10,11,11,17,17],"right_children":[2,4,6,8,10,12,14,-1,-1,-1,16,18,-1,-1,-1,-1,-1,20,-1,-1,-1],"split_conditions":[3.7857144E0,2.5E1,1E0,1.1813602E0,2.273E1,1E0,3.3E0,2.2349325E-3,-2.4610415E-2,1.1792112E-2,3.887172E5,1E0,1.2320611E-2,2.5203539E-2,1.1652227E-3,5.663227E-3,-5.344132E-3,2.5E1,2.55285E-3,-2.254197E-2,2.3108793E-3],"split_indices":[19,11,6,19,1,9,11,0,0,0,22,17,0,0,0,0,0,11,0,0,0],"split_type":[0,0,0,0,0,0,0,0,0,0,0,0,0,0,0,0,0,0,0,0,0],"sum_hessian":[2.5664038E1,1.042454E1,1.5239498E1,6.855572E0,3.5689673E0,8.549028E0,6.6904693E0,1.2036077E0,5.6519647E0,1.5164553E0,2.052512E0,7.188651E0,1.3603776E0,5.3853207E0,1.3051487E0,1.0506046E0,1.0019073E0,6.148942E0,1.0397091E0,5.081851E0,1.067091E0],"tree_param":{"num_deleted":"0","num_feature":"23","num_nodes":"21","size_leaf_vector":"1"}},{"base_weights":[2.1233946E-2,-1.9580078E-1,2.1784113E-1,-3.4828466E-1,1.2462347E-1,3.3744025E-1,-9.363996E-3,-2.2084353E-2,5.0864494E-3,1.0836167E-2,-6.4469114E-2,-6.1436284E-2,4.282433E-1,4.285126E-3,-7.77196E-3,6.0653E-3,-9.117778E-3,2.122558E-2,4.722351E-1,-4.3587966E-4,1.6107714E-3,4.9860374E-4,2.4979973E-2],"categories":[],"categories_nodes":[],"categories_segments":[],"categories_sizes":[],"default_left":[0,0,0,0,0,0,0,0,0,0,0,0,0,0,0,0,0,0,0,0,0,0,0],"id":46,"left_children":[1,3,5,7,9,11,-1,-1,-1,-1,13,15,17,-1,-1,-1,-1,19,21,-1,-1,-1,-1],"loss_changes":[1.9420017E0,1.5161464E0,1.7642009E0,1.1908314E0,3.92345E-1,1.0458341E0,0E0,0E0,0E0,0E0,3.034117E-1,5.030078E-1,2.3743176E-1,0E0,0E0,0E0,0E0,6.8592983E-3,1.595068E-1,0E0,0E0,0E0,0E0],"parents":[2147483647,0,0,1,1,2,2,3,3,4,4,5,5,10,10,11,11,12,12,17,17,18,18],"right_children":[2,4,6,8,10,12,-1,-1,-1,-1,14,16,18,-1,-1,-1,-1,20,22,-1,-1,-1,-1],"split_conditions":[1E0,2E0,1.44E2,6.803571E0,2.273E1,2.03E1,-9.363996E-3,-2.2084353E-2,5.0864494E-3,1.0836167E-2,1.625E0,3.8421052E0,2.9606986E0,4.285126E-3,-7.77196E-3,6.0653E-3,-9.117778E-3,4.219512E0,3E0,-4.3587966E-4,1.6107714E-3,4.9860374E-4,2.4979973E-2],"split_indices":[2,18,10,21,1,1,0,0,0,0,21,19,19,0,0,0,0,21,10,0,0,0,0],"split_type":[0,0,0,0,0,0,0,0,0,0,0,0,0,0,0,0,0,0,0,0,0,0,0],"sum_hessian":[2.5515493E1,1.2147206E1,1.3368288E1,7.6413474E0,4.5058584E0,1.1611108E1,1.7571795E0,6.481178E0,1.1601696E0,2.0474122E0,2.4584463E0,2.752804E0,8.858304E0,1.1458853E0,1.3125608E0,1.0834428E0,1.6693614E0,2.310076E0,6.5482283E0,1.1753331E0,1.1347429E0,1.128516E0,5.419712E0],"tree_param":{"num_deleted":"0","num_feature":"23","num_nodes":"23","size_leaf_vector":"1"}},{"base_weights":[2.154025E-2,-2.087025E-1,1.9918557E-1,-4.1873506E-1,2.0474035E-1,-1.5375209E-1,4.7037855E-1,2.2760718E-3,-2.4188023E-2,1.1686171E-2,3.4168325E-4,-3.2770678E-1,1.2163441E-2,2.4620514E-2,1.2053346E-3,-3.8313937E-1,2.506595E-3,-2.2177234E-2,2.269011E-3],"categories":[],"categories_nodes":[],"categories_segments":[],"categories_sizes":[],"default_left":[0,0,0,0,0,0,0,0,0,0,0,0,0,0,0,0,0,0,0],"id":47,"left_children":[1,3,5,7,9,11,13,-1,-1,-1,-1,15,-1,-1,-1,17,-1,-1,-1],"loss_changes":[1.8615593E0,2.6182733E0,3.1228347E0,7.2530913E-1,6.1736405E-2,2.070056E0,4.4908524E-2,0E0,0E0,0E0,0E0,5.497186E-1,0E0,0E0,0E0,6.166847E-1,0E0,0E0,0E0],"parents":[2147483647,0,0,1,1,2,2,3,3,4,4,5,5,6,6,11,11,15,15],"right_children":[2,4,6,8,10,12,14,-1,-1,-1,-1,16,-1,-1,-1,18,-1,-1,-1],"split_conditions":[3.7857144E0,2.5E1,1E0,1.1813602E0,2.273E1,1E0,3.3E0,2.2760718E-3,-2.4188023E-2,1.1686171E-2,3.4168325E-4,1E0,1.2163441E-2,2.4620514E-2,1.2053346E-3,2.5E1,2.506595E-3,-2.2177234E-2,2.269011E-3],"split_indices":[19,11,6,19,1,9,11,0,0,0,0,17,0,0,0,11,0,0,0],"split_type":[0,0,0,0,0,0,0,0,0,0,0,0,0,0,0,0,0,0,0],"sum_hessian":[2.5349619E1,1.0278969E1,1.5070649E1,6.731371E0,3.547598E0,8.430068E0,6.6405816E0,1.1954876E0,5.5358834E0,1.5158278E0,2.0317702E0,7.075704E0,1.3543637E0,5.3429456E0,1.297636E0,6.0480995E0,1.0276046E0,4.993564E0,1.0545352E0],"tree_param":{"num_deleted":"0","num_feature":"23","num_nodes":"19","size_leaf_vector":"1"}},{"base_weights":[2.3547078E-2,-1.8991376E-1,2.1532069E-1,-3.4094626E-1,1.2347325E-1,3.3283746E-1,-9.1872765E-3,-2.1694887E-2,5.024533E-3,1.0685662E-2,-6.3204795E-2,-5.800894E-2,4.203809E-1,4.224494E-3,-7.646506E-3,6.03715E-3,-8.918719E-3,2.2187771E-2,4.626468E-1,-3.8801963E-4,1.6164152E-3,5.3920265E-4,2.4440622E-2],"categories":[],"categories_nodes":[],"categories_segments":[],"categories_sizes":[],"default_left":[0,0,0,0,0,0,0,0,0,0,0,0,0,0,0,0,0,0,0,0,0,0,0],"id":48,"left_children":[1,3,5,7,9,11,-1,-1,-1,-1,13,15,17,-1,-1,-1,-1,19,21,-1,-1,-1,-1],"loss_changes":[1.8500963E0,1.4610479E0,1.7010497E0,1.1535418E0,3.7913045E-1,9.796176E-1,0E0,0E0,0E0,0E0,2.940467E-1,4.8910496E-1,2.1343184E-1,0E0,0E0,0E0,0E0,6.245998E-3,1.4207411E-1,0E0,0E0,0E0,0E0],"parents":[2147483647,0,0,1,1,2,2,3,3,4,4,5,5,10,10,11,11,12,12,17,17,18,18],"right_children":[2,4,6,8,10,12,-1,-1,-1,-1,14,16,18,-1,-1,-1,-1,20,22,-1,-1,-1,-1],"split_conditions":[1E0,2E0,1.44E2,6.803571E0,2.273E1,2.03E1,-9.1872765E-3,-2.1694887E-2,5.024533E-3,1.0685662E-2,1.625E0,3.8421052E0,2.9606986E0,4.224494E-3,-7.646506E-3,6.03715E-3,-8.918719E-3,4.219512E0,3E0,-3.8801963E-4,1.6164152E-3,5.3920265E-4,2.4440622E-2],"split_indices":[2,18,10,21,1,1,0,0,0,0,21,19,19,0,0,0,0,21,10,0,0,0,0],"split_type":[0,0,0,0,0,0,0,0,0,0,0,0,0,0,0,0,0,0,0,0,0,0,0],"sum_hessian":[2.520537E1,1.1974113E1,1.32312565E1,7.486635E0,4.4874783E0,1.150335E1,1.727907E0,6.3254905E0,1.1611447E0,2.048844E0,2.4386342E0,2.7224402E0,8.78091E0,1.1421185E0,1.2965158E0,1.0828933E0,1.6395469E0,2.3059351E0,6.4749746E0,1.1770105E0,1.1289246E0,1.1273774E0,5.347597E0],"tree_param":{"num_deleted":"0","num_feature":"23","num_nodes":"23","size_leaf_vector":"1"}},{"base_weights":[2.3800967E-2,-1.856446E-1,2.1117729E-1,-3.355301E-1,1.22306265E-1,3.2778797E-1,-9.127257E-3,-2.1418894E-2,4.997747E-3,1.0590542E-2,-6.281891E-2,-5.7405923E-2,4.14248E-1,-7.613414E-3,4.212931E-3,6.0065063E-3,-8.8625355E-3,2.207663E-2,4.5584202E-1,-3.85973E-4,1.6082341E-3,5.364762E-4,2.4080662E-2],"categories":[],"categories_nodes":[],"categories_segments":[],"categories_sizes":[],"default_left":[0,0,0,0,0,0,0,0,0,0,0,0,0,0,0,0,0,0,0,0,0,0,0],"id":49,"left_children":[1,3,5,7,9,11,-1,-1,-1,-1,13,15,17,-1,-1,-1,-1,19,21,-1,-1,-1,-1],"loss_changes":[1.7673037E0,1.419777E0,1.6623406E0,1.1309562E0,3.731159E-1,9.5236754E-1,0E0,0E0,0E0,0E0,2.918855E-1,4.834872E-1,2.0505047E-1,0E0,0E0,0E0,0E0,6.1819125E-3,1.368401E-1,0E0,0E0,0E0,0E0],"parents":[2147483647,0,0,1,1,2,2,3,3,4,4,5,5,10,10,11,11,12,12,17,17,18,18],"right_children":[2,4,6,8,10,12,-1,-1,-1,-1,14,16,18,-1,-1,-1,-1,20,22,-1,-1,-1,-1],"split_conditions":[1E0,2E0,1.44E2,6.803571E0,2.273E1,2.03E1,-9.127257E-3,-2.1418894E-2,4.997747E-3,1.0590542E-2,2.064619E2,3.8421052E0,2.9606986E0,-7.613414E-3,4.212931E-3,6.0065063E-3,-8.8625355E-3,4.219512E0,3E0,-3.85973E-4,1.6082341E-3,5.364762E-4,2.4080662E-2],"split_indices":[2,18,10,21,1,1,0,0,0,0,20,19,19,0,0,0,0,21,10,0,0,0,0],"split_type":[0,0,0,0,0,0,0,0,0,0,0,0,0,0,0,0,0,0,0,0,0,0,0],"sum_hessian":[2.5042927E1,1.1868722E1,1.3174204E1,7.380783E0,4.487939E0,1.1455898E1,1.718306E0,6.218225E0,1.1625582E0,2.0535786E0,2.4343603E0,2.7160132E0,8.739885E0,1.2942804E0,1.1400799E0,1.0849614E0,1.6310519E0,2.305932E0,6.433953E0,1.1771171E0,1.128815E0,1.1272802E0,5.3066726E0],"tree_param":{"num_deleted":"0","num_feature":"23","num_nodes":"23","size_leaf_vector":"1"}},{"base_weights":[2.401868E-2,-1.9932106E-1,1.9503638E-1,-4.0788916E-1,2.0391153E-1,-1.5060776E-1,4.5854333E-1,2.3654064E-3,-2.3677094E-2,1.1553193E-2,3.932422E-4,-3.2254627E-1,1.192982E-2,2.3911713E-2,1.2767579E-3,-3.7648106E-1,2.4289454E-3,-2.1755992E-2,2.198966E-3],"categories":[],"categories_nodes":[],"categories_segments":[],"categories_sizes":[],"default_left":[0,0,0,0,0,0,0,0,0,0,0,0,0,0,0,0,0,0,0],"id":50,"left_children":[1,3,5,7,9,11,13,-1,-1,-1,-1,15,-1,-1,-1,17,-1,-1,-1],"loss_changes":[1.7210977E0,2.519901E0,2.950267E0,7.190051E-1,5.3743124E-2,1.9915152E0,1.8992186E-2,0E0,0E0,0E0,0E0,5.21507E-1,0E0,0E0,0E0,5.8370614E-1,0E0,0E0,0E0],"parents":[2147483647,0,0,1,1,2,2,3,3,4,4,5,5,6,6,11,11,15,15],"right_children":[2,4,6,8,10,12,14,-1,-1,-1,-1,16,-1,-1,-1,18,-1,-1,-1],"split_conditions":[3.7857144E0,2.5E1,1E0,1.1813602E0,2.273E1,1E0,3.3E0,2.3654064E-3,-2.3677094E-2,1.1553193E-2,3.932422E-4,1E0,1.192982E-2,2.3911713E-2,1.2767579E-3,2.5E1,2.4289454E-3,-2.1755992E-2,2.198966E-3],"split_indices":[19,11,6,19,1,9,11,0,0,0,0,17,0,0,0,11,0,0,0],"split_type":[0,0,0,0,0,0,0,0,0,0,0,0,0,0,0,0,0,0,0],"sum_hessian":[2.4882769E1,1.0072995E1,1.4809773E1,6.562912E0,3.5100832E0,8.259806E0,6.549968E0,1.1794537E0,5.383458E0,1.5142014E0,1.9958818E0,6.9168324E0,1.3429735E0,5.2660346E0,1.2839328E0,5.91317E0,1.0036627E0,4.8834558E0,1.0297141E0],"tree_param":{"num_deleted":"0","num_feature":"23","num_nodes":"19","size_leaf_vector":"1"}},{"base_weights":[2.5931168E-2,-2.5131255E-1,1.5955748E-1,-1.6142324E-2,2.8895896E-3,2.9322317E-1,-1.4214347E-1,4.1032794E-1,-5.7932664E-2,1.0340019E-1,-1.4007426E-2,-3.7393142E-3,2.5297627E-2,-1.2030362E-2,8.353265E-3,-3.7305793E-4,6.5133246E-3],"categories":[],"categories_nodes":[],"categories_segments":[],"categories_sizes":[],"default_left":[0,0,0,0,0,0,0,0,0,0,0,0,0,0,0,0,0],"id":51,"left_children":[1,3,5,-1,-1,7,9,11,13,15,-1,-1,-1,-1,-1,-1,-1],"loss_changes":[1.6880445E0,5.222788E-1,1.6088233E0,0E0,0E0,1.2143092E0,8.25424E-1,1.2619381E0,1.006244E0,4.8417598E-2,0E0,0E0,0E0,0E0,0E0,0E0,0E0],"parents":[2147483647,0,0,1,1,2,2,5,5,6,6,7,7,8,8,9,9],"right_children":[2,4,6,-1,-1,8,10,12,14,16,-1,-1,-1,-1,-1,-1,-1],"split_conditions":[2.3333333E0,2E0,4.243902E0,-1.6142324E-2,2.8895896E-3,2.413E1,1.107078E2,1.2E1,3.5555556E0,5.058095E5,-1.4007426E-2,-3.7393142E-3,2.5297627E-2,-1.2030362E-2,8.353265E-3,-3.7305793E-4,6.5133246E-3],"split_indices":[21,18,21,0,0,1,20,10,21,22,0,0,0,0,0,0,0],"split_type":[0,0,0,0,0,0,0,0,0,0,0,0,0,0,0,0,0],"sum_hessian":[2.474113E1,5.182183E0,1.9558947E1,3.847258E0,1.3349247E0,1.3748713E1,5.8102345E0,9.046713E0,4.7019997E0,2.9928145E0,2.81742E0,1.8484575E0,7.1982555E0,2.2121863E0,2.4898133E0,1.9927526E0,1.000062E0],"tree_param":{"num_deleted":"0","num_feature":"23","num_nodes":"17","size_leaf_vector":"1"}},{"base_weights":[2.3756862E-2,-1.796038E-1,2.0502959E-1,1.1635942E-1,-3.3359784E-1,3.187331E-1,-8.896492E-3,-9.830652E-3,1.6015895E-2,1.080741E-3,-1.9801876E-2,-5.567277E-2,4.0275088E-1,5.89755E-3,-8.680173E-3,2.2390706E-2,4.4255108E-1,-3.1074206E-4,1.55088E-3,5.546996E-4,2.3358947E-2],"categories":[],"categories_nodes":[],"categories_segments":[],"categories_sizes":[],"default_left":[0,0,0,0,0,0,0,0,0,0,0,0,0,0,0,0,0,0,0,0,0],"id":52,"left_children":[1,3,5,7,9,11,-1,-1,-1,-1,-1,13,15,-1,-1,17,19,-1,-1,-1,-1],"loss_changes":[1.6452998E0,1.3752317E0,1.5679986E0,1.5761784E0,4.5890808E-1,8.944347E-1,0E0,0E0,0E0,0E0,0E0,4.6461016E-1,1.827178E-1,0E0,0E0,4.962134E-3,1.2157607E-1,0E0,0E0,0E0,0E0],"parents":[2147483647,0,0,1,1,2,2,3,3,4,4,5,5,11,11,12,12,15,15,16,16],"right_children":[2,4,6,8,10,12,-1,-1,-1,-1,-1,14,16,-1,-1,18,20,-1,-1,-1,-1],"split_conditions":[1E0,2.5E0,1.44E2,3.73125E0,2.3560605E0,2.03E1,-8.896492E-3,-9.830652E-3,1.6015895E-2,1.080741E-3,-1.9801876E-2,3.8421052E0,2.9606986E0,5.89755E-3,-8.680173E-3,4.219512E0,3E0,-3.1074206E-4,1.55088E-3,5.546996E-4,2.3358947E-2],"split_indices":[2,11,10,19,19,1,0,0,0,0,0,19,19,0,0,21,10,0,0,0,0],"split_type":[0,0,0,0,0,0,0,0,0,0,0,0,0,0,0,0,0,0,0,0,0],"sum_hessian":[2.4642677E1,1.1657165E1,1.2985513E1,4.825969E0,6.831195E0,1.1305832E1,1.6796803E0,2.0462155E0,2.779754E0,1.9987578E0,4.832437E0,2.6903958E0,8.615437E0,1.0875401E0,1.6028558E0,2.2962775E0,6.3191586E0,1.1798918E0,1.1163859E0,1.1244514E0,5.194707E0],"tree_param":{"num_deleted":"0","num_feature":"23","num_nodes":"21","size_leaf_vector":"1"}},{"base_weights":[2.2912689E-2,-2.468879E-1,1.5377639E-1,-1.5890295E-2,2.8630244E-3,2.844647E-1,-1.3979088E-1,3.9861673E-1,-5.7653412E-2,1.0145717E-1,-1.3783099E-2,-3.68879E-3,4.9241298E-1,-1.185486E-2,8.192527E-3,-7.720767E-5,6.0417503E-3,2.6206136E-2,2.2371467E-3],"categories":[],"categories_nodes":[],"categories_segments":[],"categories_sizes":[],"default_left":[0,0,0,0,0,0,0,0,0,0,0,0,0,0,0,0,0,0,0],"id":53,"left_children":[1,3,5,-1,-1,7,9,11,13,15,-1,-1,17,-1,-1,-1,-1,-1,-1],"loss_changes":[1.5983422E0,5.0793236E-1,1.5258013E0,0E0,0E0,1.153118E0,7.96368E-1,1.2047336E0,9.708374E-1,2.7790934E-2,0E0,0E0,8.91161E-3,0E0,0E0,0E0,0E0,0E0,0E0],"parents":[2147483647,0,0,1,1,2,2,5,5,6,6,7,7,8,8,9,9,12,12],"right_children":[2,4,6,-1,-1,8,10,12,14,16,-1,-1,18,-1,-1,-1,-1,-1,-1],"split_conditions":[2.3333333E0,2E0,4.243902E0,-1.5890295E-2,2.8630244E-3,2.413E1,1.107078E2,1.2E1,3.5555556E0,3.4117646E0,-1.3783099E-2,-3.68879E-3,3.0886875E6,-1.185486E-2,8.192527E-3,-7.720767E-5,6.0417503E-3,2.6206136E-2,2.2371467E-3],"split_indices":[21,18,21,0,0,1,20,10,21,19,0,0,22,0,0,0,0,0,0],"split_type":[0,0,0,0,0,0,0,0,0,0,0,0,0,0,0,0,0,0,0],"sum_hessian":[2.4516762E1,5.111791E0,1.940497E1,3.7811124E0,1.3306788E0,1.364199E1,5.762981E0,8.990694E0,4.651295E0,2.9888747E0,2.7741063E0,1.8430216E0,7.1476727E0,2.1807024E0,2.4705925E0,1.9305147E0,1.0583601E0,5.0800486E0,2.0676243E0],"tree_param":{"num_deleted":"0","num_feature":"23","num_nodes":"19","size_leaf_vector":"1"}},{"base_weights":[2.1888072E-2,-1.9183059E-1,1.8619911E-1,-3.9639926E-1,1.9992E-1,-1.4798832E-1,4.4013795E-1,2.4416344E-3,-2.313037E-2,1.1184889E-2,4.988076E-4,-3.151735E-1,1.1487065E-2,2.2898749E-2,1.2775835E-3,-3.6672354E-1,2.252526E-3,-2.0172697E-2,2.0228814E-4],"categories":[],"categories_nodes":[],"categories_segments":[],"categories_sizes":[],"default_left":[0,0,0,0,0,0,0,0,0,0,0,0,0,0,0,0,0,0,0],"id":54,"left_children":[1,3,5,7,9,11,13,-1,-1,-1,-1,15,-1,-1,-1,17,-1,-1,-1],"loss_changes":[1.5658838E0,2.386153E0,2.7333581E0,7.098348E-1,3.8517356E-2,1.8656471E0,4.678011E-3,0E0,0E0,0E0,0E0,4.761907E-1,0E0,0E0,0E0,2.3073602E-1,0E0,0E0,0E0],"parents":[2147483647,0,0,1,1,2,2,3,3,4,4,5,5,6,6,11,11,15,15],"right_children":[2,4,6,8,10,12,14,-1,-1,-1,-1,16,-1,-1,-1,18,-1,-1,-1],"split_conditions":[3.7857144E0,2.5E1,1E0,1.1813602E0,2.273E1,1E0,3.3E0,2.4416344E-3,-2.313037E-2,1.1184889E-2,4.988076E-4,2.817E1,1.1487065E-2,2.2898749E-2,1.2775835E-3,1.64E1,2.252526E-3,-2.0172697E-2,2.0228814E-4],"split_indices":[19,11,6,19,1,9,11,0,0,0,0,1,0,0,0,19,0,0,0],"split_type":[0,0,0,0,0,0,0,0,0,0,0,0,0,0,0,0,0,0,0],"sum_hessian":[2.4419792E1,9.886117E0,1.4533675E1,6.4167056E0,3.4694111E0,8.076785E0,6.4568896E0,1.1704062E0,5.2462997E0,1.5040786E0,1.9653326E0,6.7467465E0,1.3300388E0,5.1871653E0,1.2697246E0,5.7442794E0,1.0024672E0,4.424436E0,1.3198432E0],"tree_param":{"num_deleted":"0","num_feature":"23","num_nodes":"19","size_leaf_vector":"1"}},{"base_weights":[2.3449576E-2,-1.7502818E-1,2.0002925E-1,1.1346879E-1,-3.2561183E-1,3.1127286E-1,-8.695754E-3,-9.552869E-3,1.55067695E-2,1.045229E-3,-1.9330915E-2,-5.3893834E-2,3.9296773E-1,5.7852035E-3,-8.491672E-3,2.2633802E-2,4.312132E-1,-2.3745664E-4,1.4913395E-3,5.708089E-4,2.2742068E-2],"categories":[],"categories_nodes":[],"categories_segments":[],"categories_sizes":[],"default_left":[0,0,0,0,0,0,0,0,0,0,0,0,0,0,0,0,0,0,0,0,0],"id":55,"left_children":[1,3,5,7,9,11,-1,-1,-1,-1,-1,13,15,-1,-1,17,19,-1,-1,-1,-1],"loss_changes":[1.5517324E0,1.3024207E0,1.4902463E0,1.4777598E0,4.3374002E-1,8.4318733E-1,0E0,0E0,0E0,0E0,0E0,4.455047E-1,1.644516E-1,0E0,0E0,3.8363952E-3,1.08920574E-1,0E0,0E0,0E0,0E0],"parents":[2147483647,0,0,1,1,2,2,3,3,4,4,5,5,11,11,12,12,15,15,16,16],"right_children":[2,4,6,8,10,12,-1,-1,-1,-1,-1,14,16,-1,-1,18,20,-1,-1,-1,-1],"split_conditions":[1E0,2.5E0,1.44E2,3.73125E0,2.3560605E0,2.03E1,-8.695754E-3,-9.552869E-3,1.55067695E-2,1.045229E-3,-1.9330915E-2,3.8421052E0,2.9606986E0,5.7852035E-3,-8.491672E-3,4.219512E0,3E0,-2.3745664E-4,1.4913395E-3,5.708089E-4,2.2742068E-2],"split_indices":[2,11,10,19,19,1,0,0,0,0,0,19,19,0,0,21,10,0,0,0,0],"split_type":[0,0,0,0,0,0,0,0,0,0,0,0,0,0,0,0,0,0,0,0,0],"sum_hessian":[2.4285961E1,1.14753685E1,1.2810593E1,4.780788E0,6.6945806E0,1.1165082E1,1.6455104E0,1.9878855E0,2.7929027E0,1.9862243E0,4.7083564E0,2.6633303E0,8.501752E0,1.0896666E0,1.5736637E0,2.2858377E0,6.2159142E0,1.1823417E0,1.1034961E0,1.1215285E0,5.0943856E0],"tree_param":{"num_deleted":"0","num_feature":"23","num_nodes":"21","size_leaf_vector":"1"}},{"base_weights":[2.2592083E-2,-2.4111646E-1,1.5060991E-1,-1.55488895E-2,2.8194187E-3,2.7739754E-1,-1.35085E-1,3.878873E-1,-5.6114513E-2,1.00160636E-1,-1.3445513E-2,-3.5443332E-3,4.7859174E-1,-1.1565237E-2,1.598021E-1,-5.6306548E-5,5.9376652E-3,2.5464654E-2,2.1360903E-3,8.463664E-3,3.3928594E-4],"categories":[],"categories_nodes":[],"categories_segments":[],"categories_sizes":[],"default_left":[0,0,0,0,0,0,0,0,0,0,0,0,0,0,0,0,0,0,0,0,0],"id":56,"left_children":[1,3,5,-1,-1,7,9,11,13,15,-1,-1,17,-1,19,-1,-1,-1,-1,-1,-1],"loss_changes":[1.5164406E0,4.8730624E-1,1.4307227E0,0E0,0E0,1.0824125E0,7.6316786E-1,1.1253705E0,9.209858E-1,2.576968E-2,0E0,0E0,1.0750532E-2,0E0,6.5467954E-3,0E0,0E0,0E0,0E0,0E0,0E0],"parents":[2147483647,0,0,1,1,2,2,5,5,6,6,7,7,8,8,9,9,12,12,14,14],"right_children":[2,4,6,-1,-1,8,10,12,14,16,-1,-1,18,-1,20,-1,-1,-1,-1,-1,-1],"split_conditions":[2.3333333E0,2E0,4.243902E0,-1.55488895E-2,2.8194187E-3,2.413E1,1.107078E2,1.2E1,3.5555556E0,5.8965516E0,-1.3445513E-2,-3.5443332E-3,3.0886875E6,-1.1565237E-2,3.6666667E0,-5.6306548E-5,5.9376652E-3,2.5464654E-2,2.1360903E-3,8.463664E-3,3.3928594E-4],"split_indices":[21,18,21,0,0,1,20,10,21,21,0,0,22,0,21,0,0,0,0,0,0],"split_type":[0,0,0,0,0,0,0,0,0,0,0,0,0,0,0,0,0,0,0,0,0],"sum_hessian":[2.416221E1,5.009127E0,1.9153084E1,3.689806E0,1.3193213E0,1.3467023E1,5.686061E0,8.891095E0,4.5759273E0,2.9739127E0,2.712148E0,1.8283522E0,7.062743E0,2.1327603E0,2.443167E0,1.9182465E0,1.0556662E0,5.024325E0,2.038418E0,1.3002565E0,1.1429106E0],"tree_param":{"num_deleted":"0","num_feature":"23","num_nodes":"21","size_leaf_vector":"1"}},{"base_weights":[2.1806968E-2,-1.7185459E-1,1.9436164E-1,1.11776404E-1,-3.2044658E-1,3.041232E-1,-8.5887695E-3,-9.427256E-3,1.5257673E-2,9.910282E-4,-1.9006167E-2,-5.3865116E-2,3.84883E-1,-8.405085E-3,5.6878324E-3,2.1891393E-2,4.225803E-1,-2.0860678E-4,1.4215638E-3,5.46308E-4,2.2299202E-2],"categories":[],"categories_nodes":[],"categories_segments":[],"categories_sizes":[],"default_left":[0,0,0,0,0,0,0,0,0,0,0,0,0,0,0,0,0,0,0,0,0],"id":57,"left_children":[1,3,5,7,9,11,-1,-1,-1,-1,-1,13,15,-1,-1,17,19,-1,-1,-1,-1],"loss_changes":[1.4723803E0,1.2583301E0,1.4349499E0,1.4323429E0,4.1245592E-1,8.1674194E-1,0E0,0E0,0E0,0E0,0E0,4.3350056E-1,1.5964222E-1,0E0,0E0,3.2793428E-3,1.0683513E-1,0E0,0E0,0E0,0E0],"parents":[2147483647,0,0,1,1,2,2,3,3,4,4,5,5,11,11,12,12,15,15,16,16],"right_children":[2,4,6,8,10,12,-1,-1,-1,-1,-1,14,16,-1,-1,18,20,-1,-1,-1,-1],"split_conditions":[1E0,2.5E0,1.44E2,3.73125E0,2.3560605E0,2.03E1,-8.5887695E-3,-9.427256E-3,1.5257673E-2,9.910282E-4,-1.9006167E-2,1.3E2,2.9606986E0,-8.405085E-3,5.6878324E-3,4.219512E0,3E0,-2.0860678E-4,1.4215638E-3,5.46308E-4,2.2299202E-2],"split_indices":[2,11,10,19,19,1,0,0,0,0,0,10,19,0,0,21,10,0,0,0,0],"split_type":[0,0,0,0,0,0,0,0,0,0,0,0,0,0,0,0,0,0,0,0,0],"sum_hessian":[2.4065111E1,1.1358175E1,1.2706935E1,4.756549E0,6.6016264E0,1.10792885E1,1.6276464E0,1.9609672E0,2.7955818E0,1.9815907E0,4.6200356E0,2.6523368E0,8.426952E0,1.5603228E0,1.092014E0,2.2799752E0,6.146977E0,1.1835645E0,1.0964106E0,1.1197616E0,5.0272155E0],"tree_param":{"num_deleted":"0","num_feature":"23","num_nodes":"21","size_leaf_vector":"1"}},{"base_weights":[2.0949708E-2,-2.370101E-1,1.466429E-1,-1.5313119E-2,2.7934297E-3,2.711232E-1,-1.3302314E-1,3.7897092E-1,-5.5344272E-2,9.8439656E-2,-1.3245932E-2,-3.4876757E-3,4.6803665E-1,-1.1402528E-2,1.574622E-1,-9.876383E-5,5.880181E-3,2.4923887E-2,2.0396E-3,8.359346E-3,3.0793645E-4],"categories":[],"categories_nodes":[],"categories_segments":[],"categories_sizes":[],"default_left":[0,0,0,0,0,0,0,0,0,0,0,0,0,0,0,0,0,0,0,0,0],"id":58,"left_children":[1,3,5,-1,-1,7,9,11,13,15,-1,-1,17,-1,19,-1,-1,-1,-1,-1,-1],"loss_changes":[1.4481157E0,4.7418034E-1,1.3702374E0,0E0,0E0,1.0321925E0,7.382821E-1,1.0791562E0,8.929761E-1,2.7278528E-2,0E0,0E0,1.7904043E-2,0E0,7.982612E-3,0E0,0E0,0E0,0E0,0E0,0E0],"parents":[2147483647,0,0,1,1,2,2,5,5,6,6,7,7,8,8,9,9,12,12,14,14],"right_children":[2,4,6,-1,-1,8,10,12,14,16,-1,-1,18,-1,20,-1,-1,-1,-1,-1,-1],"split_conditions":[2.3333333E0,2E0,4.243902E0,-1.5313119E-2,2.7934297E-3,2.413E1,1.107078E2,1.2E1,3.5555556E0,3.4117646E0,-1.3245932E-2,-3.4876757E-3,3.0886875E6,-1.1402528E-2,3.6666667E0,-9.876383E-5,5.880181E-3,2.4923887E-2,2.0396E-3,8.359346E-3,3.0793645E-4],"split_indices":[21,18,21,0,0,1,20,10,21,19,0,0,22,0,21,0,0,0,0,0,0],"split_type":[0,0,0,0,0,0,0,0,0,0,0,0,0,0,0,0,0,0,0,0,0],"sum_hessian":[2.3942894E1,4.9427204E0,1.9000174E1,3.627916E0,1.3148043E0,1.3359347E1,5.6408267E0,8.833119E0,4.5262275E0,2.968304E0,2.6725228E0,1.8219943E0,7.0111256E0,2.103094E0,2.4231334E0,1.9131416E0,1.0551622E0,4.9884343E0,2.022691E0,1.2904205E0,1.1327128E0],"tree_param":{"num_deleted":"0","num_feature":"23","num_nodes":"21","size_leaf_vector":"1"}},{"base_weights":[2.0172674E-2,-1.833023E-1,1.7729071E-1,-3.8365418E-1,1.9602348E-1,-1.4452198E-1,2.1013265E-2,2.5201316E-3,-2.2522388E-2,1.0830808E-2,5.8977236E-4,-3.063373E-1,1.0992528E-2,-3.5252854E-1,1.7925662E-3,-1.9393327E-2,1.9152752E-4],"categories":[],"categories_nodes":[],"categories_segments":[],"categories_sizes":[],"default_left":[0,0,0,0,0,0,0,0,0,0,0,0,0,0,0,0,0],"id":59,"left_children":[1,3,5,7,9,11,-1,-1,-1,-1,-1,13,-1,15,-1,-1,-1],"loss_changes":[1.4070404E0,2.2465146E0,2.4982438E0,6.9814396E-1,2.5341988E-2,1.7256136E0,0E0,0E0,0E0,0E0,0E0,3.877411E-1,0E0,2.0994282E-1,0E0,0E0,0E0],"parents":[2147483647,0,0,1,1,2,2,3,3,4,4,5,5,11,11,13,13],"right_children":[2,4,6,8,10,12,-1,-1,-1,-1,-1,14,-1,16,-1,-1,-1],"split_conditions":[3.7857144E0,2.5E1,1E0,1.1813602E0,2.273E1,1E0,2.1013265E-2,2.5201316E-3,-2.2522388E-2,1.0830808E-2,5.8977236E-4,2.778E1,1.0992528E-2,1.75E1,1.7925662E-3,-1.9393327E-2,1.9152752E-4],"split_indices":[19,11,6,19,1,9,0,0,0,0,0,1,0,11,0,0,0],"split_type":[0,0,0,0,0,0,0,0,0,0,0,0,0,0,0,0,0],"sum_hessian":[2.3846613E1,9.664331E0,1.4182282E1,6.2494144E0,3.4149168E0,7.844476E0,6.337806E0,1.1606863E0,5.0887284E0,1.4902885E0,1.9246283E0,6.5350494E0,1.3094265E0,5.491584E0,1.0434656E0,4.191764E0,1.2998201E0],"tree_param":{"num_deleted":"0","num_feature":"23","num_nodes":"17","size_leaf_vector":"1"}},{"base_weights":[2.0987717E-2,-1.6862524E-1,1.900937E-1,1.09084904E-1,-3.1410408E-1,2.9749972E-1,-8.390271E-3,-9.166021E-3,1.4789899E-2,9.550742E-4,-1.8622417E-2,-5.1581115E-2,3.756033E-1,5.589751E-3,-8.202338E-3,2.2180403E-2,4.1176122E-1,-1.3847905E-4,1.3674077E-3,5.0146016E-4,2.1748554E-2],"categories":[],"categories_nodes":[],"categories_segments":[],"categories_sizes":[],"default_left":[0,0,0,0,0,0,0,0,0,0,0,0,0,0,0,0,0,0,0,0,0],"id":60,"left_children":[1,3,5,7,9,11,-1,-1,-1,-1,-1,13,15,-1,-1,17,19,-1,-1,-1,-1],"loss_changes":[1.4018217E0,1.1989869E0,1.3651124E0,1.3453029E0,3.9166677E-1,7.6444864E-1,0E0,0E0,0E0,0E0,0E0,4.1527224E-1,1.4268804E-1,0E0,0E0,2.3393347E-3,1.0596895E-1,0E0,0E0,0E0,0E0],"parents":[2147483647,0,0,1,1,2,2,3,3,4,4,5,5,11,11,12,12,15,15,16,16],"right_children":[2,4,6,8,10,12,-1,-1,-1,-1,-1,14,16,-1,-1,18,20,-1,-1,-1,-1],"split_conditions":[1E0,2.5E0,1.44E2,3.73125E0,2.3560605E0,2.03E1,-8.390271E-3,-9.166021E-3,1.4789899E-2,9.550742E-4,-1.8622417E-2,3.8421052E0,2.9606986E0,5.589751E-3,-8.202338E-3,4.219512E0,3E0,-1.3847905E-4,1.3674077E-3,5.0146016E-4,2.1748554E-2],"split_indices":[2,11,10,19,19,1,0,0,0,0,0,19,19,0,0,21,10,0,0,0,0],"split_type":[0,0,0,0,0,0,0,0,0,0,0,0,0,0,0,0,0,0,0,0,0],"sum_hessian":[2.3721699E1,1.1196199E1,1.2525499E1,4.708888E0,6.487311E0,1.0932308E1,1.593191E0,1.90587E0,2.803018E0,1.9689057E0,4.518405E0,2.619658E0,8.312651E0,1.0923935E0,1.5272645E0,2.2689812E0,6.043669E0,1.1855892E0,1.0833921E0,1.1122999E0,4.9313693E0],"tree_param":{"num_deleted":"0","num_feature":"23","num_nodes":"21","size_leaf_vector":"1"}},{"base_weights":[2.013031E-2,-2.3172273E-1,1.4317733E-1,-1.49988895E-2,2.754036E-3,2.6406342E-1,-1.2884821E-1,3.6889917E-1,-5.4544553E-2,9.7208925E-2,-1.2940958E-2,-3.3636824E-3,4.5531327E-1,-1.1139416E-2,1.5319663E-1,-7.919144E-5,5.7817567E-3,2.424433E-2,1.9448899E-3,8.194919E-3,2.2695326E-4],"categories":[],"categories_nodes":[],"categories_segments":[],"categories_sizes":[],"default_left":[0,0,0,0,0,0,0,0,0,0,0,0,0,0,0,0,0,0,0,0,0],"id":61,"left_children":[1,3,5,-1,-1,7,9,11,13,15,-1,-1,17,-1,19,-1,-1,-1,-1,-1,-1],"loss_changes":[1.373083E0,4.5588297E-1,1.285794E0,0E0,0E0,9.7568583E-1,7.089785E-1,1.0124292E0,8.464332E-1,2.5410093E-2,0E0,0E0,1.9802094E-2,0E0,1.2275845E-2,0E0,0E0,0E0,0E0,0E0,0E0],"parents":[2147483647,0,0,1,1,2,2,5,5,6,6,7,7,8,8,9,9,12,12,14,14],"right_children":[2,4,6,-1,-1,8,10,12,14,16,-1,-1,18,-1,20,-1,-1,-1,-1,-1,-1],"split_conditions":[2.3333333E0,2E0,4.243902E0,-1.49988895E-2,2.754036E-3,2.413E1,1.107078E2,1.2E1,3.5555556E0,5.8965516E0,-1.2940958E-2,-3.3636824E-3,3.0886875E6,-1.1139416E-2,3.6666667E0,-7.919144E-5,5.7817567E-3,2.424433E-2,1.9448899E-3,8.194919E-3,2.2695326E-4],"split_indices":[21,18,21,0,0,1,20,10,21,21,0,0,22,0,21,0,0,0,0,0,0],"split_type":[0,0,0,0,0,0,0,0,0,0,0,0,0,0,0,0,0,0,0,0,0],"sum_hessian":[2.360169E1,4.847587E0,1.8754105E1,3.5446596E0,1.3029275E0,1.3186722E1,5.5673823E0,8.734296E0,4.4524255E0,2.9526277E0,2.6147547E0,1.8105522E0,6.923744E0,2.0598717E0,2.3925538E0,1.9009683E0,1.0516592E0,4.929368E0,1.9943762E0,1.275502E0,1.1170518E0],"tree_param":{"num_deleted":"0","num_feature":"23","num_nodes":"21","size_leaf_vector":"1"}},{"base_weights":[1.9355947E-2,-1.658043E-1,1.8481837E-1,1.0737007E-1,-3.09305E-1,2.9086736E-1,-8.290774E-3,-9.049873E-3,1.4555077E-2,9.023637E-4,-1.8317189E-2,-5.1614963E-2,3.6814603E-1,-8.126142E-3,5.5022417E-3,2.1503085E-2,4.0378746E-1,-1.11304595E-4,1.3027543E-3,4.782714E-4,2.1340147E-2],"categories":[],"categories_nodes":[],"categories_segments":[],"categories_sizes":[],"default_left":[0,0,0,0,0,0,0,0,0,0,0,0,0,0,0,0,0,0,0,0,0],"id":62,"left_children":[1,3,5,7,9,11,-1,-1,-1,-1,-1,13,15,-1,-1,17,19,-1,-1,-1,-1],"loss_changes":[1.3329818E0,1.1585803E0,1.3161016E0,1.3048841E0,3.7231588E-1,7.4177194E-1,0E0,0E0,0E0,0E0,0E0,4.0490776E-1,1.385107E-1,0E0,0E0,1.9045938E-3,1.0412693E-1,0E0,0E0,0E0,0E0],"parents":[2147483647,0,0,1,1,2,2,3,3,4,4,5,5,11,11,12,12,15,15,16,16],"right_children":[2,4,6,8,10,12,-1,-1,-1,-1,-1,14,16,-1,-1,18,20,-1,-1,-1,-1],"split_conditions":[1E0,2.5E0,1.44E2,3.73125E0,2.3560605E0,2.03E1,-8.290774E-3,-9.049873E-3,1.4555077E-2,9.023637E-4,-1.8317189E-2,1.3E2,2.9606986E0,-8.126142E-3,5.5022417E-3,4.219512E0,3E0,-1.11304595E-4,1.3027543E-3,4.782714E-4,2.1340147E-2],"split_indices":[2,11,10,19,19,1,0,0,0,0,0,10,19,0,0,21,10,0,0,0,0],"split_type":[0,0,0,0,0,0,0,0,0,0,0,0,0,0,0,0,0,0,0,0,0],"sum_hessian":[2.3506638E1,1.1083272E1,1.2423365E1,4.6841383E0,6.399133E0,1.0847171E1,1.5761936E0,1.8808844E0,2.8032541E0,1.9639202E0,4.435213E0,2.6083698E0,8.238801E0,1.5153595E0,1.0930104E0,2.262943E0,5.975858E0,1.1866547E0,1.0762883E0,1.1105098E0,4.865349E0],"tree_param":{"num_deleted":"0","num_feature":"23","num_nodes":"21","size_leaf_vector":"1"}},{"base_weights":[1.8501494E-2,-2.2789681E-1,1.3939369E-1,-1.4777653E-2,2.7287493E-3,2.5818354E-1,-1.270076E-1,3.6061808E-1,-5.3850826E-2,9.5542625E-2,-1.2755498E-2,-3.310889E-3,4.455268E-1,-1.0987893E-2,1.5100542E-1,-1.2005568E-4,5.7258843E-3,2.3743909E-2,1.8559451E-3,8.096947E-3,1.9817248E-4],"categories":[],"categories_nodes":[],"categories_segments":[],"categories_sizes":[],"default_left":[0,0,0,0,0,0,0,0,0,0,0,0,0,0,0,0,0,0,0,0,0],"id":63,"left_children":[1,3,5,-1,-1,7,9,11,13,15,-1,-1,17,-1,19,-1,-1,-1,-1,-1,-1],"loss_changes":[1.3122319E0,4.4385034E-1,1.2330921E0,0E0,0E0,9.318932E-1,6.8631077E-1,9.718344E-1,8.21423E-1,2.6810683E-2,0E0,0E0,2.5960445E-2,0E0,1.3473481E-2,0E0,0E0,0E0,0E0,0E0,0E0],"parents":[2147483647,0,0,1,1,2,2,5,5,6,6,7,7,8,8,9,9,12,12,14,14],"right_children":[2,4,6,-1,-1,8,10,12,14,16,-1,-1,18,-1,20,-1,-1,-1,-1,-1,-1],"split_conditions":[2.3333333E0,2E0,4.243902E0,-1.4777653E-2,2.7287493E-3,2.413E1,1.107078E2,1.2E1,3.5555556E0,3.4117646E0,-1.2755498E-2,-3.310889E-3,3.0886875E6,-1.0987893E-2,3.6666667E0,-1.2005568E-4,5.7258843E-3,2.3743909E-2,1.8559451E-3,8.096947E-3,1.9817248E-4],"split_indices":[21,18,21,0,0,1,20,10,21,19,0,0,22,0,21,0,0,0,0,0,0],"split_type":[0,0,0,0,0,0,0,0,0,0,0,0,0,0,0,0,0,0,0,0,0],"sum_hessian":[2.3388296E1,4.784812E0,1.8603483E1,3.4866154E0,1.2981966E0,1.307966E1,5.5238237E0,8.674875E0,4.404784E0,2.9465415E0,2.577282E0,1.8045763E0,6.8702993E0,2.0318396E0,2.3729446E0,1.8957615E0,1.05078E0,4.8912325E0,1.9790671E0,1.2657192E0,1.1072255E0],"tree_param":{"num_deleted":"0","num_feature":"23","num_nodes":"21","size_leaf_vector":"1"}},{"base_weights":[1.7737573E-2,-2.2525239E-1,1.3704398E-1,-1.4629716E-2,2.7129322E-3,2.5417864E-1,-1.254247E-1,3.5490155E-1,-5.309655E-2,9.508383E-2,-1.26459375E-2,-3.2857766E-3,4.389232E-1,-1.0907769E-2,1.5020904E-1,-1.1947692E-4,5.6982534E-3,2.3383712E-2,1.8406401E-3,8.054397E-3,1.9718477E-4],"categories":[],"categories_nodes":[],"categories_segments":[],"categories_sizes":[],"default_left":[0,0,0,0,0,0,0,0,0,0,0,0,0,0,0,0,0,0,0,0,0],"id":64,"left_children":[1,3,5,-1,-1,7,9,11,13,15,-1,-1,17,-1,19,-1,-1,-1,-1,-1,-1],"loss_changes":[1.2739037E0,4.3633097E-1,1.1964753E0,0E0,0E0,9.016049E-1,6.7638135E-1,9.477451E-1,8.1048554E-1,2.655311E-2,0E0,0E0,2.2659779E-2,0E0,1.3328731E-2,0E0,0E0,0E0,0E0,0E0,0E0],"parents":[2147483647,0,0,1,1,2,2,5,5,6,6,7,7,8,8,9,9,12,12,14,14],"right_children":[2,4,6,-1,-1,8,10,12,14,16,-1,-1,18,-1,20,-1,-1,-1,-1,-1,-1],"split_conditions":[2.3333333E0,2E0,4.243902E0,-1.4629716E-2,2.7129322E-3,2.413E1,1.107078E2,1.2E1,3.5555556E0,5.8965516E0,-1.26459375E-2,