{"learner":{"attributes":{"scikit_learn":"{\"_estimator_type\": \"classifier\"}"},"feature_names":["Gender","Age at onset (year)","BMI","Recurrent thymoma","Invasive thymoma","Infection at admission","Thyroid disease","Autoimmune disease","Diabetes","Hypertension","ASCVD","Chronic lung disease","Good syndrome","Disease duration (month)","Prednisolone daily dose before admission","Immunosuppressant at admission","NLR","PLR","LMR","SII"],"feature_types":["int","int","float","int","int","int","int","int","int","int","int","int","int","int","float","int","float","float","float","float"],"gradient_booster":{"model":{"gbtree_model_param":{"num_parallel_tree":"1","num_trees":"100"},"iteration_indptr":[0,1,2,3,4,5,6,7,8,9,10,11,12,13,14,15,16,17,18,19,20,21,22,23,24,25,26,27,28,29,30,31,32,33,34,35,36,37,38,39,40,41,42,43,44,45,46,47,48,49,50,51,52,53,54,55,56,57,58,59,60,61,62,63,64,65,66,67,68,69,70,71,72,73,74,75,76,77,78,79,80,81,82,83,84,85,86,87,88,89,90,91,92,93,94,95,96,97,98,99,100],"tree_info":[0,0,0,0,0,0,0,0,0,0,0,0,0,0,0,0,0,0,0,0,0,0,0,0,0,0,0,0,0,0,0,0,0,0,0,0,0,0,0,0,0,0,0,0,0,0,0,0,0,0,0,0,0,0,0,0,0,0,0,0,0,0,0,0,0,0,0,0,0,0,0,0,0,0,0,0,0,0,0,0,0,0,0,0,0,0,0,0,0,0,0,0,0,0,0,0,0,0,0,0],"trees":[{"base_weights":[-3.8337547E-1,-8.276938E-1,8.8452125E-1,3.636928E-2,-9.194217E-1,1.4315902E0,-4.1878954E-2,-9.615975E-2,-1.2807496E-2,2.4147587E-1,-3.737321E-2],"categories":[],"categories_nodes":[],"categories_segments":[],"categories_sizes":[],"default_left":[0,0,0,0,0,0,0,0,0,0,0],"id":0,"left_children":[1,3,5,-1,7,9,-1,-1,-1,-1,-1],"loss_changes":[1.43536215E1,2.3475504E0,5.417968E0,0E0,4.5718288E-1,9.752803E0,0E0,0E0,0E0,0E0,0E0],"parents":[2147483647,0,0,1,1,2,2,4,4,5,5],"right_children":[2,4,6,-1,8,10,-1,-1,-1,-1,-1],"split_conditions":[1E0,1.879E1,4.243902E0,3.636928E-2,4.5E1,1.08E2,-4.1878954E-2,-9.615975E-2,-1.2807496E-2,2.4147587E-1,-3.737321E-2],"split_indices":[5,2,18,0,14,13,0,0,0,0,0],"split_type":[0,0,0,0,0,0,0,0,0,0,0],"sum_hessian":[2.3179485E1,1.7421524E1,5.7579613E0,1.0334803E0,1.6388044E1,3.986281E0,1.7716804E0,1.5354564E1,1.0334803E0,2.3622406E0,1.6240404E0],"tree_param":{"num_deleted":"0","num_feature":"20","num_nodes":"11","size_leaf_vector":"1"}},{"base_weights":[-3.5445496E-1,-7.908346E-1,7.804492E-1,3.409483E-2,-8.843597E-1,1.238066E0,-3.991886E-2,-9.271143E-2,-1.2210041E-2,2.0106804E0,-3.5612997E-2,3.4033444E-2,2.5170386E-1],"categories":[],"categories_nodes":[],"categories_segments":[],"categories_sizes":[],"default_left":[0,0,0,0,0,0,0,0,0,0,0,0,0],"id":1,"left_children":[1,3,5,-1,7,9,-1,-1,-1,11,-1,-1,-1],"loss_changes":[1.2277068E1,2.15407E0,4.295555E0,0E0,4.227085E-1,7.265542E0,0E0,0E0,0E0,2.2999458E0,0E0,0E0,0E0],"parents":[2147483647,0,0,1,1,2,2,4,4,5,5,9,9],"right_children":[2,4,6,-1,8,10,-1,-1,-1,12,-1,-1,-1],"split_conditions":[1E0,1.879E1,4.243902E0,3.409483E-2,4.5E1,1.08E2,-3.991886E-2,-9.271143E-2,-1.2210041E-2,2.3349217E2,-3.5612997E-2,3.4033444E-2,2.5170386E-1],"split_indices":[5,2,18,0,14,13,0,0,0,17,0,0,0],"split_type":[0,0,0,0,0,0,0,0,0,0,0,0,0],"sum_hessian":[2.254343E1,1.6501604E1,6.0418267E0,1.057605E0,1.5443999E1,4.3174343E0,1.7243922E0,1.4418979E1,1.0250206E0,2.7320952E0,1.5853393E0,1.0245357E0,1.7075596E0],"tree_param":{"num_deleted":"0","num_feature":"20","num_nodes":"13","size_leaf_vector":"1"}},{"base_weights":[-3.2576033E-1,-7.555642E-1,7.0994747E-1,3.1970277E-2,-8.507977E-1,1.0499725E0,-6.4351395E-2,-8.941633E-2,-1.1640679E-2,1.6323316E0,-1.2418929E-2,1.6300071E-2,2.231649E-1],"categories":[],"categories_nodes":[],"categories_segments":[],"categories_sizes":[],"default_left":[0,0,0,0,0,0,0,0,0,0,0,0,0],"id":2,"left_children":[1,3,5,-1,7,9,-1,-1,-1,11,-1,-1,-1],"loss_changes":[1.0709583E1,1.9754868E0,3.997453E0,0E0,3.912983E-1,4.407099E0,0E0,0E0,0E0,3.3178797E0,0E0,0E0,0E0],"parents":[2147483647,0,0,1,1,2,2,4,4,5,5,9,9],"right_children":[2,4,6,-1,8,10,-1,-1,-1,12,-1,-1,-1],"split_conditions":[1E0,1.879E1,2.428E1,3.1970277E-2,4.5E1,1.08E2,-6.4351395E-2,-8.941633E-2,-1.1640679E-2,1.7589285E2,-1.2418929E-2,1.6300071E-2,2.231649E-1],"split_indices":[5,2,2,0,14,13,0,0,0,17,0,0,0],"split_type":[0,0,0,0,0,0,0,0,0,0,0,0,0],"sum_hessian":[2.1853296E1,1.5635339E1,6.2179565E0,1.0803404E0,1.4554998E1,5.1486998E0,1.069257E0,1.3538024E1,1.0169744E0,3.180854E0,1.9678456E0,1.2900497E0,1.8908045E0],"tree_param":{"num_deleted":"0","num_feature":"20","num_nodes":"13","size_leaf_vector":"1"}},{"base_weights":[-3.0046764E-1,-7.2163284E-1,6.4477813E-1,2.9985098E-2,-8.184465E-1,9.486266E-1,-6.23504E-2,-8.624272E-1,-1.1098064E-2,1.4488895E0,-1.1662307E-2,-9.629788E-2,-3.8559705E-1,1.5294877E-2,1.9461647E-1,3.4140334E-2,-7.7168636E-2],"categories":[],"categories_nodes":[],"categories_segments":[],"categories_sizes":[],"default_left":[0,0,0,0,0,0,0,0,0,0,0,0,0,0,0,0,0],"id":3,"left_children":[1,3,5,-1,7,9,-1,11,-1,13,-1,-1,15,-1,-1,-1,-1],"loss_changes":[9.2999E0,1.8102522E0,3.4309242E0,0E0,3.623495E-1,3.5479822E0,0E0,2.8613377E-1,0E0,2.5308027E0,0E0,0E0,1.4018853E0,0E0,0E0,0E0,0E0],"parents":[2147483647,0,0,1,1,2,2,4,4,5,5,7,7,9,9,12,12],"right_children":[2,4,6,-1,8,10,-1,12,-1,14,-1,-1,16,-1,-1,-1,-1],"split_conditions":[1E0,1.879E1,2.428E1,2.9985098E-2,4.5E1,1.08E2,-6.23504E-2,5.6E1,-1.1098064E-2,1.7589285E2,-1.1662307E-2,-9.629788E-2,6.1E1,1.5294877E-2,1.9461647E-1,3.4140334E-2,-7.7168636E-2],"split_indices":[5,2,2,0,14,13,0,1,0,17,0,0,1,0,0,0,0],"split_type":[0,0,0,0,0,0,0,0,0,0,0,0,0,0,0,0,0],"sum_hessian":[2.1191671E1,1.4823469E1,6.3682027E0,1.1017437E0,1.3721725E1,5.340735E0,1.0274675E0,1.2712403E1,1.0093217E0,3.3890347E0,1.9517003E0,9.656537E0,3.0558662E0,1.3024125E0,2.0866222E0,1.1001118E0,1.9557544E0],"tree_param":{"num_deleted":"0","num_feature":"20","num_nodes":"17","size_leaf_vector":"1"}},{"base_weights":[-2.7983966E-1,-6.907696E-1,5.8809036E-1,2.8129471E-2,-7.888781E-1,9.332902E-1,-3.8096998E-2,-8.3345604E-1,-1.0580929E-2,1.4531192E0,-3.2375325E-2,-9.359846E-2,-3.6592835E-1,3.1623468E-2,1.7230345E-1,4.1248363E-2,-7.667654E-2],"categories":[],"categories_nodes":[],"categories_segments":[],"categories_sizes":[],"default_left":[0,0,0,0,0,0,0,0,0,0,0,0,0,0,0,0,0],"id":4,"left_children":[1,3,5,-1,7,9,-1,11,-1,13,-1,-1,15,-1,-1,-1,-1],"loss_changes":[8.102399E0,1.6624041E0,2.8557105E0,0E0,3.3758545E-1,4.260892E0,0E0,2.7972794E-1,0E0,7.702913E-1,0E0,0E0,1.5570402E0,0E0,0E0,0E0,0E0],"parents":[2147483647,0,0,1,1,2,2,4,4,5,5,7,7,9,9,12,12],"right_children":[2,4,6,-1,8,10,-1,12,-1,14,-1,-1,16,-1,-1,-1,-1],"split_conditions":[1E0,1.879E1,4.243902E0,2.8129471E-2,4.5E1,1.08E2,-3.8096998E-2,5.6E1,-1.0580929E-2,2.3349217E2,-3.2375325E-2,-9.359846E-2,5.9E1,3.1623468E-2,1.7230345E-1,4.1248363E-2,-7.667654E-2],"split_indices":[5,2,18,0,14,13,0,1,0,17,0,0,1,0,0,0,0],"split_type":[0,0,0,0,0,0,0,0,0,0,0,0,0,0,0,0,0],"sum_hessian":[2.0578527E1,1.4104658E1,6.47387E0,1.1218753E0,1.2982783E1,4.8006783E0,1.6731913E0,1.1980741E1,1.0020428E0,3.285878E0,1.5148005E0,9.0041485E0,2.9765918E0,1.0470991E0,2.2387788E0,1.0018934E0,1.9746984E0],"tree_param":{"num_deleted":"0","num_feature":"20","num_nodes":"17","size_leaf_vector":"1"}},{"base_weights":[-2.604714E-1,-6.60909E-1,5.419031E-1,2.6394313E-2,-7.6017666E-1,8.5400486E-1,-3.631058E-2,-9.738811E-2,-4.7603396E-1,1.3144435E0,-3.0847592E-2,4.8139893E-2,-7.9693806E-1,2.9728565E-2,1.5493767E-1,-9.214755E-2,-9.137479E-3],"categories":[],"categories_nodes":[],"categories_segments":[],"categories_sizes":[],"default_left":[0,0,0,0,0,0,0,0,0,0,0,0,0,0,0,0,0],"id":5,"left_children":[1,3,5,-1,7,9,-1,-1,11,13,-1,-1,15,-1,-1,-1,-1],"loss_changes":[7.090517E0,1.5252681E0,2.4356391E0,0E0,3.432455E-1,3.5601892E0,0E0,0E0,2.7371063E0,5.9365845E-1,0E0,0E0,4.5299625E-1,0E0,0E0,0E0,0E0],"parents":[2147483647,0,0,1,1,2,2,4,4,5,5,8,8,9,9,12,12],"right_children":[2,4,6,-1,8,10,-1,-1,12,14,-1,-1,16,-1,-1,-1,-1],"split_conditions":[1E0,1.879E1,4.243902E0,2.6394313E-2,6.36814E5,1.08E2,-3.631058E-2,-9.738811E-2,3.1886792E0,2.3349217E2,-3.0847592E-2,4.8139893E-2,1E0,2.9728565E-2,1.5493767E-1,-9.214755E-2,-9.137479E-3],"split_indices":[5,2,18,0,19,13,0,0,16,17,0,0,9,0,0,0,0],"split_type":[0,0,0,0,0,0,0,0,0,0,0,0,0,0,0,0,0],"sum_hessian":[1.9953468E1,1.3428216E1,6.5252533E0,1.1407964E0,1.2287419E1,4.893899E0,1.6313547E0,5.627514E0,6.6599054E0,3.411815E0,1.4820839E0,1.546303E0,5.113602E0,1.0652322E0,2.3465827E0,4.086321E0,1.0272812E0],"tree_param":{"num_deleted":"0","num_feature":"20","num_nodes":"17","size_leaf_vector":"1"}},{"base_weights":[-2.435362E-1,-6.323487E-1,5.010614E-1,2.4771206E-2,-7.324274E-1,7.857353E-1,-3.4606043E-2,-8.257649E-1,-2.489497E-1,1.1990825E0,-2.9390723E-2,-9.8457634E-2,-2.434655E-1,-6.842927E-2,4.0257066E-2,2.7953109E-2,1.4083739E-1,-6.7613915E-2,4.1522454E-2],"categories":[],"categories_nodes":[],"categories_segments":[],"categories_sizes":[],"default_left":[0,0,0,0,0,0,0,0,0,0,0,0,0,0,0,0,0,0,0],"id":6,"left_children":[1,3,5,-1,7,9,-1,11,13,15,-1,-1,17,-1,-1,-1,-1,-1,-1],"loss_changes":[6.213085E0,1.3987937E0,2.0913007E0,0E0,3.6587524E-1,3.0088952E0,0E0,7.019305E-1,1.2627244E0,4.7264242E-1,0E0,0E0,1.2812395E0,0E0,0E0,0E0,0E0,0E0,0E0],"parents":[2147483647,0,0,1,1,2,2,4,4,5,5,7,7,8,8,9,9,12,12],"right_children":[2,4,6,-1,8,10,-1,12,14,16,-1,-1,18,-1,-1,-1,-1,-1,-1],"split_conditions":[1E0,1.879E1,4.243902E0,2.4771206E-2,3E1,1.08E2,-3.4606043E-2,2.68E1,4.3E1,2.3349217E2,-2.9390723E-2,-9.8457634E-2,6.138E5,-6.842927E-2,4.0257066E-2,2.7953109E-2,1.4083739E-1,-6.7613915E-2,4.1522454E-2],"split_indices":[5,2,18,0,14,13,0,2,1,17,0,0,19,0,0,0,0,0,0],"split_type":[0,0,0,0,0,0,0,0,0,0,0,0,0,0,0,0,0,0,0],"sum_hessian":[1.9366354E1,1.2821829E1,6.544526E0,1.1585689E0,1.16632595E1,4.952658E0,1.5918679E0,9.182558E0,2.480702E0,3.501471E0,1.4511871E0,6.6720395E0,2.5105183E0,1.4569039E0,1.0237979E0,1.0822144E0,2.4192567E0,1.4992292E0,1.011289E0],"tree_param":{"num_deleted":"0","num_feature":"20","num_nodes":"19","size_leaf_vector":"1"}},{"base_weights":[-2.2845271E-1,-6.0522705E-1,4.6467707E-1,3.5830893E-2,-7.136915E-1,7.262467E-1,-3.2979514E-2,-8.084055E-1,-2.3587108E-1,1.1013947E0,-2.8001446E-2,-9.7085744E-2,-2.3049657E-1,-6.6422604E-2,3.7627228E-2,2.6288897E-2,1.2913923E-1,-6.5690026E-2,3.8800225E-2],"categories":[],"categories_nodes":[],"categories_segments":[],"categories_sizes":[],"default_left":[0,0,0,0,0,0,0,0,0,0,0,0,0,0,0,0,0,0,0],"id":7,"left_children":[1,3,5,-1,7,9,-1,11,13,15,-1,-1,17,-1,-1,-1,-1,-1,-1],"loss_changes":[5.4512825E0,1.6414795E0,1.8058429E0,0E0,3.638134E-1,2.56686E0,0E0,6.9752836E-1,1.1516503E0,3.8709068E-1,0E0,0E0,1.1686023E0,0E0,0E0,0E0,0E0,0E0,0E0],"parents":[2147483647,0,0,1,1,2,2,4,4,5,5,7,7,8,8,9,9,12,12],"right_children":[2,4,6,-1,8,10,-1,12,14,16,-1,-1,18,-1,-1,-1,-1,-1,-1],"split_conditions":[1E0,1.875E1,4.243902E0,3.5830893E-2,3E1,1.08E2,-3.2979514E-2,2.68E1,4.3E1,2.3349217E2,-2.8001446E-2,-9.7085744E-2,6.138E5,-6.6422604E-2,3.7627228E-2,2.6288897E-2,1.2913923E-1,-6.5690026E-2,3.8800225E-2],"split_indices":[5,2,18,0,14,13,0,2,1,17,0,0,19,0,0,0,0,0,0],"split_type":[0,0,0,0,0,0,0,0,0,0,0,0,0,0,0,0,0,0,0],"sum_hessian":[1.8796968E1,1.2259642E1,6.5373263E0,1.0073603E0,1.1252281E1,4.9827094E0,1.554617E0,8.8134165E0,2.4388647E0,3.5606928E0,1.4220165E0,6.3488007E0,2.4646158E0,1.3847712E0,1.0540934E0,1.0981101E0,2.4625826E0,1.4221046E0,1.0425112E0],"tree_param":{"num_deleted":"0","num_feature":"20","num_nodes":"19","size_leaf_vector":"1"}},{"base_weights":[-2.1438985E-1,-5.788374E-1,4.3202817E-1,3.3667546E-2,-6.8803734E-1,6.7383814E-1,-3.142741E-2,-9.20141E-2,-4.0273538E-1,1.0173603E0,-2.6676653E-2,5.454312E-2,-7.480405E-1,1.19598046E-1,2.0293597E-2,-8.551396E-3,-8.814896E-2],"categories":[],"categories_nodes":[],"categories_segments":[],"categories_sizes":[],"default_left":[0,0,0,0,0,0,0,0,0,0,0,0,0,0,0,0,0],"id":8,"left_children":[1,3,5,-1,7,9,-1,-1,11,13,-1,-1,15,-1,-1,-1,-1],"loss_changes":[4.782457E0,1.5043159E0,1.5668303E0,0E0,4.043274E-1,2.2066505E0,0E0,0E0,2.7089477E0,4.257126E-1,0E0,0E0,4.173782E-1,0E0,0E0,0E0,0E0],"parents":[2147483647,0,0,1,1,2,2,4,4,5,5,8,8,9,9,12,12],"right_children":[2,4,6,-1,8,10,-1,-1,12,14,-1,-1,16,-1,-1,-1,-1],"split_conditions":[1E0,1.875E1,4.243902E0,3.3667546E-2,6.36814E5,1.08E2,-3.142741E-2,-9.20141E-2,3.1886792E0,1.5E1,-2.6676653E-2,5.454312E-2,5E0,1.19598046E-1,2.0293597E-2,-8.551396E-3,-8.814896E-2],"split_indices":[5,2,18,0,19,13,0,0,16,14,0,0,14,0,0,0,0],"split_type":[0,0,0,0,0,0,0,0,0,0,0,0,0,0,0,0,0],"sum_hessian":[1.8238806E1,1.17300205E1,6.508786E0,1.0280362E0,1.0701983E1,4.989298E0,1.5194885E0,4.674202E0,6.0277815E0,3.5948172E0,1.3944805E0,1.4544561E0,4.5733256E0,2.5639842E0,1.030833E0,1.0418276E0,3.531498E0],"tree_param":{"num_deleted":"0","num_feature":"20","num_nodes":"17","size_leaf_vector":"1"}},{"base_weights":[-2.0091908E-1,-5.5241376E-1,4.0071255E-1,3.164219E-2,-6.62019E-1,1.1247839E-1,1.1330019E-1,-7.638822E-1,-1.816392E-1,-7.523426E-2,5.222132E-1,-9.403508E-2,-1.7492452E-1,-6.2614426E-2,4.0441465E-2,1.0318082E-1,4.2820286E-2,-6.1262388E-2,3.9651494E-2,-7.137361E-2,8.1069E-2],"categories":[],"categories_nodes":[],"categories_segments":[],"categories_sizes":[],"default_left":[0,0,0,0,0,0,0,0,0,0,0,0,0,0,0,0,0,0,0,0,0],"id":9,"left_children":[1,3,5,-1,7,-1,9,11,13,-1,15,-1,17,-1,-1,-1,19,-1,-1,-1,-1],"loss_changes":[4.1802316E0,1.3748212E0,1.4299132E0,0E0,4.088025E-1,0E0,2.6827397E0,7.6261187E-1,1.1049721E0,0E0,1.1733551E0,0E0,1.0645759E0,0E0,0E0,0E0,2.6765702E0,0E0,0E0,0E0,0E0],"parents":[2147483647,0,0,1,1,2,2,4,4,6,6,7,7,8,8,10,10,12,12,16,16],"right_children":[2,4,6,-1,8,-1,10,12,14,-1,16,-1,18,-1,-1,-1,20,-1,-1,-1,-1],"split_conditions":[1E0,1.875E1,1.3136729E0,3.164219E-2,3E1,1.1247839E-1,2.371134E2,2.68E1,1.158623E2,-7.523426E-2,2.665226E6,-9.403508E-2,6.138E5,-6.2614426E-2,4.0441465E-2,1.0318082E-1,1E0,-6.1262388E-2,3.9651494E-2,-7.137361E-2,8.1069E-2],"split_indices":[5,2,16,0,14,0,17,2,17,0,19,0,19,0,0,0,15,0,0,0,0],"split_type":[0,0,0,0,0,0,0,0,0,0,0,0,0,0,0,0,0,0,0,0,0],"sum_hessian":[1.7720701E1,1.1237286E1,6.4834156E0,1.0474308E0,1.0189855E1,1.0143932E0,5.4690228E0,7.9202294E0,2.2696257E0,1.4851646E0,3.9838579E0,5.6351433E0,2.285086E0,1.2517796E0,1.0178461E0,1.3725325E0,2.6113255E0,1.2531515E0,1.0319345E0,1.3508633E0,1.260462E0],"tree_param":{"num_deleted":"0","num_feature":"20","num_nodes":"21","size_leaf_vector":"1"}},{"base_weights":[-1.8535732E-1,-5.276762E-1,3.8249445E-1,2.9745309E-2,-6.375178E-1,6.0249114E-1,-2.988008E-2,-8.837411E-2,-3.5202184E-1,9.0320975E-1,-2.438677E-2,3.5453165E-1,-8.503873E-2,2.9771907E-2,1.162411E-1,-5.546707E-2,9.5889635E-2],"categories":[],"categories_nodes":[],"categories_segments":[],"categories_sizes":[],"default_left":[0,0,0,0,0,0,0,0,0,0,0,0,0,0,0,0,0],"id":10,"left_children":[1,3,5,-1,7,9,-1,-1,11,13,-1,15,-1,-1,-1,-1,-1],"loss_changes":[3.7406983E0,1.2571559E0,1.2931808E0,0E0,4.4197178E-1,1.7335002E0,0E0,0E0,2.633539E0,3.7578583E-1,0E0,2.4248822E0,0E0,0E0,0E0,0E0,0E0],"parents":[2147483647,0,0,1,1,2,2,4,4,5,5,8,8,9,9,11,11],"right_children":[2,4,6,-1,8,10,-1,-1,12,14,-1,16,-1,-1,-1,-1,-1],"split_conditions":[1E0,1.875E1,4.243902E0,2.9745309E-2,6.36814E5,1.08E2,-2.988008E-2,-8.837411E-2,4.097826E0,2.8271606E0,-2.438677E-2,3.9E1,-8.503873E-2,2.9771907E-2,1.162411E-1,-5.546707E-2,9.5889635E-2],"split_indices":[5,2,18,0,19,13,0,0,16,18,0,1,0,0,0,0,0],"split_type":[0,0,0,0,0,0,0,0,0,0,0,0,0,0,0,0,0],"sum_hessian":[1.7205313E1,1.0778465E1,6.426848E0,1.0656073E0,9.712857E0,4.945551E0,1.4812973E0,4.090009E0,5.6228485E0,3.5994604E0,1.3460904E0,2.4450336E0,3.177815E0,1.7230473E0,1.8764132E0,1.00913E0,1.4359035E0],"tree_param":{"num_deleted":"0","num_feature":"20","num_nodes":"17","size_leaf_vector":"1"}},{"base_weights":[-1.734557E-1,-5.041235E-1,3.5817555E-1,2.7968038E-2,-6.139406E-1,5.562366E-1,-3.5960488E-2,-8.6414486E-2,-3.3343098E-1,1.8336728E-1,1.03947125E-1,3.236184E-1,-8.292539E-2,7.753336E-2,-3.0810308E-1,8.5732825E-2,-2.5503013E-2,2.090589E-2,-6.4733125E-2],"categories":[],"categories_nodes":[],"categories_segments":[],"categories_sizes":[],"default_left":[0,0,0,0,0,0,0,0,0,0,0,0,0,0,0,0,0,0,0],"id":11,"left_children":[1,3,5,-1,7,9,-1,-1,11,13,-1,15,-1,-1,17,-1,-1,-1,-1],"loss_changes":[3.3002708E0,1.1492217E0,1.2506053E0,0E0,4.3293905E-1,9.2372084E-1,0E0,0E0,2.3767748E0,1.6077323E0,0E0,1.3003846E0,0E0,0E0,7.1187335E-1,0E0,0E0,0E0,0E0],"parents":[2147483647,0,0,1,1,2,2,4,4,5,5,8,8,9,9,11,11,14,14],"right_children":[2,4,6,-1,8,10,-1,-1,12,14,-1,16,-1,-1,18,-1,-1,-1,-1],"split_conditions":[1E0,1.875E1,2.409E1,2.7968038E-2,6.36814E5,2.101E1,-3.5960488E-2,-8.6414486E-2,4.097826E0,1.848E1,1.03947125E-1,2E0,-8.292539E-2,7.753336E-2,6.8333335E0,8.5732825E-2,-2.5503013E-2,2.090589E-2,-6.4733125E-2],"split_indices":[5,2,2,0,19,2,0,0,16,2,0,0,0,0,16,0,0,0,0],"split_type":[0,0,0,0,0,0,0,0,0,0,0,0,0,0,0,0,0,0,0],"sum_hessian":[1.6746439E1,1.03565445E1,6.3898954E0,1.082631E0,9.273913E0,5.1843967E0,1.2054988E0,3.802023E0,5.47189E0,3.7050197E0,1.4793772E0,2.5026994E0,2.9691906E0,1.4186747E0,2.2863448E0,1.0513731E0,1.4513263E0,1.0576509E0,1.228694E0],"tree_param":{"num_deleted":"0","num_feature":"20","num_nodes":"19","size_leaf_vector":"1"}},{"base_weights":[-1.6043136E-1,-4.8015937E-1,3.3674705E-1,2.6302207E-2,-5.897558E-1,9.666734E-2,7.6554656E-2,-8.477857E-2,-3.098267E-1,-7.429047E-2,4.7296107E-1,5.9326507E-2,-6.805477E-1,9.3452245E-2,2.3831679E-2,-7.623184E-3,-8.217667E-2,-6.7971416E-2,7.108387E-2],"categories":[],"categories_nodes":[],"categories_segments":[],"categories_sizes":[],"default_left":[0,0,0,0,0,0,0,0,0,0,0,0,0,0,0,0,0,0,0],"id":12,"left_children":[1,3,5,-1,7,-1,9,-1,11,-1,13,-1,15,-1,17,-1,-1,-1,-1],"loss_changes":[2.9134917E0,1.0468283E0,1.1328295E0,0E0,4.4875336E-1,0E0,2.3968132E0,0E0,2.513001E0,0E0,9.841491E-1,0E0,3.582847E-1,0E0,2.1684544E0,0E0,0E0,0E0,0E0],"parents":[2147483647,0,0,1,1,2,2,4,4,6,6,8,8,10,10,12,12,14,14],"right_children":[2,4,6,-1,8,-1,10,-1,12,-1,14,-1,16,-1,18,-1,-1,-1,-1],"split_conditions":[1E0,1.875E1,1.3136729E0,2.6302207E-2,2.2906976E0,9.666734E-2,2.371134E2,-8.477857E-2,3.1886792E0,-7.429047E-2,2.665226E6,5.9326507E-2,5E0,9.3452245E-2,1E0,-7.623184E-3,-8.217667E-2,-6.7971416E-2,7.108387E-2],"split_indices":[5,2,16,0,16,0,17,0,16,0,19,0,14,0,15,0,0,0,0],"split_type":[0,0,0,0,0,0,0,0,0,0,0,0,0,0,0,0,0,0,0],"sum_hessian":[1.6311068E1,9.947932E0,6.3631353E0,1.0985653E0,8.849366E0,1.0663279E0,5.2968073E0,3.5492272E0,5.3001394E0,1.4419273E0,3.8548799E0,1.3678061E0,3.9323332E0,1.3681338E0,2.486746E0,1.036532E0,2.895801E0,1.2338295E0,1.2529167E0],"tree_param":{"num_deleted":"0","num_feature":"20","num_nodes":"19","size_leaf_vector":"1"}},{"base_weights":[-1.4798318E-1,2.0892972E-1,-5.6568086E-1,-6.1341252E-2,3.9910284E-1,-7.993116E-2,2.4123445E-2,6.734887E-1,-3.9704885E-2,-2.8917668E-3,9.577728E-1,1.1885571E0,6.326592E-3,3.507237E-2,1.6973045E-1],"categories":[],"categories_nodes":[],"categories_segments":[],"categories_sizes":[],"default_left":[0,0,0,0,0,0,0,0,0,0,0,0,0,0,0],"id":13,"left_children":[1,3,5,-1,7,-1,-1,9,-1,-1,11,13,-1,-1,-1],"loss_changes":[2.6324577E0,1.7812449E0,1.7086251E0,0E0,2.1428428E0,0E0,0E0,1.3766658E0,0E0,0E0,9.236479E-1,1.020153E0,0E0,0E0,0E0],"parents":[2147483647,0,0,1,1,2,2,4,4,7,7,10,10,11,11],"right_children":[2,4,6,-1,8,-1,-1,10,-1,-1,12,14,-1,-1,-1],"split_conditions":[2.261E1,1.8712871E0,1E0,-6.1341252E-2,4.243902E0,-7.993116E-2,2.4123445E-2,1.1E1,-3.9704885E-2,-2.8917668E-3,2.665226E6,4.8E1,6.326592E-3,3.507237E-2,1.6973045E-1],"split_indices":[2,18,8,0,18,0,0,13,0,0,19,1,0,0,0],"split_type":[0,0,0,0,0,0,0,0,0,0,0,0,0,0,0],"sum_hessian":[1.5865049E1,8.824514E0,7.0405345E0,1.2394341E0,7.5850806E0,5.4670515E0,1.573483E0,5.755555E0,1.8295256E0,1.9170947E0,3.8384602E0,2.7899253E0,1.0485348E0,1.6923145E0,1.0976108E0],"tree_param":{"num_deleted":"0","num_feature":"20","num_nodes":"15","size_leaf_vector":"1"}},{"base_weights":[-1.3413025E-1,-4.4302288E-1,3.2543895E-1,-6.0996217E-1,8.493909E-2,-2.0226367E-2,5.610011E-1,-7.7280843E-1,-5.4896376E-3,4.0706202E-2,-2.267057E-2,1.0797649E-1,7.8212105E-2,-5.953835E-3,-9.0169996E-2,-6.2170662E-2,5.710422E-2],"categories":[],"categories_nodes":[],"categories_segments":[],"categories_sizes":[],"default_left":[0,0,0,0,0,0,0,0,0,0,0,0,0,0,0,0,0],"id":14,"left_children":[1,3,5,7,9,-1,11,13,-1,-1,-1,-1,15,-1,-1,-1,-1],"loss_changes":[2.493906E0,9.6160245E-1,1.0121984E0,6.775212E-1,4.293427E-1,0E0,1.2338326E0,5.0543094E-1,0E0,0E0,0E0,0E0,1.6673197E0,0E0,0E0,0E0,0E0],"parents":[2147483647,0,0,1,1,2,2,3,3,4,4,6,6,7,7,12,12],"right_children":[2,4,6,8,10,-1,12,14,-1,-1,-1,-1,16,-1,-1,-1,-1],"split_conditions":[1E0,5.6E1,2.371134E2,3.9491525E0,6.2E1,-2.0226367E-2,5.1666665E0,4.258665E5,-5.4896376E-3,4.0706202E-2,-2.267057E-2,1.0797649E-1,1E0,-5.953835E-3,-9.0169996E-2,-6.2170662E-2,5.710422E-2],"split_indices":[5,1,17,18,1,0,16,19,0,0,0,0,15,0,0,0,0],"split_type":[0,0,0,0,0,0,0,0,0,0,0,0,0,0,0,0,0],"sum_hessian":[1.5552337E1,9.322416E0,6.2299204E0,6.9648476E0,2.357569E0,1.9663324E0,4.263588E0,5.0816894E0,1.8831583E0,1.0087401E0,1.3488289E0,1.4591722E0,2.804416E0,1.0014902E0,4.080199E0,1.0507023E0,1.7537135E0],"tree_param":{"num_deleted":"0","num_feature":"20","num_nodes":"17","size_leaf_vector":"1"}},{"base_weights":[-1.2430721E-1,2.0504105E-1,-5.29401E-1,-5.82074E-2,3.7721705E-1,-7.639104E-2,2.3187798E-2,6.344812E-1,-3.8207036E-2,-2.4404256E-3,8.909113E-1,1.0892528E0,6.706919E-3,3.2574218E-2,1.5164302E-1],"categories":[],"categories_nodes":[],"categories_segments":[],"categories_sizes":[],"default_left":[0,0,0,0,0,0,0,0,0,0,0,0,0,0,0],"id":15,"left_children":[1,3,5,-1,7,-1,-1,9,-1,-1,11,13,-1,-1,-1],"loss_changes":[2.2705784E0,1.5285776E0,1.5243115E0,0E0,1.9090633E0,0E0,0E0,1.161993E0,0E0,0E0,7.251146E-1,7.6866674E-1,0E0,0E0,0E0],"parents":[2147483647,0,0,1,1,2,2,4,4,7,7,10,10,11,11],"right_children":[2,4,6,-1,8,-1,-1,10,-1,-1,12,14,-1,-1,-1],"split_conditions":[2.261E1,1.8712871E0,1E0,-5.82074E-2,4.243902E0,-7.639104E-2,2.3187798E-2,1.1E1,-3.8207036E-2,-2.4404256E-3,2.665226E6,4.8E1,6.706919E-3,3.2574218E-2,1.5164302E-1],"split_indices":[2,18,8,0,18,0,0,13,0,0,19,1,0,0,0],"split_type":[0,0,0,0,0,0,0,0,0,0,0,0,0,0,0],"sum_hessian":[1.520506E1,8.658993E0,6.5460677E0,1.1268455E0,7.532147E0,5.0018177E0,1.5442498E0,5.7487206E0,1.7834263E0,1.8640248E0,3.8846958E0,2.8712697E0,1.0134261E0,1.6624511E0,1.2088184E0],"tree_param":{"num_deleted":"0","num_feature":"20","num_nodes":"15","size_leaf_vector":"1"}},{"base_weights":[-1.1275119E-1,-2.934713E-1,5.8409446E-1,-5.354721E-1,2.9427838E-1,8.864782E-2,-2.4916239E-3,2.1902196E-2,-7.324407E-1,8.044206E-2,-3.6497172E-2,-9.189006E-2,-1.8235575E-1,3.6948938E-2,-6.0409516E-2],"categories":[],"categories_nodes":[],"categories_segments":[],"categories_sizes":[],"default_left":[0,0,0,0,0,0,0,0,0,0,0,0,0,0,0],"id":16,"left_children":[1,3,5,7,9,-1,-1,-1,11,-1,-1,-1,13,-1,-1],"loss_changes":[2.1764421E0,2.0504699E0,6.874639E-1,1.6140501E0,1.8159773E0,0E0,0E0,0E0,6.5161705E-1,0E0,0E0,0E0,9.841213E-1,0E0,0E0],"parents":[2147483647,0,0,1,1,2,2,3,3,4,4,8,8,12,12],"right_children":[2,4,6,8,10,-1,-1,-1,12,-1,-1,-1,14,-1,-1],"split_conditions":[4.351396E2,5.6E1,7.5504E6,1.848E1,6.1E1,8.864782E-2,-2.4916239E-3,2.1902196E-2,4E0,8.044206E-2,-3.6497172E-2,-9.189006E-2,4.4691358E0,3.6948938E-2,-6.0409516E-2],"split_indices":[17,1,19,2,1,0,0,0,18,0,0,0,18,0,0],"split_type":[0,0,0,0,0,0,0,0,0,0,0,0,0,0,0],"sum_hessian":[1.4921248E1,1.2308116E1,2.6131322E0,8.781398E0,3.5267186E0,1.4417007E0,1.1714314E0,1.7947171E0,6.9866805E0,1.8640612E0,1.6626573E0,4.7172318E0,2.269449E0,1.0367525E0,1.2326964E0],"tree_param":{"num_deleted":"0","num_feature":"20","num_nodes":"15","size_leaf_vector":"1"}},{"base_weights":[-1.0262952E-1,-3.896804E-1,2.9774147E-1,-6.843754E-1,-6.50995E-2,8.405938E-2,6.198734E-2,-8.123747E-2,-1.1846273E-2,6.418601E-2,-5.7809293E-2,-6.8885855E-2,4.1044357E-1,7.734192E-2,3.295515E-2,-6.2371578E-2,6.367662E-2],"categories":[],"categories_nodes":[],"categories_segments":[],"categories_sizes":[],"default_left":[0,0,0,0,0,0,0,0,0,0,0,0,0,0,0,0,0],"id":17,"left_children":[1,3,5,7,9,-1,11,-1,-1,-1,-1,-1,13,-1,15,-1,-1],"loss_changes":[1.9099938E0,8.664956E-1,8.546422E-1,2.577598E-1,2.4156127E0,0E0,1.8576382E0,0E0,0E0,0E0,0E0,0E0,6.237104E-1,0E0,1.7322265E0,0E0,0E0],"parents":[2147483647,0,0,1,1,2,2,3,3,4,4,6,6,12,12,14,14],"right_children":[2,4,6,8,10,-1,12,-1,-1,-1,-1,-1,14,-1,16,-1,-1],"split_conditions":[1E0,1.5054195E2,1.3136729E0,5.6E1,4.097826E0,8.405938E-2,2.371134E2,-8.123747E-2,-1.1846273E-2,6.418601E-2,-5.7809293E-2,-6.8885855E-2,2.665226E6,7.734192E-2,1E0,-6.2371578E-2,6.367662E-2],"split_indices":[5,17,16,1,16,0,17,0,0,0,0,0,19,0,15,0,0],"split_type":[0,0,0,0,0,0,0,0,0,0,0,0,0,0,0,0,0],"sum_hessian":[1.4609668E1,8.524573E0,6.085095E0,3.8869894E0,4.6375837E0,1.0656816E0,5.0194135E0,2.814816E0,1.0721734E0,1.8444837E0,2.7931E0,1.2813982E0,3.7380152E0,1.370933E0,2.367082E0,1.1181164E0,1.2489657E0],"tree_param":{"num_deleted":"0","num_feature":"20","num_nodes":"17","size_leaf_vector":"1"}},{"base_weights":[-9.500384E-2,-2.669207E-1,5.406939E-1,-5.0282484E-1,2.7123436E-1,8.142229E-2,-2.4521395E-3,2.0629916E-2,-6.986263E-1,7.3202305E-2,-3.4763318E-2,-8.909033E-2,-1.6689953E-1,3.8365167E-2,-5.9171755E-2],"categories":[],"categories_nodes":[],"categories_segments":[],"categories_sizes":[],"default_left":[0,0,0,0,0,0,0,0,0,0,0,0,0,0,0],"id":18,"left_children":[1,3,5,7,9,-1,-1,-1,11,-1,-1,-1,13,-1,-1],"loss_changes":[1.8152542E0,1.7492222E0,5.7424045E-1,1.419143E0,1.5438199E0,0E0,0E0,0E0,6.103201E-1,0E0,0E0,0E0,9.759391E-1,0E0,0E0],"parents":[2147483647,0,0,1,1,2,2,3,3,4,4,8,8,12,12],"right_children":[2,4,6,8,10,-1,-1,-1,12,-1,-1,-1,14,-1,-1],"split_conditions":[4.351396E2,5.6E1,7.5504E6,1.848E1,6.1E1,8.142229E-2,-2.4521395E-3,2.0629916E-2,4E0,7.3202305E-2,-3.4763318E-2,-8.909033E-2,4.3018866E0,3.8365167E-2,-5.9171755E-2],"split_indices":[17,1,19,2,1,0,0,0,18,0,0,0,18,0,0],"split_type":[0,0,0,0,0,0,0,0,0,0,0,0,0,0,0],"sum_hessian":[1.4289372E1,1.170422E1,2.5851524E0,8.182857E0,3.5213637E0,1.4452078E0,1.1399446E0,1.7589484E0,6.4239078E0,1.9136667E0,1.607697E0,4.2217836E0,2.202124E0,1.001332E0,1.2007922E0],"tree_param":{"num_deleted":"0","num_feature":"20","num_nodes":"15","size_leaf_vector":"1"}},{"base_weights":[-8.6560294E-2,1.9263035E-1,-4.649548E-1,-1.8215429E-2,7.8272425E-2,-6.973421E-2,2.2586918E-2,6.093684E-1,-3.9854443E-1,5.1028524E-3,8.733427E-2,-1.9761198E-3,-7.475831E-2,4.685865E-2,-5.8503956E-2],"categories":[],"categories_nodes":[],"categories_segments":[],"categories_sizes":[],"default_left":[0,0,0,0,0,0,0,0,0,0,0,0,0,0,0],"id":19,"left_children":[1,3,5,7,-1,-1,-1,9,11,-1,-1,13,-1,-1,-1],"loss_changes":[1.6748154E0,1.1765437E0,1.227313E0,2.1189008E0,0E0,0E0,0E0,4.5084107E-1,7.596173E-1,0E0,0E0,1.2554632E0,0E0,0E0,0E0],"parents":[2147483647,0,0,1,1,2,2,3,3,7,7,8,8,11,11],"right_children":[2,4,6,8,-1,-1,-1,10,12,-1,-1,14,-1,-1,-1],"split_conditions":[2.261E1,2.25E1,1E0,1.875E1,7.8272425E-2,-6.973421E-2,2.2586918E-2,2.7627628E2,4.0689654E0,5.1028524E-3,8.733427E-2,1.25E1,-7.475831E-2,4.685865E-2,-5.8503956E-2],"split_indices":[2,14,8,2,0,0,0,17,16,0,0,14,0,0,0],"split_type":[0,0,0,0,0,0,0,0,0,0,0,0,0,0,0],"sum_hessian":[1.4005567E1,8.341723E0,5.663843E0,6.8597903E0,1.4819328E0,4.231101E0,1.432742E0,2.3612537E0,4.4985366E0,1.1410642E0,1.2201897E0,2.5766633E0,1.9218733E0,1.5345435E0,1.0421197E0],"tree_param":{"num_deleted":"0","num_feature":"20","num_nodes":"15","size_leaf_vector":"1"}},{"base_weights":[-7.810156E-2,-2.4178661E-1,5.0452054E-1,-4.723589E-1,2.5632533E-1,7.54798E-2,-2.7018178E-3,1.717504E-2,-6.6180825E-1,6.7876324E-2,-3.3116307E-2,-8.62234E-2,-1.3834698E-1,3.4500312E-2,-5.6104966E-2],"categories":[],"categories_nodes":[],"categories_segments":[],"categories_sizes":[],"default_left":[0,0,0,0,0,0,0,0,0,0,0,0,0,0,0],"id":20,"left_children":[1,3,5,7,9,-1,-1,-1,11,-1,-1,-1,13,-1,-1],"loss_changes":[1.5238605E0,1.5167224E0,4.9239773E-1,1.1702244E0,1.3399274E0,0E0,0E0,0E0,6.042733E-1,0E0,0E0,0E0,8.270615E-1,0E0,0E0],"parents":[2147483647,0,0,1,1,2,2,3,3,4,4,8,8,12,12],"right_children":[2,4,6,8,10,-1,-1,-1,12,-1,-1,-1,14,-1,-1],"split_conditions":[4.351396E2,5.6E1,7.5504E6,1.848E1,6.1E1,7.54798E-2,-2.7018178E-3,1.717504E-2,4E0,6.7876324E-2,-3.3116307E-2,-8.62234E-2,3.1886792E0,3.4500312E-2,-5.6104966E-2],"split_indices":[17,1,19,2,1,0,0,0,18,0,0,0,16,0,0],"split_type":[0,0,0,0,0,0,0,0,0,0,0,0,0,0,0],"sum_hessian":[1.3699855E1,1.1151808E1,2.5480475E0,7.6584635E0,3.493344E0,1.4467936E0,1.101254E0,1.7618315E0,5.8966317E0,1.94175E0,1.551594E0,3.7960145E0,2.1006172E0,1.0657613E0,1.0348558E0],"tree_param":{"num_deleted":"0","num_feature":"20","num_nodes":"15","size_leaf_vector":"1"}},{"base_weights":[-7.147682E-2,1.20622374E-1,-6.0441967E-2,-1.3135916E-1,1.0482531E-1,-4.487134E-1,6.559106E-1,-6.299902E-2,2.1099553E-2,1.0494765E-1,-4.341694E-3],"categories":[],"categories_nodes":[],"categories_segments":[],"categories_sizes":[],"default_left":[0,0,0,0,0,0,0,0,0,0,0],"id":21,"left_children":[1,3,-1,5,-1,7,9,-1,-1,-1,-1],"loss_changes":[1.5525138E0,2.8156984E0,0E0,2.7673118E0,0E0,1.0475799E0,9.4004595E-1,0E0,0E0,0E0,0E0],"parents":[2147483647,0,0,1,1,3,3,5,5,6,6],"right_children":[2,4,-1,6,-1,8,10,-1,-1,-1,-1],"split_conditions":[4.243902E0,3.909091E0,-6.0441967E-2,1E0,1.0482531E-1,1E0,2.842E6,-6.299902E-2,2.1099553E-2,1.0494765E-1,-4.341694E-3],"split_indices":[18,18,0,11,0,8,19,0,0,0,0],"split_type":[0,0,0,0,0,0,0,0,0,0,0],"sum_hessian":[1.3452413E1,1.0456893E1,2.9955192E0,8.898184E0,1.5587093E0,6.64826E0,2.2499237E0,5.2505474E0,1.397713E0,1.1193084E0,1.1306155E0],"tree_param":{"num_deleted":"0","num_feature":"20","num_nodes":"11","size_leaf_vector":"1"}},{"base_weights":[-5.93436E-2,1.2347428E-1,-5.799243E-1,-1.1541288E-1,9.5876165E-2,-7.3845714E-2,-6.8657347E-3,-4.214613E-1,6.2210524E-1,-6.893378E-2,4.799628E-2,9.9526845E-2,-4.114706E-3,7.262769E-2,-4.911985E-2],"categories":[],"categories_nodes":[],"categories_segments":[],"categories_sizes":[],"default_left":[0,0,0,0,0,0,0,0,0,0,0,0,0,0,0],"id":22,"left_children":[1,3,5,7,-1,-1,-1,9,11,-1,13,-1,-1,-1,-1],"loss_changes":[1.4204807E0,2.368219E0,2.620995E-1,2.4494581E0,0E0,0E0,0E0,9.692888E-1,8.442837E-1,0E0,1.6878203E0,0E0,0E0,0E0,0E0],"parents":[2147483647,0,0,1,1,2,2,3,3,7,7,8,8,10,10],"right_children":[2,4,6,8,-1,-1,-1,10,12,-1,14,-1,-1,-1,-1],"split_conditions":[4.243902E0,3.909091E0,6.1666665E0,1E0,9.5876165E-2,-7.3845714E-2,-6.8657347E-3,2.0075471E2,2.842E6,-6.893378E-2,5.1666665E0,9.9526845E-2,-4.114706E-3,7.262769E-2,-4.911985E-2],"split_indices":[18,18,18,11,0,0,0,17,19,0,16,0,0,0,0],"split_type":[0,0,0,0,0,0,0,0,0,0,0,0,0,0,0],"sum_hessian":[1.3173104E1,1.0313882E1,2.859222E0,8.690329E0,1.6235534E0,1.8432902E0,1.0159317E0,6.4445643E0,2.2457645E0,3.8050187E0,2.6395457E0,1.1168226E0,1.1289419E0,1.0153363E0,1.6242093E0],"tree_param":{"num_deleted":"0","num_feature":"20","num_nodes":"15","size_leaf_vector":"1"}},{"base_weights":[-5.0948016E-2,1.2527801E-1,-5.594582E-2,-1.0225023E-1,8.793136E-2,-3.9999452E-1,5.9042466E-1,-6.641298E-2,4.9990334E-2,9.4478E-2,-3.8995605E-3,6.896086E-2,-4.7002297E-2],"categories":[],"categories_nodes":[],"categories_segments":[],"categories_sizes":[],"default_left":[0,0,0,0,0,0,0,0,0,0,0,0,0],"id":23,"left_children":[1,3,-1,5,-1,7,9,-1,11,-1,-1,-1,-1],"loss_changes":[1.3126216E0,1.9967003E0,0E0,2.1817713E0,0E0,8.8823605E-1,7.594565E-1,0E0,1.5184729E0,0E0,0E0,0E0,0E0],"parents":[2147483647,0,0,1,1,3,3,5,5,6,6,8,8],"right_children":[2,4,-1,6,-1,8,10,-1,12,-1,-1,-1,-1],"split_conditions":[4.243902E0,3.909091E0,-5.594582E-2,1E0,8.793136E-2,2.0075471E2,2.842E6,-6.641298E-2,5.1666665E0,9.4478E-2,-3.8995605E-3,6.896086E-2,-4.7002297E-2],"split_indices":[18,18,0,11,0,17,19,0,16,0,0,0,0],"split_type":[0,0,0,0,0,0,0,0,0,0,0,0,0],"sum_hessian":[1.2865595E1,1.01141405E1,2.7514544E0,8.433692E0,1.6804483E0,6.193829E0,2.2398632E0,3.6030133E0,2.5908155E0,1.112505E0,1.1273581E0,1.0155494E0,1.575266E0],"tree_param":{"num_deleted":"0","num_feature":"20","num_nodes":"13","size_leaf_vector":"1"}},{"base_weights":[-4.2065438E-2,1.9338708E-1,-3.941329E-1,-1.6766226E-2,7.504444E-2,1.0051023E-2,-6.776863E-2,5.62418E-1,-3.9155874E-1,4.4886456E-3,7.912335E-2,-2.2478187E-2,-7.0754915E-2,3.95369E-2,-4.1315943E-2],"categories":[],"categories_nodes":[],"categories_segments":[],"categories_sizes":[],"default_left":[0,0,0,0,0,0,0,0,0,0,0,0,0,0,0],"id":24,"left_children":[1,3,5,7,-1,-1,-1,9,11,-1,-1,13,-1,-1,-1],"loss_changes":[1.200027E0,1.0421622E0,8.763078E-1,1.8187212E0,0E0,0E0,0E0,3.5568428E-1,5.7426274E-1,0E0,0E0,7.1298105E-1,0E0,0E0,0E0],"parents":[2147483647,0,0,1,1,2,2,3,3,7,7,8,8,11,11],"right_children":[2,4,6,8,-1,-1,-1,10,12,-1,-1,14,-1,-1,-1],"split_conditions":[2.261E1,2.25E1,7.5E0,1.875E1,7.504444E-2,1.0051023E-2,-6.776863E-2,2.7627628E2,4.0689654E0,4.4886456E-3,7.912335E-2,2.5E0,-7.0754915E-2,3.95369E-2,-4.1315943E-2],"split_indices":[2,14,14,2,0,0,0,17,16,0,0,14,0,0,0],"split_type":[0,0,0,0,0,0,0,0,0,0,0,0,0,0,0],"sum_hessian":[1.2556963E1,7.794762E0,4.7622004E0,6.363859E0,1.4309032E0,1.9704294E0,2.791771E0,2.3035166E0,4.0603423E0,1.0729356E0,1.230581E0,2.366905E0,1.6934373E0,1.1378915E0,1.2290134E0],"tree_param":{"num_deleted":"0","num_feature":"20","num_nodes":"15","size_leaf_vector":"1"}},{"base_weights":[-3.7068717E-2,-1.916441E-1,4.7676203E-1,5.0534252E-2,-6.748329E-2,6.910674E-2,-5.1413424E-4,-2.797282E-1,8.347202E-2,2.4600863E-2,-4.9753407E-1,-7.300185E-2,-1.4406559E-1,-5.3112682E-2,2.7849441E-2],"categories":[],"categories_nodes":[],"categories_segments":[],"categories_sizes":[],"default_left":[0,0,0,0,0,0,0,0,0,0,0,0,0,0,0],"id":25,"left_children":[1,3,5,7,-1,-1,-1,9,-1,-1,11,-1,13,-1,-1],"loss_changes":[1.151984E0,1.3188076E0,3.5209006E-1,2.368477E0,0E0,0E0,0E0,8.7238604E-1,0E0,0E0,3.025787E-1,0E0,6.7367935E-1,0E0,0E0],"parents":[2147483647,0,0,1,1,2,2,3,3,7,7,10,10,12,12],"right_children":[2,4,6,8,-1,-1,-1,10,-1,-1,12,-1,14,-1,-1],"split_conditions":[4.351396E2,5.1666665E0,7.5504E6,2.0075471E2,-6.748329E-2,6.910674E-2,-5.1413424E-4,1.4857143E0,8.347202E-2,2.4600863E-2,2.249E1,-7.300185E-2,2.7037036E0,-5.3112682E-2,2.7849441E-2],"split_indices":[17,16,19,17,0,0,0,16,0,0,2,0,18,0,0],"split_type":[0,0,0,0,0,0,0,0,0,0,0,0,0,0,0],"sum_hessian":[1.2353574E1,9.978712E0,2.3748612E0,7.2435822E0,2.7351303E0,1.3434039E0,1.0314573E0,5.5496273E0,1.6939551E0,1.5877211E0,3.961906E0,1.74734E0,2.214566E0,1.0217373E0,1.1928287E0],"tree_param":{"num_deleted":"0","num_feature":"20","num_nodes":"15","size_leaf_vector":"1"}},{"base_weights":[-3.384465E-2,1.3421412E-1,-5.2467633E-2,-8.1723824E-2,7.981693E-2,-3.6881414E-1,5.528192E-1,-5.45174E-2,2.2182738E-2,8.65254E-2,-3.0056161E-3],"categories":[],"categories_nodes":[],"categories_segments":[],"categories_sizes":[],"default_left":[0,0,0,0,0,0,0,0,0,0,0],"id":26,"left_children":[1,3,-1,5,-1,7,9,-1,-1,-1,-1],"loss_changes":[1.155612E0,1.5844754E0,0E0,1.825767E0,0E0,8.219228E-1,6.039325E-1,0E0,0E0,0E0,0E0],"parents":[2147483647,0,0,1,1,3,3,5,5,6,6],"right_children":[2,4,-1,6,-1,8,10,-1,-1,-1,-1],"split_conditions":[4.243902E0,3.909091E0,-5.2467633E-2,1E0,7.981693E-2,1E0,2.842E6,-5.45174E-2,2.2182738E-2,8.65254E-2,-3.0056161E-3],"split_indices":[18,18,0,11,0,8,19,0,0,0,0],"split_type":[0,0,0,0,0,0,0,0,0,0,0],"sum_hessian":[1.2155676E1,9.596449E0,2.5592272E0,7.903054E0,1.6933944E0,5.7295637E0,2.1734905E0,4.4714203E0,1.2581433E0,1.0996138E0,1.0738769E0],"tree_param":{"num_deleted":"0","num_feature":"20","num_nodes":"11","size_leaf_vector":"1"}},{"base_weights":[-2.5582042E-2,-3.9610994E-1,1.7962234E-1,-7.600397E-2,2.1403799E-2,6.904584E-1,-1.612906E-1,1.4573509E-2,9.0614386E-2,-5.3177178E-2,4.9101703E-2],"categories":[],"categories_nodes":[],"categories_segments":[],"categories_sizes":[],"default_left":[0,0,0,0,0,0,0,0,0,0,0],"id":27,"left_children":[1,3,5,-1,-1,7,9,-1,-1,-1,-1],"loss_changes":[1.0541079E0,1.2551209E0,1.6801295E0,0E0,0E0,3.1379664E-1,1.7626472E0,0E0,0E0,0E0,0E0],"parents":[2147483647,0,0,1,1,2,2,5,5,6,6],"right_children":[2,4,6,-1,-1,8,10,-1,-1,-1,-1],"split_conditions":[1.5095401E2,5.6E1,4.097826E0,-7.600397E-2,2.1403799E-2,8.319377E5,5.034843E2,1.4573509E-2,9.0614386E-2,-5.3177178E-2,4.9101703E-2],"split_indices":[17,1,16,0,0,19,17,0,0,0,0],"split_type":[0,0,0,0,0,0,0,0,0,0,0],"sum_hessian":[1.1927879E1,3.9197865E0,8.008093E0,2.301416E0,1.6183705E0,2.7948573E0,5.213236E0,1.2680422E0,1.5268152E0,3.442714E0,1.7705216E0],"tree_param":{"num_deleted":"0","num_feature":"20","num_nodes":"11","size_leaf_vector":"1"}},{"base_weights":[-2.0539157E-2,1.3820553E-1,-4.952995E-2,-5.878612E-2,3.0432156E-1,5.234119E-1,-4.0602554E-2,-1.594659E-2,7.99995E-1,9.77565E-2,8.956091E-3],"categories":[],"categories_nodes":[],"categories_segments":[],"categories_sizes":[],"default_left":[0,0,0,0,0,0,0,0,0,0,0],"id":28,"left_children":[1,3,-1,-1,5,7,-1,-1,9,-1,-1],"loss_changes":[1.0309744E0,1.4275784E0,0E0,0E0,1.626296E0,1.5213931E0,0E0,0E0,5.9600973E-1,0E0,0E0],"parents":[2147483647,0,0,1,1,4,4,5,5,8,8],"right_children":[2,4,-1,-1,6,8,-1,-1,10,-1,-1],"split_conditions":[4.243902E0,1.5454545E0,-4.952995E-2,-5.878612E-2,1.2E2,1.1E1,-4.0602554E-2,-1.594659E-2,2.665226E6,9.77565E-2,8.956091E-3],"split_indices":[18,18,0,0,13,13,0,0,19,0,0],"split_type":[0,0,0,0,0,0,0,0,0,0,0],"sum_hessian":[1.1771346E1,9.352922E0,2.418424E0,1.2687147E0,8.084208E0,6.379696E0,1.7045118E0,1.9611357E0,4.4185605E0,3.2341802E0,1.1843802E0],"tree_param":{"num_deleted":"0","num_feature":"20","num_nodes":"11","size_leaf_vector":"1"}},{"base_weights":[-2.39898E-2,1.9553469E-1,-3.6089826E-1,-8.529748E-3,6.88351E-2,7.8349095E-3,-6.3427754E-2,-6.28428E-2,2.4004388E-1,5.765741E-1,-3.736517E-2,7.84378E-2,-3.9746767E-4],"categories":[],"categories_nodes":[],"categories_segments":[],"categories_sizes":[],"default_left":[0,0,0,0,0,0,0,0,0,0,0,0,0],"id":29,"left_children":[1,3,5,7,-1,-1,-1,-1,9,11,-1,-1,-1],"loss_changes":[1.0032939E0,8.3900857E-1,6.893457E-1,1.2058016E0,0E0,0E0,0E0,0E0,1.3741312E0,4.8768532E-1,0E0,0E0,0E0],"parents":[2147483647,0,0,1,1,2,2,3,3,8,8,9,9],"right_children":[2,4,6,8,-1,-1,-1,-1,10,12,-1,-1,-1],"split_conditions":[2.261E1,2.166E1,7.5E0,1.6483516E2,6.88351E-2,7.8349095E-3,-6.3427754E-2,-6.28428E-2,1.2E2,2.054E1,-3.736517E-2,7.84378E-2,-3.9746767E-4],"split_indices":[2,2,14,17,0,0,0,0,13,2,0,0,0],"split_type":[0,0,0,0,0,0,0,0,0,0,0,0,0],"sum_hessian":[1.1611279E1,7.2844567E0,4.326822E0,5.846317E0,1.4381397E0,1.9335419E0,2.3932798E0,1.2359477E0,4.610369E0,3.0166352E0,1.593734E0,1.962922E0,1.0537131E0],"tree_param":{"num_deleted":"0","num_feature":"20","num_nodes":"13","size_leaf_vector":"1"}},{"base_weights":[-2.3178164E-2,-2.557521E-1,2.6838714E-1,-6.450881E-2,-4.2959567E-2,-1.4589623E-2,4.3929437E-1,2.0335932E-1,-5.7763387E-2,6.381537E-2,2.3239376E-3,5.214547E-2,-1.6780209E-2],"categories":[],"categories_nodes":[],"categories_segments":[],"categories_sizes":[],"default_left":[0,0,0,0,0,0,0,0,0,0,0,0,0],"id":30,"left_children":[1,3,5,-1,7,-1,9,11,-1,-1,-1,-1,-1],"loss_changes":[9.111834E-1,5.873281E-1,4.890019E-1,0E0,8.907507E-1,0E0,3.5730594E-1,6.4940834E-1,0E0,0E0,0E0,0E0,0E0],"parents":[2147483647,0,0,1,1,2,2,4,4,6,6,7,7],"right_children":[2,4,6,-1,8,-1,10,12,-1,-1,-1,-1,-1],"split_conditions":[1E0,1.1E1,2.371134E2,-6.450881E-2,1.2E2,-1.4589623E-2,4.5E1,7.5E0,-5.7763387E-2,6.381537E-2,2.3239376E-3,5.214547E-2,-1.6780209E-2],"split_indices":[5,13,17,0,13,0,1,14,0,0,0,0,0],"split_type":[0,0,0,0,0,0,0,0,0,0,0,0,0],"sum_hessian":[1.1424964E1,6.423744E0,5.0012197E0,1.5522087E0,4.8715353E0,1.503366E0,3.4978538E0,3.7593155E0,1.1122199E0,2.005484E0,1.4923698E0,1.8063217E0,1.9529936E0],"tree_param":{"num_deleted":"0","num_feature":"20","num_nodes":"13","size_leaf_vector":"1"}},{"base_weights":[-2.4410237E-2,1.7862058E-1,-3.3855808E-1,-2.7676217E-2,6.862742E-2,-5.5118825E-2,1.8150205E-2,4.746787E-2,-3.6541536E-1,-1.9048216E-2,-6.582978E-2,3.2845814E-2,-3.6588557E-2],"categories":[],"categories_nodes":[],"categories_segments":[],"categories_sizes":[],"default_left":[0,0,0,0,0,0,0,0,0,0,0,0,0],"id":31,"left_children":[1,3,5,7,-1,-1,-1,-1,9,11,-1,-1,-1],"loss_changes":[8.447419E-1,8.697585E-1,6.7202115E-1,1.3165765E0,0E0,0E0,0E0,0E0,4.534883E-1,4.9798173E-1,0E0,0E0,0E0],"parents":[2147483647,0,0,1,1,2,2,3,3,8,8,9,9],"right_children":[2,4,6,8,-1,-1,-1,-1,10,12,-1,-1,-1],"split_conditions":[2.261E1,2.25E1,1E0,1.875E1,6.862742E-2,-5.5118825E-2,1.8150205E-2,4.746787E-2,4.0689654E0,2.5E0,-6.582978E-2,3.2845814E-2,-3.6588557E-2],"split_indices":[2,14,8,2,0,0,0,0,16,14,0,0,0],"split_type":[0,0,0,0,0,0,0,0,0,0,0,0,0],"sum_hessian":[1.1296138E1,7.123621E0,4.1725173E0,5.7375264E0,1.3860945E0,2.9191484E0,1.2533686E0,2.1436265E0,3.5939002E0,2.134567E0,1.4593331E0,1.092725E0,1.041842E0],"tree_param":{"num_deleted":"0","num_feature":"20","num_nodes":"13","size_leaf_vector":"1"}},{"base_weights":[-2.2174023E-2,-3.6354113E-1,1.6131866E-1,-7.15627E-2,1.83508E-2,5.5635244E-1,-2.043382E-1,-1.287498E-2,7.977399E-2,-6.4004086E-2,4.2536784E-2],"categories":[],"categories_nodes":[],"categories_segments":[],"categories_sizes":[],"default_left":[0,0,0,0,0,0,0,0,0,0,0],"id":32,"left_children":[1,3,5,-1,-1,7,9,-1,-1,-1,-1],"loss_changes":[8.174288E-1,1.0062169E0,1.35179E0,0E0,0E0,8.2850623E-1,1.6941657E0,0E0,0E0,0E0,0E0],"parents":[2147483647,0,0,1,1,2,2,5,5,6,6],"right_children":[2,4,6,-1,-1,8,10,-1,-1,-1,-1],"split_conditions":[1.5095401E2,5.6E1,5.1666665E0,-7.15627E-2,1.83508E-2,9E0,5.034843E2,-1.287498E-2,7.977399E-2,-6.4004086E-2,4.2536784E-2],"split_indices":[17,1,16,0,0,13,17,0,0,0,0],"split_type":[0,0,0,0,0,0,0,0,0,0,0],"sum_hessian":[1.1113709E1,3.542348E0,7.5713615E0,1.9677362E0,1.5746117E0,3.388795E0,4.1825666E0,1.0044907E0,2.3843043E0,2.462391E0,1.7201759E0],"tree_param":{"num_deleted":"0","num_feature":"20","num_nodes":"11","size_leaf_vector":"1"}},{"base_weights":[-2.1709956E-2,-2.4250568E-1,2.5201386E-1,-6.140834E-2,-4.547619E-2,-1.3556066E-2,4.1122675E-1,2.4206825E-1,-4.4468302E-2,6.614079E-2,5.8896802E-3,-2.9194865E-2,6.760428E-2],"categories":[],"categories_nodes":[],"categories_segments":[],"categories_sizes":[],"default_left":[0,0,0,0,0,0,0,0,0,0,0,0,0],"id":33,"left_children":[1,3,5,-1,7,-1,9,11,-1,-1,-1,-1,-1],"loss_changes":[7.837442E-1,4.939156E-1,4.1542888E-1,0E0,7.662992E-1,0E0,3.4708762E-1,1.1204205E0,0E0,0E0,0E0,0E0,0E0],"parents":[2147483647,0,0,1,1,2,2,4,4,6,6,7,7],"right_children":[2,4,6,-1,8,-1,10,12,-1,-1,-1,-1,-1],"split_conditions":[1E0,1.1E1,2.371134E2,-6.140834E-2,4.097826E0,-1.3556066E-2,2.665226E6,1.5054195E2,-4.4468302E-2,6.614079E-2,5.8896802E-3,-2.9194865E-2,6.760428E-2],"split_indices":[5,13,17,0,16,0,19,17,0,0,0,0,0],"split_type":[0,0,0,0,0,0,0,0,0,0,0,0,0],"sum_hessian":[1.0956731E1,6.1278396E0,4.8288918E0,1.389907E0,4.7379327E0,1.4493275E0,3.379564E0,2.982963E0,1.7549695E0,1.4632819E0,1.916282E0,1.4840585E0,1.4989045E0],"tree_param":{"num_deleted":"0","num_feature":"20","num_nodes":"13","size_leaf_vector":"1"}},{"base_weights":[-2.0943427E-2,1.1951723E-1,-4.4347547E-2,-5.519524E-2,2.7103817E-1,4.581236E-1,-3.5578948E-2,-1.3379782E-2,6.8401885E-1,8.395097E-2,5.730979E-3],"categories":[],"categories_nodes":[],"categories_segments":[],"categories_sizes":[],"default_left":[0,0,0,0,0,0,0,0,0,0,0],"id":34,"left_children":[1,3,-1,-1,5,7,-1,-1,9,-1,-1],"loss_changes":[7.5376076E-1,1.1313343E0,0E0,0E0,1.1648843E0,1.0297477E0,0E0,0E0,4.6272874E-1,0E0,0E0],"parents":[2147483647,0,0,1,1,4,4,5,5,8,8],"right_children":[2,4,-1,-1,6,8,-1,-1,10,-1,-1],"split_conditions":[4.243902E0,1.5454545E0,-4.4347547E-2,-5.519524E-2,1.2E2,1.1E1,-3.5578948E-2,-1.3379782E-2,2.665226E6,8.395097E-2,5.730979E-3],"split_indices":[18,18,0,0,13,13,0,0,19,0,0],"split_type":[0,0,0,0,0,0,0,0,0,0,0],"sum_hessian":[1.0807382E1,8.649278E0,2.1581047E0,1.1058638E0,7.5434136E0,6.016766E0,1.5266476E0,1.7745497E0,4.242216E0,3.1268668E0,1.1153494E0],"tree_param":{"num_deleted":"0","num_feature":"20","num_nodes":"11","size_leaf_vector":"1"}},{"base_weights":[-2.4579553E-2,-2.4253005E-1,2.4547487E-1,-5.9064317E-2,-5.988773E-2,-1.2539814E-2,3.969964E-1,2.9203726E-2,-3.5063368E-1,5.866728E-2,7.9089165E-4,-6.474426E-2,1.9360494E-2],"categories":[],"categories_nodes":[],"categories_segments":[],"categories_sizes":[],"default_left":[0,0,0,0,0,0,0,0,0,0,0,0,0],"id":35,"left_children":[1,3,5,-1,7,-1,9,-1,11,-1,-1,-1,-1],"loss_changes":[7.4611396E-1,4.070312E-1,3.7047264E-1,0E0,6.832316E-1,0E0,3.1207663E-1,0E0,7.008805E-1,0E0,0E0,0E0,0E0],"parents":[2147483647,0,0,1,1,2,2,4,4,6,6,8,8],"right_children":[2,4,6,-1,8,-1,10,-1,12,-1,-1,-1,-1],"split_conditions":[1E0,1.1E1,2.371134E2,-5.9064317E-2,5.3E1,-1.2539814E-2,4.5E1,2.9203726E-2,4.9E1,5.866728E-2,7.9089165E-4,-6.474426E-2,1.9360494E-2],"split_indices":[5,13,17,0,13,0,1,0,1,0,0,0,0],"split_type":[0,0,0,0,0,0,0,0,0,0,0,0,0],"sum_hessian":[1.0664908E1,5.958198E0,4.70671E0,1.281604E0,4.6765943E0,1.4151971E0,3.2915127E0,2.1136937E0,2.5629003E0,1.8714043E0,1.4201084E0,1.5357344E0,1.027166E0],"tree_param":{"num_deleted":"0","num_feature":"20","num_nodes":"13","size_leaf_vector":"1"}},{"base_weights":[-2.52631E-2,1.6042113E-1,-3.1699488E-1,-4.9866974E-2,6.392736E-2,-5.1486243E-2,1.5769336E-2,1.698258E-1,-5.7702925E-2,-2.9107759E-2,4.8081568E-1,4.6532275E-3,7.066746E-2],"categories":[],"categories_nodes":[],"categories_segments":[],"categories_sizes":[],"default_left":[0,0,0,0,0,0,0,0,0,0,0,0,0],"id":36,"left_children":[1,3,5,7,-1,-1,-1,9,-1,-1,11,-1,-1],"loss_changes":[6.7575634E-1,8.0857456E-1,5.3417146E-1,8.261376E-1,0E0,0E0,0E0,8.867913E-1,0E0,0E0,3.092683E-1,0E0,0E0],"parents":[2147483647,0,0,1,1,2,2,3,3,7,7,10,10],"right_children":[2,4,6,8,-1,-1,-1,10,-1,-1,12,-1,-1],"split_conditions":[2.261E1,2.166E1,1E0,4.0816326E0,6.392736E-2,-5.1486243E-2,1.5769336E-2,1E0,-5.7702925E-2,-2.9107759E-2,3.254902E0,4.6532275E-3,7.066746E-2],"split_indices":[2,2,8,18,0,0,0,4,0,0,18,0,0],"split_type":[0,0,0,0,0,0,0,0,0,0,0,0,0],"sum_hessian":[1.05359745E1,6.7132E0,3.8227744E0,5.287191E0,1.4260092E0,2.6383712E0,1.1844033E0,4.2103806E0,1.0768105E0,1.7221267E0,2.4882538E0,1.2639478E0,1.2243061E0],"tree_param":{"num_deleted":"0","num_feature":"20","num_nodes":"13","size_leaf_vector":"1"}},{"base_weights":[-2.203728E-2,-2.2472216E-1,2.2442809E-1,-5.7602312E-2,-4.457867E-2,-1.2621852E-2,3.6923954E-1,4.3823116E-2,-3.122203E-1,6.430178E-2,7.50356E-2,-6.2262584E-2,6.998218E-3,-3.797774E-2,4.9395416E-2],"categories":[],"categories_nodes":[],"categories_segments":[],"categories_sizes":[],"default_left":[0,0,0,0,0,0,0,0,0,0,0,0,0,0,0],"id":37,"left_children":[1,3,5,-1,7,-1,9,-1,11,-1,13,-1,-1,-1,-1],"loss_changes":[6.1788434E-1,4.0041217E-1,3.3229753E-1,0E0,8.519995E-1,0E0,2.9299796E-1,0E0,5.3528607E-1,0E0,7.923814E-1,0E0,0E0,0E0,0E0],"parents":[2147483647,0,0,1,1,2,2,4,4,6,6,8,8,10,10],"right_children":[2,4,6,-1,8,-1,10,-1,12,-1,14,-1,-1,-1,-1],"split_conditions":[1E0,1.158623E2,2.371134E2,-5.7602312E-2,2.6944444E0,-1.2621852E-2,5.1666665E0,4.3823116E-2,4.8E1,6.430178E-2,7.5E0,-6.2262584E-2,6.998218E-3,-3.797774E-2,4.9395416E-2],"split_indices":[5,17,17,0,16,0,16,0,1,0,14,0,0,0,0],"split_type":[0,0,0,0,0,0,0,0,0,0,0,0,0,0,0],"sum_hessian":[1.0359275E1,5.7329273E0,4.626348E0,1.1983752E0,4.534552E0,1.3897061E0,3.2366416E0,1.3898906E0,3.1446614E0,1.0623906E0,2.174251E0,1.3881936E0,1.7564678E0,1.0872622E0,1.0869889E0],"tree_param":{"num_deleted":"0","num_feature":"20","num_nodes":"15","size_leaf_vector":"1"}},{"base_weights":[-2.1032369E-2,1.5402219E-1,-2.9985255E-1,-4.77845E-2,6.2724315E-2,9.504959E-3,-5.664729E-2,3.921015E-2,-3.4464952E-1,-1.873482E-3,-6.166866E-2],"categories":[],"categories_nodes":[],"categories_segments":[],"categories_sizes":[],"default_left":[0,0,0,0,0,0,0,0,0,0,0],"id":38,"left_children":[1,3,5,7,-1,-1,-1,-1,9,-1,-1],"loss_changes":[5.934822E-1,7.508948E-1,5.44924E-1,9.4756365E-1,0E0,0E0,0E0,0E0,3.6496574E-1,0E0,0E0],"parents":[2147483647,0,0,1,1,2,2,3,3,8,8],"right_children":[2,4,6,8,-1,-1,-1,-1,10,-1,-1],"split_conditions":[2.261E1,2.25E1,7.5E0,1.875E1,6.2724315E-2,9.504959E-3,-5.664729E-2,3.921015E-2,4.0689654E0,-1.873482E-3,-6.166866E-2],"split_indices":[2,14,14,2,0,0,0,0,16,0,0],"split_type":[0,0,0,0,0,0,0,0,0,0,0],"sum_hessian":[1.0213118E1,6.5489907E0,3.664127E0,5.2213507E0,1.3276398E0,1.736149E0,1.9279783E0,1.9746156E0,3.246735E0,1.9633762E0,1.283359E0],"tree_param":{"num_deleted":"0","num_feature":"20","num_nodes":"11","size_leaf_vector":"1"}},{"base_weights":[-2.0371443E-2,-2.1997435E-1,2.2242562E-1,-4.6751134E-2,4.8920475E-3,-1.2219347E-2,3.660914E-2,4.321539E-2,-4.3823253E-2],"categories":[],"categories_nodes":[],"categories_segments":[],"categories_sizes":[],"default_left":[0,0,0,0,0,0,0,0,0],"id":39,"left_children":[1,3,5,-1,7,-1,-1,-1,-1],"loss_changes":[5.865207E-1,3.69145E-1,3.1714392E-1,0E0,1.0306067E0,0E0,0E0,0E0,0E0],"parents":[2147483647,0,0,1,1,2,2,4,4],"right_children":[2,4,6,-1,8,-1,-1,-1,-1],"split_conditions":[1E0,1.5054195E2,2.371134E2,-4.6751134E-2,4.097826E0,-1.2219347E-2,3.660914E-2,4.321539E-2,-4.3823253E-2],"split_indices":[5,17,17,0,16,0,0,0,0],"split_type":[0,0,0,0,0,0,0,0,0],"sum_hessian":[1.009285E1,5.590726E0,4.502124E0,2.1475744E0,3.4431512E0,1.3686137E0,3.1335104E0,1.7655559E0,1.6775955E0],"tree_param":{"num_deleted":"0","num_feature":"20","num_nodes":"9","size_leaf_vector":"1"}},{"base_weights":[-2.0934813E-2,1.0439185E-1,-3.9993476E-2,-9.383531E-2,6.311921E-2,-3.3200562E-1,4.090717E-2,-4.92991E-2,1.7706929E-2],"categories":[],"categories_nodes":[],"categories_segments":[],"categories_sizes":[],"default_left":[0,0,0,0,0,0,0,0,0],"id":40,"left_children":[1,3,-1,5,-1,7,-1,-1,-1],"loss_changes":[5.641957E-1,1.005206E0,0E0,1.0284754E0,0E0,5.4701144E-1,0E0,0E0,0E0],"parents":[2147483647,0,0,1,1,3,3,5,5],"right_children":[2,4,-1,6,-1,8,-1,-1,-1],"split_conditions":[4.243902E0,3.909091E0,-3.9993476E-2,1E0,6.311921E-2,1E0,4.090717E-2,-4.92991E-2,1.7706929E-2],"split_indices":[18,18,0,11,0,8,0,0,0],"split_type":[0,0,0,0,0,0,0,0,0],"sum_hessian":[9.999136E0,8.0588255E0,1.9403106E0,6.452661E0,1.6061641E0,4.609492E0,1.8431693E0,3.5260417E0,1.0834497E0],"tree_param":{"num_deleted":"0","num_feature":"20","num_nodes":"9","size_leaf_vector":"1"}},{"base_weights":[-1.6528022E-2,1.025956E-1,-3.8196385E-2,-8.474779E-2,5.8909953E-2,-3.1074893E-1,3.821906E-2,-5.062226E-1,1.0794625E-2,-7.077422E-2,2.677881E-3],"categories":[],"categories_nodes":[],"categories_segments":[],"categories_sizes":[],"default_left":[0,0,0,0,0,0,0,0,0,0,0],"id":41,"left_children":[1,3,-1,5,-1,7,-1,9,-1,-1,-1],"loss_changes":[5.114472E-1,8.67464E-1,0E0,8.9442813E-1,0E0,5.051571E-1,0E0,4.408971E-1,0E0,0E0,0E0],"parents":[2147483647,0,0,1,1,3,3,5,5,7,7],"right_children":[2,4,-1,6,-1,8,-1,10,-1,-1,-1],"split_conditions":[4.243902E0,3.909091E0,-3.8196385E-2,1E0,5.8909953E-2,5.6E1,3.821906E-2,2.7764706E2,1.0794625E-2,-7.077422E-2,2.677881E-3],"split_indices":[18,18,0,11,0,1,0,17,0,0,0],"split_type":[0,0,0,0,0,0,0,0,0,0,0],"sum_hessian":[9.848548E0,7.969822E0,1.8787261E0,6.3502603E0,1.6195617E0,4.5045342E0,1.845726E0,2.9283469E0,1.5761875E0,1.8870423E0,1.0413045E0],"tree_param":{"num_deleted":"0","num_feature":"20","num_nodes":"11","size_leaf_vector":"1"}},{"base_weights":[-1.54416235E-2,-1.3332166E-1,3.2814264E-2,7.1308754E-2,-5.6532748E-2,-1.8189198E-1,5.719615E-2,6.4024225E-2,-5.6970842E-2,-2.4478003E-1,5.0845433E-2,-5.7780266E-2,2.1040788E-2],"categories":[],"categories_nodes":[],"categories_segments":[],"categories_sizes":[],"default_left":[0,0,0,0,0,0,0,0,0,0,0,0,0],"id":42,"left_children":[1,3,-1,5,-1,7,-1,9,-1,11,-1,-1,-1],"loss_changes":[4.77218E-1,8.076076E-1,0E0,9.632267E-1,0E0,5.381249E-1,0E0,6.896041E-1,0E0,5.922079E-1,0E0,0E0,0E0],"parents":[2147483647,0,0,1,1,3,3,5,5,7,7,9,9],"right_children":[2,4,-1,6,-1,8,-1,10,-1,12,-1,-1,-1],"split_conditions":[4.351396E2,5.1666665E0,3.2814264E-2,2.0075471E2,-5.6532748E-2,2.6944444E0,5.719615E-2,4.0816326E0,-5.6970842E-2,4.8E1,5.0845433E-2,-5.7780266E-2,2.1040788E-2],"split_indices":[17,16,0,17,0,16,0,18,0,13,0,0,0],"split_type":[0,0,0,0,0,0,0,0,0,0,0,0,0],"sum_hessian":[9.702496E0,7.6796565E0,2.0228386E0,5.7777944E0,1.9018621E0,4.260018E0,1.5177765E0,3.117872E0,1.1421461E0,2.104692E0,1.01318E0,1.0598887E0,1.0448031E0],"tree_param":{"num_deleted":"0","num_feature":"20","num_nodes":"13","size_leaf_vector":"1"}},{"base_weights":[-1.5519707E-2,9.9428535E-2,-3.6608636E-2,-7.6281294E-2,5.41403E-2,-2.8691593E-1,3.4582324E-2,-4.401218E-2,1.7069137E-2],"categories":[],"categories_nodes":[],"categories_segments":[],"categories_sizes":[],"default_left":[0,0,0,0,0,0,0,0,0],"id":43,"left_children":[1,3,-1,5,-1,7,-1,-1,-1],"loss_changes":[4.617577E-1,7.1969354E-1,0E0,7.328894E-1,0E0,4.4677305E-1,0E0,0E0,0E0],"parents":[2147483647,0,0,1,1,3,3,5,5],"right_children":[2,4,-1,6,-1,8,-1,-1,-1],"split_conditions":[4.243902E0,3.909091E0,-3.6608636E-2,1E0,5.41403E-2,1E0,3.4582324E-2,-4.401218E-2,1.7069137E-2],"split_indices":[18,18,0,11,0,8,0,0,0],"split_type":[0,0,0,0,0,0,0,0,0],"sum_hessian":[9.555575E0,7.7355294E0,1.8200458E0,6.1270776E0,1.6084517E0,4.3010707E0,1.826007E0,3.2508905E0,1.05018E0],"tree_param":{"num_deleted":"0","num_feature":"20","num_nodes":"9","size_leaf_vector":"1"}},{"base_weights":[-1.2042151E-2,1.4225388E-1,-2.6548266E-1,-6.555132E-2,6.306242E-2,8.498359E-3,-5.19343E-2,3.652823E-2,-3.5127777E-1,-3.2880106E-3,-6.026568E-2],"categories":[],"categories_nodes":[],"categories_segments":[],"categories_sizes":[],"default_left":[0,0,0,0,0,0,0,0,0,0,0],"id":44,"left_children":[1,3,5,7,-1,-1,-1,-1,9,-1,-1],"loss_changes":[4.455317E-1,7.6519907E-1,4.2624795E-1,8.557673E-1,0E0,0E0,0E0,0E0,3.0536658E-1,0E0,0E0],"parents":[2147483647,0,0,1,1,2,2,3,3,8,8],"right_children":[2,4,6,8,-1,-1,-1,-1,10,-1,-1],"split_conditions":[2.261E1,2.25E1,7.5E0,1.875E1,6.306242E-2,8.498359E-3,-5.19343E-2,3.652823E-2,4.0689654E0,-3.2880106E-3,-6.026568E-2],"split_indices":[2,14,14,2,0,0,0,0,16,0,0],"split_type":[0,0,0,0,0,0,0,0,0,0,0],"sum_hessian":[9.427494E0,6.1326256E0,3.2948685E0,4.9094105E0,1.2232153E0,1.6635264E0,1.631342E0,1.8465899E0,3.0628204E0,1.8501774E0,1.2126431E0],"tree_param":{"num_deleted":"0","num_feature":"20","num_nodes":"11","size_leaf_vector":"1"}},{"base_weights":[-1.20456E-2,-2.8529024E-1,1.2844576E-1,-6.2279828E-2,1.6889557E-2,4.8810612E-2,-1.537064E-1,-4.7229525E-2,3.206467E-2],"categories":[],"categories_nodes":[],"categories_segments":[],"categories_sizes":[],"default_left":[0,0,0,0,0,0,0,0,0],"id":45,"left_children":[1,3,5,-1,-1,-1,7,-1,-1],"loss_changes":[4.3292144E-1,6.901086E-1,8.3683383E-1,0E0,0E0,0E0,9.021216E-1,0E0,0E0],"parents":[2147483647,0,0,1,1,2,2,6,6],"right_children":[2,4,6,-1,-1,-1,8,-1,-1],"split_conditions":[1.5095401E2,5.6E1,4.097826E0,-6.2279828E-2,1.6889557E-2,4.8810612E-2,5.034843E2,-4.7229525E-2,3.206467E-2],"split_indices":[17,1,16,0,0,0,17,0,0],"split_type":[0,0,0,0,0,0,0,0,0],"sum_hessian":[9.322806E0,2.8157444E0,6.507062E0,1.4023839E0,1.4133606E0,2.5397253E0,3.9673364E0,2.375932E0,1.5914044E0],"tree_param":{"num_deleted":"0","num_feature":"20","num_nodes":"9","size_leaf_vector":"1"}},{"base_weights":[-1.2551604E-2,-1.8942063E-1,1.9204283E-1,-4.275956E-2,7.1357545E-3,-4.262099E-2,4.2312916E-2,4.9237046E-2,-3.124635E-1,2.7581258E-2,-2.9395208E-2,-5.6980398E-2,1.1825463E-2],"categories":[],"categories_nodes":[],"categories_segments":[],"categories_sizes":[],"default_left":[0,0,0,0,0,0,0,0,0,0,0,0,0],"id":46,"left_children":[1,3,5,-1,7,9,-1,-1,11,-1,-1,-1,-1],"loss_changes":[4.063999E-1,2.8336763E-1,3.020618E-1,0E0,8.151254E-1,3.617665E-1,0E0,0E0,4.2014375E-1,0E0,0E0,0E0,0E0],"parents":[2147483647,0,0,1,1,2,2,4,4,5,5,8,8],"right_children":[2,4,6,-1,8,10,-1,-1,12,-1,-1,-1,-1],"split_conditions":[1E0,2.2906976E0,2.101E1,-4.275956E-2,3.1886792E0,1.863E1,4.2312916E-2,4.9237046E-2,5.6E1,2.7581258E-2,-2.9395208E-2,-5.6980398E-2,1.1825463E-2],"split_indices":[5,16,2,0,16,2,0,0,1,0,0,0,0],"split_type":[0,0,0,0,0,0,0,0,0,0,0,0,0],"sum_hessian":[9.225467E0,4.9877725E0,4.2376947E0,1.7236838E0,3.2640889E0,2.507221E0,1.7304735E0,1.0815015E0,2.1825874E0,1.0630023E0,1.4442186E0,1.1641364E0,1.0184509E0],"tree_param":{"num_deleted":"0","num_feature":"20","num_nodes":"13","size_leaf_vector":"1"}},{"base_weights":[-1.1605534E-2,1.344096E-1,-2.5177678E-1,-7.356352E-2,5.708779E-2,8.2702255E-3,-5.0051183E-2,2.8157735E-2,-3.364051E-1,-1.8194633E-3,-5.6814738E-2],"categories":[],"categories_nodes":[],"categories_segments":[],"categories_sizes":[],"default_left":[0,0,0,0,0,0,0,0,0,0,0],"id":47,"left_children":[1,3,5,7,-1,-1,-1,-1,9,-1,-1],"loss_changes":[3.8850367E-1,6.7210287E-1,3.8847846E-1,6.1626667E-1,0E0,0E0,0E0,0E0,2.6003987E-1,0E0,0E0],"parents":[2147483647,0,0,1,1,2,2,3,3,8,8],"right_children":[2,4,6,8,-1,-1,-1,-1,10,-1,-1],"split_conditions":[2.261E1,2.166E1,7.5E0,1.875E1,5.708779E-2,8.2702255E-3,-5.0051183E-2,2.8157735E-2,4.0689654E0,-1.8194633E-3,-5.6814738E-2],"split_indices":[2,2,14,2,0,0,0,0,16,0,0],"split_type":[0,0,0,0,0,0,0,0,0,0,0],"sum_hessian":[9.1133795E0,5.9415183E0,3.1718616E0,4.5872116E0,1.3543067E0,1.6374536E0,1.5344081E0,1.9207246E0,2.6664867E0,1.5780896E0,1.0883973E0],"tree_param":{"num_deleted":"0","num_feature":"20","num_nodes":"11","size_leaf_vector":"1"}},{"base_weights":[-1.238931E-2,-2.834424E-1,1.255861E-1,-5.9830874E-2,1.3498738E-2,4.1021988E-2,-1.6491461E-1,-5.3103812E-2,2.9367266E-2],"categories":[],"categories_nodes":[],"categories_segments":[],"categories_sizes":[],"default_left":[0,0,0,0,0,0,0,0,0],"id":48,"left_children":[1,3,5,-1,-1,-1,7,-1,-1],"loss_changes":[4.1068697E-1,5.6695104E-1,6.7450917E-1,0E0,0E0,0E0,8.8555294E-1,0E0,0E0],"parents":[2147483647,0,0,1,1,2,2,6,6],"right_children":[2,4,6,-1,-1,-1,8,-1,-1],"split_conditions":[1.5095401E2,5.6E1,5.1666665E0,-5.9830874E-2,1.3498738E-2,4.1021988E-2,5.034843E2,-5.3103812E-2,2.9367266E-2],"split_indices":[17,1,16,0,0,0,17,0,0],"split_type":[0,0,0,0,0,0,0,0,0],"sum_hessian":[9.029517E0,2.690239E0,6.3392787E0,1.2897888E0,1.40045E0,2.9938142E0,3.3454645E0,1.7724233E0,1.5730412E0],"tree_param":{"num_deleted":"0","num_feature":"20","num_nodes":"9","size_leaf_vector":"1"}},{"base_weights":[-1.4622558E-2,-2.1475393E-1,1.659511E-1,4.7949534E-2,-5.8244605E-2,-2.8556306E-2,4.0627456E-1,-2.8554155E-2,2.912235E-2,6.3986614E-2,-1.8030284E-3],"categories":[],"categories_nodes":[],"categories_segments":[],"categories_sizes":[],"default_left":[0,0,0,0,0,0,0,0,0,0,0],"id":49,"left_children":[1,3,5,7,-1,-1,9,-1,-1,-1,-1],"loss_changes":[3.9456415E-1,5.250751E-1,7.437644E-1,4.0166378E-1,0E0,0E0,4.2666113E-1,0E0,0E0,0E0,0E0],"parents":[2147483647,0,0,1,1,2,2,3,3,6,6],"right_children":[2,4,6,8,-1,-1,10,-1,-1,-1,-1],"split_conditions":[2.1197194E2,2.6944444E0,1E0,1.1E1,-5.8244605E-2,-2.8556306E-2,2.665226E6,-2.8554155E-2,2.912235E-2,6.3986614E-2,-1.8030284E-3],"split_indices":[17,16,4,13,0,0,19,0,0,0,0],"split_type":[0,0,0,0,0,0,0,0,0,0,0],"sum_hessian":[8.931956E0,4.146769E0,4.7851872E0,2.9259038E0,1.2208651E0,1.5968387E0,3.1883485E0,1.1608344E0,1.7650694E0,1.7286468E0,1.4597019E0],"tree_param":{"num_deleted":"0","num_feature":"20","num_nodes":"11","size_leaf_vector":"1"}},{"base_weights":[-1.5957909E-2,-1.8738426E-2,1.8196702E-1,-1.415844E-2,3.2041198E-1,4.8861958E-2,-6.1037354E-3],"categories":[],"categories_nodes":[],"categories_segments":[],"categories_sizes":[],"default_left":[0,0,0,0,0,0,0],"id":50,"left_children":[1,-1,3,-1,5,-1,-1],"loss_changes":[3.6782014E-1,0E0,2.7257788E-1,0E0,2.7741617E-1,0E0,0E0],"parents":[2147483647,0,0,2,2,4,4],"right_children":[2,-1,4,-1,6,-1,-1],"split_conditions":[1E0,-1.8738426E-2,2.371134E2,-1.415844E-2,5.7E1,4.8861958E-2,-6.1037354E-3],"split_indices":[5,0,17,0,1,0,0],"split_type":[0,0,0,0,0,0,0],"sum_hessian":[8.835746E0,4.7633653E0,4.0723805E0,1.2135617E0,2.8588188E0,1.7889782E0,1.0698406E0],"tree_param":{"num_deleted":"0","num_feature":"20","num_nodes":"7","size_leaf_vector":"1"}},{"base_weights":[-1.3488088E-2,9.0777785E-2,-3.2801162E-2,-7.384632E-2,4.8936784E-2,-2.6878372E-1,3.0742103E-2,-4.5121968E-2,8.7166475E-3],"categories":[],"categories_nodes":[],"categories_segments":[],"categories_sizes":[],"default_left":[0,0,0,0,0,0,0,0,0],"id":51,"left_children":[1,3,-1,5,-1,7,-1,-1,-1],"loss_changes":[3.499584E-1,5.6868076E-1,0E0,5.740944E-1,0E0,3.5810935E-1,0E0,0E0,0E0],"parents":[2147483647,0,0,1,1,3,3,5,5],"right_children":[2,4,-1,6,-1,8,-1,-1,-1],"split_conditions":[4.243902E0,3.909091E0,-3.2801162E-2,1E0,4.8936784E-2,5.6E1,3.0742103E-2,-4.5121968E-2,8.7166475E-3],"split_indices":[18,18,0,11,0,1,0,0,0],"split_type":[0,0,0,0,0,0,0,0,0],"sum_hessian":[8.763419E0,7.115861E0,1.6475581E0,5.612528E0,1.5033331E0,3.908953E0,1.7035749E0,2.4074228E0,1.5015302E0],"tree_param":{"num_deleted":"0","num_feature":"20","num_nodes":"9","size_leaf_vector":"1"}},{"base_weights":[-1.1407742E-2,-2.5889423E-1,1.1319191E-1,-5.655087E-2,1.2552745E-2,4.1936383E-2,-1.4063197E-1,-4.27791E-2,2.6180381E-2],"categories":[],"categories_nodes":[],"categories_segments":[],"categories_sizes":[],"default_left":[0,0,0,0,0,0,0,0,0],"id":52,"left_children":[1,3,5,-1,-1,-1,7,-1,-1],"loss_changes":[3.2743153E-1,4.884421E-1,6.1278206E-1,0E0,0E0,0E0,6.4879507E-1,0E0,0E0],"parents":[2147483647,0,0,1,1,2,2,6,6],"right_children":[2,4,6,-1,-1,-1,8,-1,-1],"split_conditions":[1.5095401E2,5.6E1,4.097826E0,-5.655087E-2,1.2552745E-2,4.1936383E-2,5.034843E2,-4.27791E-2,2.6180381E-2],"split_indices":[17,1,16,0,0,0,17,0,0],"split_type":[0,0,0,0,0,0,0,0,0],"sum_hessian":[8.667911E0,2.5416803E0,6.1262302E0,1.151879E0,1.3898014E0,2.4811678E0,3.6450624E0,2.0904279E0,1.5546343E0],"tree_param":{"num_deleted":"0","num_feature":"20","num_nodes":"9","size_leaf_vector":"1"}},{"base_weights":[-1.2630707E-2,-2.6297343E-1,1.08146854E-1,1.1666475E-2,-4.8379667E-2,5.1791497E-2,-7.694166E-2,1.02098346E-1,-4.2995658E-2,-2.1131553E-2,5.005281E-2],"categories":[],"categories_nodes":[],"categories_segments":[],"categories_sizes":[],"default_left":[0,0,0,0,0,0,0,0,0,0,0],"id":53,"left_children":[1,3,5,-1,-1,-1,7,9,-1,-1,-1],"loss_changes":[3.184266E-1,3.4253502E-1,5.842677E-1,0E0,0E0,0E0,4.114511E-1,6.8849903E-1,0E0,0E0,0E0],"parents":[2147483647,0,0,1,1,2,2,6,6,7,7],"right_children":[2,4,6,-1,-1,-1,8,10,-1,-1,-1],"split_conditions":[3.9E1,2.054E1,4.5E1,1.1666475E-2,-4.8379667E-2,5.1791497E-2,2.417389E6,2.1197194E2,-4.2995658E-2,-2.1131553E-2,5.005281E-2],"split_indices":[1,2,1,0,0,0,19,17,0,0,0],"split_type":[0,0,0,0,0,0,0,0,0,0,0],"sum_hessian":[8.59085E0,2.4126573E0,6.1781926E0,1.0607331E0,1.3519242E0,1.3628259E0,4.8153667E0,3.6665628E0,1.1488038E0,2.31509E0,1.351473E0],"tree_param":{"num_deleted":"0","num_feature":"20","num_nodes":"11","size_leaf_vector":"1"}},{"base_weights":[-1.1627316E-2,-1.7451515E-2,1.7279828E-1,-5.8580298E-2,3.9371397E-2,2.134437E-2,-2.967987E-2],"categories":[],"categories_nodes":[],"categories_segments":[],"categories_sizes":[],"default_left":[0,0,0,0,0,0,0],"id":54,"left_children":[1,-1,3,5,-1,-1,-1],"loss_changes":[3.1549215E-1,0E0,2.7644825E-1,2.7665624E-1,0E0,0E0,0E0],"parents":[2147483647,0,0,2,2,3,3],"right_children":[2,-1,4,6,-1,-1,-1],"split_conditions":[1E0,-1.7451515E-2,2.101E1,1.08E2,3.9371397E-2,2.134437E-2,-2.967987E-2],"split_indices":[5,0,2,13,0,0,0],"split_type":[0,0,0,0,0,0,0],"sum_hessian":[8.498326E0,4.5411987E0,3.9571276E0,2.2917092E0,1.6654184E0,1.1184919E0,1.1732172E0],"tree_param":{"num_deleted":"0","num_feature":"20","num_nodes":"7","size_leaf_vector":"1"}},{"base_weights":[-9.176355E-3,8.978445E-2,-3.0870602E-2,-6.457607E-2,4.5196302E-2,-2.8658652E-1,2.3869405E-2,1.9388748E-3,-5.861128E-2],"categories":[],"categories_nodes":[],"categories_segments":[],"categories_sizes":[],"default_left":[0,0,0,0,0,0,0,0,0],"id":55,"left_children":[1,3,-1,5,-1,7,-1,-1,-1],"loss_changes":[3.073292E-1,4.68896E-1,0E0,4.9862275E-1,0E0,3.9110833E-1,0E0,0E0,0E0],"parents":[2147483647,0,0,1,1,3,3,5,5],"right_children":[2,4,-1,6,-1,8,-1,-1,-1],"split_conditions":[4.243902E0,3.909091E0,-3.0870602E-2,1E0,4.5196302E-2,2.71875E0,2.3869405E-2,1.9388748E-3,-5.861128E-2],"split_indices":[18,18,0,15,0,18,0,0,0],"split_type":[0,0,0,0,0,0,0,0,0],"sum_hessian":[8.43307E0,6.8651576E0,1.5679126E0,5.389748E0,1.4754099E0,3.1435258E0,2.246222E0,2.0176764E0,1.1258496E0],"tree_param":{"num_deleted":"0","num_feature":"20","num_nodes":"9","size_leaf_vector":"1"}},{"base_weights":[-1.0548954E-2,-2.5373942E-1,1.0658083E-1,1.1292498E-2,-4.686483E-2,-6.836923E-2,5.209365E-2,-3.915454E-2,1.2959008E-1,5.1549703E-2,-2.1632798E-2],"categories":[],"categories_nodes":[],"categories_segments":[],"categories_sizes":[],"default_left":[0,0,0,0,0,0,0,0,0,0,0],"id":56,"left_children":[1,3,5,-1,-1,7,-1,-1,9,-1,-1],"loss_changes":[2.934763E-1,3.1582412E-1,5.4429936E-1,0E0,0E0,4.2294553E-1,0E0,0E0,6.9344115E-1,0E0,0E0],"parents":[2147483647,0,0,1,1,2,2,5,5,8,8],"right_children":[2,4,6,-1,-1,8,-1,-1,10,-1,-1],"split_conditions":[3.9E1,2.054E1,2.5E1,1.1292498E-2,-4.686483E-2,1.5095401E2,5.209365E-2,-3.915454E-2,5.1666665E0,5.1549703E-2,-2.1632798E-2],"split_indices":[1,2,14,0,0,17,0,0,16,0,0],"split_type":[0,0,0,0,0,0,0,0,0,0,0],"sum_hessian":[8.353485E0,2.3363445E0,6.0171404E0,1.0387083E0,1.297636E0,4.817911E0,1.1992292E0,1.4586692E0,3.359242E0,1.3561213E0,2.0031207E0],"tree_param":{"num_deleted":"0","num_feature":"20","num_nodes":"11","size_leaf_vector":"1"}},{"base_weights":[-9.055601E-3,-1.6742228E-2,1.6968846E-1,-5.4805435E-2,3.807923E-2,2.0570947E-2,-2.840711E-2],"categories":[],"categories_nodes":[],"categories_segments":[],"categories_sizes":[],"default_left":[0,0,0,0,0,0,0],"id":57,"left_children":[1,-1,3,5,-1,-1,-1],"loss_changes":[2.9106554E-1,0E0,2.509837E-1,2.5119662E-1,0E0,0E0,0E0],"parents":[2147483647,0,0,2,2,3,3],"right_children":[2,-1,4,6,-1,-1,-1],"split_conditions":[1E0,-1.6742228E-2,2.101E1,1.08E2,3.807923E-2,2.0570947E-2,-2.840711E-2],"split_indices":[5,0,2,13,0,0,0],"split_type":[0,0,0,0,0,0,0],"sum_hessian":[8.278798E0,4.4231987E0,3.8555994E0,2.2273536E0,1.628246E0,1.0907167E0,1.1366367E0],"tree_param":{"num_deleted":"0","num_feature":"20","num_nodes":"7","size_leaf_vector":"1"}},{"base_weights":[-6.8101184E-3,9.0218045E-2,-2.9956723E-2,-3.0029705E-2,2.1949154E-1,3.81405E-1,-9.9043595E-3,-6.1822403E-3,5.7738144E-2],"categories":[],"categories_nodes":[],"categories_segments":[],"categories_sizes":[],"default_left":[0,0,0,0,0,0,0,0,0],"id":58,"left_children":[1,3,-1,-1,5,7,-1,-1,-1],"loss_changes":[2.88885E-1,4.5424646E-1,0E0,0E0,3.65636E-1,4.196928E-1,0E0,0E0,0E0],"parents":[2147483647,0,0,1,1,4,4,5,5],"right_children":[2,4,-1,-1,6,8,-1,-1,-1],"split_conditions":[4.243902E0,1.8735632E0,-2.9956723E-2,-3.0029705E-2,6.4E1,1.1E1,-9.9043595E-3,-6.1822403E-3,5.7738144E-2],"split_indices":[18,18,0,0,13,13,0,0,0],"split_type":[0,0,0,0,0,0,0,0,0],"sum_hessian":[8.218529E0,6.69233E0,1.5261983E0,1.335384E0,5.356946E0,3.420773E0,1.936173E0,1.2586673E0,2.1621058E0],"tree_param":{"num_deleted":"0","num_feature":"20","num_nodes":"9","size_leaf_vector":"1"}},{"base_weights":[-8.281237E-3,-1.6258104E-1,1.8232015E-1,1.3387573E-2,-4.9400106E-2,-1.1393197E-2,5.9657574E-2],"categories":[],"categories_nodes":[],"categories_segments":[],"categories_sizes":[],"default_left":[0,0,0,0,0,0,0],"id":59,"left_children":[1,3,5,-1,-1,-1,-1],"loss_changes":[2.9849032E-1,6.1442184E-1,6.2771875E-1,0E0,0E0,0E0,0E0],"parents":[2147483647,0,0,1,1,2,2],"right_children":[2,4,6,-1,-1,-1,-1],"split_conditions":[1E0,2.6944444E0,1E0,1.3387573E-2,-4.9400106E-2,-1.1393197E-2,5.9657574E-2],"split_indices":[4,16,9,0,0,0,0],"split_type":[0,0,0,0,0,0,0],"sum_hessian":[8.141474E0,4.5804324E0,3.5610416E0,2.7323694E0,1.848063E0,2.4989243E0,1.0621173E0],"tree_param":{"num_deleted":"0","num_feature":"20","num_nodes":"7","size_leaf_vector":"1"}},{"base_weights":[-6.331353E-3,-1.9161461E-1,1.5965275E-1,4.017229E-2,-5.276535E-2,-2.591219E-2,3.8129994E-1,-2.3388712E-2,2.9952303E-2,5.8189522E-2,-6.4439554E-4],"categories":[],"categories_nodes":[],"categories_segments":[],"categories_sizes":[],"default_left":[0,0,0,0,0,0,0,0,0,0,0],"id":60,"left_children":[1,3,5,7,-1,-1,9,-1,-1,-1,-1],"loss_changes":[3.1022662E-1,3.9125192E-1,5.9461E-1,3.35949E-1,0E0,0E0,3.0689526E-1,0E0,0E0,0E0,0E0],"parents":[2147483647,0,0,1,1,2,2,3,3,6,6],"right_children":[2,4,6,8,-1,-1,10,-1,-1,-1,-1],"split_conditions":[2.1197194E2,2.6944444E0,1E0,1.158623E2,-5.276535E-2,-2.591219E-2,2.665226E6,-2.3388712E-2,2.9952303E-2,5.8189522E-2,-6.4439554E-4],"split_indices":[17,16,4,17,0,0,19,0,0,0,0],"split_type":[0,0,0,0,0,0,0,0,0,0,0],"sum_hessian":[8.09261E0,3.751029E0,4.341581E0,2.740908E0,1.0101211E0,1.4440866E0,2.8974943E0,1.3804014E0,1.3605065E0,1.5795896E0,1.3179048E0],"tree_param":{"num_deleted":"0","num_feature":"20","num_nodes":"11","size_leaf_vector":"1"}},{"base_weights":[-7.5194766E-3,-1.667974E-2,1.7127953E-2],"categories":[],"categories_nodes":[],"categories_segments":[],"categories_sizes":[],"default_left":[0,0,0],"id":61,"left_children":[1,-1,-1],"loss_changes":[2.8521016E-1,0E0,0E0],"parents":[2147483647,0,0],"right_children":[2,-1,-1],"split_conditions":[1E0,-1.667974E-2,1.7127953E-2],"split_indices":[5,0,0],"split_type":[0,0,0],"sum_hessian":[8.011677E0,4.2726417E0,3.7390354E0],"tree_param":{"num_deleted":"0","num_feature":"20","num_nodes":"3","size_leaf_vector":"1"}},{"base_weights":[-6.785519E-3,-1.7972846E-1,1.4714612E-1,-3.5791546E-1,1.6056342E-2,-2.4825448E-2,3.561224E-1,-5.785921E-2,-4.960494E-4,5.5293895E-2,-1.3828933E-3],"categories":[],"categories_nodes":[],"categories_segments":[],"categories_sizes":[],"default_left":[0,0,0,0,0,0,0,0,0,0,0],"id":62,"left_children":[1,3,5,7,-1,-1,9,-1,-1,-1,-1],"loss_changes":[2.65542E-1,3.4122133E-1,5.2648395E-1,2.6047707E-1,0E0,0E0,2.9010653E-1,0E0,0E0,0E0,0E0],"parents":[2147483647,0,0,1,1,2,2,3,3,6,6],"right_children":[2,4,6,8,-1,-1,10,-1,-1,-1,-1],"split_conditions":[2.1197194E2,4.131579E0,1E0,4.8E1,1.6056342E-2,-2.4825448E-2,2.665226E6,-5.785921E-2,-4.960494E-4,5.5293895E-2,-1.3828933E-3],"split_indices":[17,18,4,13,0,0,19,0,0,0,0],"split_type":[0,0,0,0,0,0,0,0,0,0,0],"sum_hessian":[7.981335E0,3.6796474E0,4.3016877E0,2.3810623E0,1.298585E0,1.4224112E0,2.8792765E0,1.0717169E0,1.3093454E0,1.5565535E0,1.322723E0],"tree_param":{"num_deleted":"0","num_feature":"20","num_nodes":"11","size_leaf_vector":"1"}},{"base_weights":[-7.7791614E-3],"categories":[],"categories_nodes":[],"categories_segments":[],"categories_sizes":[],"default_left":[0],"id":63,"left_children":[-1],"loss_changes":[0E0],"parents":[2147483647],"right_children":[-1],"split_conditions":[-7.7791617E-4],"split_indices":[0],"split_type":[0],"sum_hessian":[7.909803E0],"tree_param":{"num_deleted":"0","num_feature":"20","num_nodes":"1","size_leaf_vector":"1"}},{"base_weights":[-7.0903813E-3],"categories":[],"categories_nodes":[],"categories_segments":[],"categories_sizes":[],"default_left":[0],"id":64,"left_children":[-1],"loss_changes":[0E0],"parents":[2147483647],"right_children":[-1],"split_conditions":[-7.0903817E-4],"split_indices":[0],"split_type":[0],"sum_hessian":[7.9076E0],"tree_param":{"num_deleted":"0","num_feature":"20","num_nodes":"1","size_leaf_vector":"1"}},{"base_weights":[-6.4624622E-3],"categories":[],"categories_nodes":[],"categories_segments":[],"categories_sizes":[],"default_left":[0],"id":65,"left_children":[-1],"loss_changes":[0E0],"parents":[2147483647],"right_children":[-1],"split_conditions":[-6.4624625E-4],"split_indices":[0],"split_type":[0],"sum_hessian":[7.905593E0],"tree_param":{"num_deleted":"0","num_feature":"20","num_nodes":"1","size_leaf_vector":"1"}},{"base_weights":[-5.890027E-3],"categories":[],"categories_nodes":[],"categories_segments":[],"categories_sizes":[],"default_left":[0],"id":66,"left_children":[-1],"loss_changes":[0E0],"parents":[2147483647],"right_children":[-1],"split_conditions":[-5.8900274E-4],"split_indices":[0],"split_type":[0],"sum_hessian":[7.9037642E0],"tree_param":{"num_deleted":"0","num_feature":"20","num_nodes":"1","size_leaf_vector":"1"}},{"base_weights":[-5.3682905E-3],"categories":[],"categories_nodes":[],"categories_segments":[],"categories_sizes":[],"default_left":[0],"id":67,"left_children":[-1],"loss_changes":[0E0],"parents":[2147483647],"right_children":[-1],"split_conditions":[-5.3682906E-4],"split_indices":[0],"split_type":[0],"sum_hessian":[7.9020996E0],"tree_param":{"num_deleted":"0","num_feature":"20","num_nodes":"1","size_leaf_vector":"1"}},{"base_weights":[-4.892607E-3],"categories":[],"categories_nodes":[],"categories_segments":[],"categories_sizes":[],"default_left":[0],"id":68,"left_children":[-1],"loss_changes":[0E0],"parents":[2147483647],"right_children":[-1],"split_conditions":[-4.892607E-4],"split_indices":[0],"split_type":[0],"sum_hessian":[7.900582E0],"tree_param":{"num_deleted":"0","num_feature":"20","num_nodes":"1","size_leaf_vector":"1"}},{"base_weights":[-4.459086E-3,8.737077E-2,-2.8039971E-2,-2.9095223E-2,2.1201624E-1,3.6926252E-1,-1.0140565E-2,-3.6336025E-4,5.8473397E-2],"categories":[],"categories_nodes":[],"categories_segments":[],"categories_sizes":[],"default_left":[0,0,0,0,0,0,0,0,0],"id":69,"left_children":[1,3,-1,-1,5,7,-1,-1,-1],"loss_changes":[2.500008E-1,4.125083E-1,0E0,0E0,3.417451E-1,3.4979331E-1,0E0,0E0,0E0],"parents":[2147483647,0,0,1,1,4,4,5,5],"right_children":[2,4,-1,-1,6,8,-1,-1,-1],"split_conditions":[4.243902E0,1.8735632E0,-2.8039971E-2,-2.9095223E-2,5.1666665E0,1.5095401E2,-1.0140565E-2,-3.6336025E-4,5.8473397E-2],"split_indices":[18,18,0,0,16,17,0,0,0],"split_type":[0,0,0,0,0,0,0,0,0],"sum_hessian":[7.8992E0,6.43956E0,1.4596401E0,1.265199E0,5.1743608E0,3.327009E0,1.8473518E0,1.5784576E0,1.7485515E0],"tree_param":{"num_deleted":"0","num_feature":"20","num_nodes":"9","size_leaf_vector":"1"}},{"base_weights":[-5.129651E-3,-2.4105674E-1,1.06208704E-1,9.494499E-3,-4.438017E-2,-2.6785925E-2,2.6318508E-1,6.2016416E-2,2.1544795E-2,2.7647732E-2,-3.82029E-2],"categories":[],"categories_nodes":[],"categories_segments":[],"categories_sizes":[],"default_left":[0,0,0,0,0,0,0,0,0,0,0],"id":70,"left_children":[1,3,5,-1,-1,-1,7,-1,9,-1,-1],"loss_changes":[2.573087E-1,2.5563094E-1,4.6315506E-1,0E0,0E0,0E0,4.3646276E-1,0E0,5.321509E-1,0E0,0E0],"parents":[2147483647,0,0,1,1,2,2,6,6,8,8],"right_children":[2,4,6,-1,-1,-1,8,-1,10,-1,-1],"split_conditions":[3.9E1,2.093E1,2.2214286E0,9.494499E-3,-4.438017E-2,-2.6785925E-2,4.5E1,6.2016416E-2,2.417389E6,2.7647732E-2,-3.82029E-2],"split_indices":[1,2,16,0,0,0,1,0,19,0,0],"split_type":[0,0,0,0,0,0,0,0,0,0,0],"sum_hessian":[7.82095E0,2.1339679E0,5.686982E0,1.0031638E0,1.1308041E0,1.472267E0,4.214715E0,1.0689951E0,3.14572E0,2.1209009E0,1.024819E0],"tree_param":{"num_deleted":"0","num_feature":"20","num_nodes":"11","size_leaf_vector":"1"}},{"base_weights":[-6.0181147E-3,-1.0604537E-1,2.5742177E-2,-2.981331E-1,1.8002346E-1,-1.4244547E-3,-5.9011288E-2,4.784559E-2,-1.890418E-2],"categories":[],"categories_nodes":[],"categories_segments":[],"categories_sizes":[],"default_left":[0,0,0,0,0,0,0,0,0],"id":71,"left_children":[1,3,-1,5,7,-1,-1,-1,-1],"loss_changes":[2.579559E-1,4.4121057E-1,0E0,3.725429E-1,4.7117192E-1,0E0,0E0,0E0,0E0],"parents":[2147483647,0,0,1,1,3,3,4,4],"right_children":[2,4,-1,6,8,-1,-1,-1,-1],"split_conditions":[4.351396E2,5.6E1,2.5742177E-2,6.4E1,2.71875E0,-1.4244547E-3,-5.9011288E-2,4.784559E-2,-1.890418E-2],"split_indices":[17,1,0,13,18,0,0,0,0],"split_type":[0,0,0,0,0,0,0,0,0],"sum_hessian":[7.7532167E0,6.0525446E0,1.7006724E0,3.5958517E0,2.456693E0,2.3549483E0,1.2409034E0,1.1944451E0,1.2622478E0],"tree_param":{"num_deleted":"0","num_feature":"20","num_nodes":"9","size_leaf_vector":"1"}},{"base_weights":[-6.369147E-3],"categories":[],"categories_nodes":[],"categories_segments":[],"categories_sizes":[],"default_left":[0],"id":72,"left_children":[-1],"loss_changes":[0E0],"parents":[2147483647],"right_children":[-1],"split_conditions":[-6.369147E-4],"split_indices":[0],"split_type":[0],"sum_hessian":[7.688263E0],"tree_param":{"num_deleted":"0","num_feature":"20","num_nodes":"1","size_leaf_vector":"1"}},{"base_weights":[-5.806766E-3],"categories":[],"categories_nodes":[],"categories_segments":[],"categories_sizes":[],"default_left":[0],"id":73,"left_children":[-1],"loss_changes":[0E0],"parents":[2147483647],"right_children":[-1],"split_conditions":[-5.806766E-4],"split_indices":[0],"split_type":[0],"sum_hessian":[7.68656E0],"tree_param":{"num_deleted":"0","num_feature":"20","num_nodes":"1","size_leaf_vector":"1"}},{"base_weights":[-5.293893E-3],"categories":[],"categories_nodes":[],"categories_segments":[],"categories_sizes":[],"default_left":[0],"id":74,"left_children":[-1],"loss_changes":[0E0],"parents":[2147483647],"right_children":[-1],"split_conditions":[-5.293893E-4],"split_indices":[0],"split_type":[0],"sum_hessian":[7.685008E0],"tree_param":{"num_deleted":"0","num_feature":"20","num_nodes":"1","size_leaf_vector":"1"}},{"base_weights":[-4.8263245E-3],"categories":[],"categories_nodes":[],"categories_segments":[],"categories_sizes":[],"default_left":[0],"id":75,"left_children":[-1],"loss_changes":[0E0],"parents":[2147483647],"right_children":[-1],"split_conditions":[-4.8263246E-4],"split_indices":[0],"split_type":[0],"sum_hessian":[7.6835947E0],"tree_param":{"num_deleted":"0","num_feature":"20","num_nodes":"1","size_leaf_vector":"1"}},{"base_weights":[-4.3999776E-3],"categories":[],"categories_nodes":[],"categories_segments":[],"categories_sizes":[],"default_left":[0],"id":76,"left_children":[-1],"loss_changes":[0E0],"parents":[2147483647],"right_children":[-1],"split_conditions":[-4.3999776E-4],"split_indices":[0],"split_type":[0],"sum_hessian":[7.6823063E0],"tree_param":{"num_deleted":"0","num_feature":"20","num_nodes":"1","size_leaf_vector":"1"}},{"base_weights":[-4.0112473E-3],"categories":[],"categories_nodes":[],"categories_segments":[],"categories_sizes":[],"default_left":[0],"id":77,"left_children":[-1],"loss_changes":[0E0],"parents":[2147483647],"right_children":[-1],"split_conditions":[-4.0112474E-4],"split_indices":[0],"split_type":[0],"sum_hessian":[7.6811323E0],"tree_param":{"num_deleted":"0","num_feature":"20","num_nodes":"1","size_leaf_vector":"1"}},{"base_weights":[-3.656818E-3],"categories":[],"categories_nodes":[],"categories_segments":[],"categories_sizes":[],"default_left":[0],"id":78,"left_children":[-1],"loss_changes":[0E0],"parents":[2147483647],"right_children":[-1],"split_conditions":[-3.656818E-4],"split_indices":[0],"split_type":[0],"sum_hessian":[7.680063E0],"tree_param":{"num_deleted":"0","num_feature":"20","num_nodes":"1","size_leaf_vector":"1"}},{"base_weights":[-3.3336505E-3],"categories":[],"categories_nodes":[],"categories_segments":[],"categories_sizes":[],"default_left":[0],"id":79,"left_children":[-1],"loss_changes":[0E0],"parents":[2147483647],"right_children":[-1],"split_conditions":[-3.3336505E-4],"split_indices":[0],"split_type":[0],"sum_hessian":[7.679087E0],"tree_param":{"num_deleted":"0","num_feature":"20","num_nodes":"1","size_leaf_vector":"1"}},{"base_weights":[-3.039075E-3],"categories":[],"categories_nodes":[],"categories_segments":[],"categories_sizes":[],"default_left":[0],"id":80,"left_children":[-1],"loss_changes":[0E0],"parents":[2147483647],"right_children":[-1],"split_conditions":[-3.0390752E-4],"split_indices":[0],"split_type":[0],"sum_hessian":[7.678199E0],"tree_param":{"num_deleted":"0","num_feature":"20","num_nodes":"1","size_leaf_vector":"1"}},{"base_weights":[-2.7704425E-3],"categories":[],"categories_nodes":[],"categories_segments":[],"categories_sizes":[],"default_left":[0],"id":81,"left_children":[-1],"loss_changes":[0E0],"parents":[2147483647],"right_children":[-1],"split_conditions":[-2.7704425E-4],"split_indices":[0],"split_type":[0],"sum_hessian":[7.6773887E0],"tree_param":{"num_deleted":"0","num_feature":"20","num_nodes":"1","size_leaf_vector":"1"}},{"base_weights":[-2.5255661E-3],"categories":[],"categories_nodes":[],"categories_segments":[],"categories_sizes":[],"default_left":[0],"id":82,"left_children":[-1],"loss_changes":[0E0],"parents":[2147483647],"right_children":[-1],"split_conditions":[-2.525566E-4],"split_indices":[0],"split_type":[0],"sum_hessian":[7.6766505E0],"tree_param":{"num_deleted":"0","num_feature":"20","num_nodes":"1","size_leaf_vector":"1"}},{"base_weights":[-2.3023323E-3],"categories":[],"categories_nodes":[],"categories_segments":[],"categories_sizes":[],"default_left":[0],"id":83,"left_children":[-1],"loss_changes":[0E0],"parents":[2147483647],"right_children":[-1],"split_conditions":[-2.3023323E-4],"split_indices":[0],"split_type":[0],"sum_hessian":[7.6759777E0],"tree_param":{"num_deleted":"0","num_feature":"20","num_nodes":"1","size_leaf_vector":"1"}},{"base_weights":[-2.0987552E-3],"categories":[],"categories_nodes":[],"categories_segments":[],"categories_sizes":[],"default_left":[0],"id":84,"left_children":[-1],"loss_changes":[0E0],"parents":[2147483647],"right_children":[-1],"split_conditions":[-2.0987552E-4],"split_indices":[0],"split_type":[0],"sum_hessian":[7.6753645E0],"tree_param":{"num_deleted":"0","num_feature":"20","num_nodes":"1","size_leaf_vector":"1"}},{"base_weights":[-1.9132253E-3],"categories":[],"categories_nodes":[],"categories_segments":[],"categories_sizes":[],"default_left":[0],"id":85,"left_children":[-1],"loss_changes":[0E0],"parents":[2147483647],"right_children":[-1],"split_conditions":[-1.9132253E-4],"split_indices":[0],"split_type":[0],"sum_hessian":[7.6748056E0],"tree_param":{"num_deleted":"0","num_feature":"20","num_nodes":"1","size_leaf_vector":"1"}},{"base_weights":[-1.744078E-3],"categories":[],"categories_nodes":[],"categories_segments":[],"categories_sizes":[],"default_left":[0],"id":86,"left_children":[-1],"loss_changes":[0E0],"parents":[2147483647],"right_children":[-1],"split_conditions":[-1.744078E-4],"split_indices":[0],"split_type":[0],"sum_hessian":[7.674297E0],"tree_param":{"num_deleted":"0","num_feature":"20","num_nodes":"1","size_leaf_vector":"1"}},{"base_weights":[-1.5898343E-3],"categories":[],"categories_nodes":[],"categories_segments":[],"categories_sizes":[],"default_left":[0],"id":87,"left_children":[-1],"loss_changes":[0E0],"parents":[2147483647],"right_children":[-1],"split_conditions":[-1.5898344E-4],"split_indices":[0],"split_type":[0],"sum_hessian":[7.673832E0],"tree_param":{"num_deleted":"0","num_feature":"20","num_nodes":"1","size_leaf_vector":"1"}},{"base_weights":[-1.4492645E-3],"categories":[],"categories_nodes":[],"categories_segments":[],"categories_sizes":[],"default_left":[0],"id":88,"left_children":[-1],"loss_changes":[0E0],"parents":[2147483647],"right_children":[-1],"split_conditions":[-1.4492645E-4],"split_indices":[0],"split_type":[0],"sum_hessian":[7.673409E0],"tree_param":{"num_deleted":"0","num_feature":"20","num_nodes":"1","size_leaf_vector":"1"}},{"base_weights":[-1.3210464E-3],"categories":[],"categories_nodes":[],"categories_segments":[],"categories_sizes":[],"default_left":[0],"id":89,"left_children":[-1],"loss_changes":[0E0],"parents":[2147483647],"right_children":[-1],"split_conditions":[-1.3210464E-4],"split_indices":[0],"split_type":[0],"sum_hessian":[7.673023E0],"tree_param":{"num_deleted":"0","num_feature":"20","num_nodes":"1","size_leaf_vector":"1"}},{"base_weights":[-1.2042549E-3],"categories":[],"categories_nodes":[],"categories_segments":[],"categories_sizes":[],"default_left":[0],"id":90,"left_children":[-1],"loss_changes":[0E0],"parents":[2147483647],"right_children":[-1],"split_conditions":[-1.20425495E-4],"split_indices":[0],"split_type":[0],"sum_hessian":[7.672672E0],"tree_param":{"num_deleted":"0","num_feature":"20","num_nodes":"1","size_leaf_vector":"1"}},{"base_weights":[-1.097753E-3],"categories":[],"categories_nodes":[],"categories_segments":[],"categories_sizes":[],"default_left":[0],"id":91,"left_children":[-1],"loss_changes":[0E0],"parents":[2147483647],"right_children":[-1],"split_conditions":[-1.097753E-4],"split_indices":[0],"split_type":[0],"sum_hessian":[7.6723514E0],"tree_param":{"num_deleted":"0","num_feature":"20","num_nodes":"1","size_leaf_vector":"1"}},{"base_weights":[-1.0007261E-3],"categories":[],"categories_nodes":[],"categories_segments":[],"categories_sizes":[],"default_left":[0],"id":92,"left_children":[-1],"loss_changes":[0E0],"parents":[2147483647],"right_children":[-1],"split_conditions":[-1.0007261E-4],"split_indices":[0],"split_type":[0],"sum_hessian":[7.6720595E0],"tree_param":{"num_deleted":"0","num_feature":"20","num_nodes":"1","size_leaf_vector":"1"}},{"base_weights":[-9.1222627E-4],"categories":[],"categories_nodes":[],"categories_segments":[],"categories_sizes":[],"default_left":[0],"id":93,"left_children":[-1],"loss_changes":[0E0],"parents":[2147483647],"right_children":[-1],"split_conditions":[-9.122263E-5],"split_indices":[0],"split_type":[0],"sum_hessian":[7.671793E0],"tree_param":{"num_deleted":"0","num_feature":"20","num_nodes":"1","size_leaf_vector":"1"}},{"base_weights":[-8.3151E-4],"categories":[],"categories_nodes":[],"categories_segments":[],"categories_sizes":[],"default_left":[0],"id":94,"left_children":[-1],"loss_changes":[0E0],"parents":[2147483647],"right_children":[-1],"split_conditions":[-8.3151004E-5],"split_indices":[0],"split_type":[0],"sum_hessian":[7.6715503E0],"tree_param":{"num_deleted":"0","num_feature":"20","num_nodes":"1","size_leaf_vector":"1"}},{"base_weights":[-7.5795007E-4],"categories":[],"categories_nodes":[],"categories_segments":[],"categories_sizes":[],"default_left":[0],"id":95,"left_children":[-1],"loss_changes":[0E0],"parents":[2147483647],"right_children":[-1],"split_conditions":[-7.579501E-5],"split_indices":[0],"split_type":[0],"sum_hessian":[7.671329E0],"tree_param":{"num_deleted":"0","num_feature":"20","num_nodes":"1","size_leaf_vector":"1"}},{"base_weights":[-6.9089996E-4],"categories":[],"categories_nodes":[],"categories_segments":[],"categories_sizes":[],"default_left":[0],"id":96,"left_children":[-1],"loss_changes":[0E0],"parents":[2147483647],"right_children":[-1],"split_conditions":[-6.909E-5],"split_indices":[0],"split_type":[0],"sum_hessian":[7.6711273E0],"tree_param":{"num_deleted":"0","num_feature":"20","num_nodes":"1","size_leaf_vector":"1"}},{"base_weights":[-6.2973914E-4],"categories":[],"categories_nodes":[],"categories_segments":[],"categories_sizes":[],"default_left":[0],"id":97,"left_children":[-1],"loss_changes":[0E0],"parents":[2147483647],"right_children":[-1],"split_conditions":[-6.2973915E-5],"split_indices":[0],"split_type":[0],"sum_hessian":[7.6709437E0],"tree_param":{"num_deleted":"0","num_feature":"20","num_nodes":"1","size_leaf_vector":"1"}},{"base_weights":[-5.740668E-4],"categories":[],"categories_nodes":[],"categories_segments":[],"categories_sizes":[],"default_left":[0],"id":98,"left_children":[-1],"loss_changes":[0E0],"parents":[2147483647],"right_children":[-1],"split_conditions":[-5.7406683E-5],"split_indices":[0],"split_type":[0],"sum_hessian":[7.6707764E0],"tree_param":{"num_deleted":"0","num_feature":"20","num_nodes":"1","size_leaf_vector":"1"}},{"base_weights":[-5.232903E-4],"categories":[],"categories_nodes":[],"categories_segments":[],"categories_sizes":[],"default_left":[0],"id":99,"left_children":[-1],"loss_changes":[0E0],"parents":[2147483647],"right_children":[-1],"split_conditions":[-5.2329033E-5],"split_indices":[0],"split_type":[0],"sum_hessian":[7.670624E0],"tree_param":{"num_deleted":"0","num_feature":"20","num_nodes":"1","size_leaf_vector":"1"}}]},"name":"gbtree"},"learner_model_param":{"base_score":"1.8006256E-1","boost_from_average":"1","num_class":"0","num_feature":"20","num_target":"1"},"objective":{"name":"binary:logistic","reg_loss_param":{"scale_pos_weight":"1"}}},"version":[2,1,4]}